{
  "type": "neural_model_package",
  "game": "morpion",
  "trained_player": "O",
  "opponent_player": "X",
  "model_data": {
    "type": "simple_neural_network",
    "input_size": 18,
    "hidden_size": 18,
    "output_size": 9,
    "learning_rate": 0.12,
    "input_hidden_weights": [
      [
        0.17221092576252406,
        0.12897720147015124,
        -0.0397142095845775,
        -0.12054162485351833,
        0.00563736068430426,
        -0.047532931274792856,
        0.1418992945173863,
        -0.09834363696053627,
        -0.011701522923822094,
        0.0416910197275156,
        0.2040564425976676,
        0.002343427908695128,
        -0.10908107780014809,
        0.12790210207861197,
        0.059184498337665814,
        -0.12474682931877973,
        0.20487312798412005,
        0.24139273801882655
      ],
      [
        0.4231309527012843,
        -0.3679573781645552,
        -0.20082532635502945,
        0.4993836835247868,
        -0.18529598575538483,
        0.4550673184796367,
        -0.6520752475543791,
        -0.5312388446584158,
        0.24994416567063743,
        -0.6979064979029147,
        0.6918920112720828,
        0.7518233387146939,
        0.2334272496502994,
        0.8481766053440454,
        -1.3890645124685996,
        0.0849231344193683,
        0.13204778755060603,
        -0.2744718907231949
      ],
      [
        0.591760999553372,
        0.06642797880244754,
        0.34347325950494517,
        -0.12811579110080804,
        -0.9009363124547543,
        0.7903828436167316,
        0.5405743499720552,
        0.2963282018886426,
        -0.38364559842488094,
        -0.6547720202566893,
        -1.6336978206418724,
        0.30668597604206105,
        -0.29485476347155753,
        0.21897805436906675,
        -0.6402114710899827,
        -0.028309892902714705,
        0.48359725926031194,
        -0.22832400175757345
      ],
      [
        -0.6709990752894404,
        0.7620185339406713,
        -0.5551257125170557,
        -0.5074223977660494,
        0.0930987593498822,
        -0.8699172644788385,
        0.23542700994788773,
        -0.21230620131989725,
        0.2994580246075755,
        0.8795421293614566,
        -0.794890479824158,
        -0.23774783220268556,
        0.13122692903889344,
        0.2857387850969522,
        -0.5272991888094931,
        -0.4019218331646707,
        -1.5074316437869517,
        0.765889333178699
      ],
      [
        0.7128065604988303,
        0.7082465156961937,
        0.023014020570810843,
        -0.5950709726807111,
        1.0721300841723216,
        -0.05743007736922741,
        0.480045223206372,
        1.5879026604838078,
        1.158952862370003,
        -0.33970373936648873,
        -0.32892371574654916,
        -0.43405481995509776,
        0.09719649799535118,
        -0.15318199959097184,
        0.9657535288061703,
        0.8041875323842219,
        1.6938321157507494,
        0.6979892424325764
      ],
      [
        0.17135999285058875,
        -0.043732727349732534,
        -0.13314028803529418,
        0.021620547247202707,
        0.03462750206315777,
        0.48413188206631325,
        0.5304874346577599,
        -0.7692591522145895,
        -0.24049848331797158,
        1.0460681261945755,
        0.24578994511268948,
        -0.24556892629190813,
        -0.4540947794906163,
        -0.43616892850907735,
        0.5652282261908167,
        -0.663192855391829,
        -0.17832926420448,
        -1.297921534366813
      ],
      [
        -0.1979362024420225,
        -1.9952685054125099,
        0.31505423444663005,
        0.590240814239057,
        -0.6732580894760188,
        -0.13709109155864782,
        0.19183830462043505,
        0.5096414090636947,
        -0.07459026892858485,
        -0.03216015547232782,
        1.0236470298817624,
        0.5816373837080109,
        0.02230006155099972,
        0.20082128795481877,
        0.31335977615394217,
        0.6506045047877513,
        -0.8889301387864951,
        -0.4061898476277077
      ],
      [
        0.34470002061788624,
        -0.20731025952939167,
        -0.7728358904609025,
        -0.1186858343574773,
        0.18070666723338547,
        1.356227562933531,
        -0.6469921211788321,
        -0.18310060417796767,
        0.015567951493726726,
        -0.33884072992217257,
        0.020704296645925258,
        0.21926375075394702,
        0.06631764543921088,
        0.10612406797838188,
        -0.15303315960783498,
        0.4087846395382957,
        -0.5994508763878141,
        0.4547925945536899
      ],
      [
        0.13762133711920907,
        -0.5965653733670614,
        0.33528052296334726,
        0.1794955427659338,
        1.406001386193915,
        -1.6481924825239727,
        0.2243842902491415,
        -0.07867775270742802,
        -0.3357681063917216,
        0.08515502016853897,
        0.6523478378033705,
        -0.054339764495141496,
        -0.290126223665242,
        -0.7592072469859988,
        0.30314261560783695,
        -0.6298768349891916,
        0.04108290843823983,
        -0.2527000855872437
      ],
      [
        0.034556369762140104,
        0.00430006503131658,
        -0.0942769994998966,
        -0.07142415870486857,
        0.1688305871844895,
        -0.12453366758893147,
        0.03030010942676198,
        -0.2437818405853428,
        0.12078718870533178,
        -0.08204172276326971,
        -0.22715175321579167,
        -0.10955841789082588,
        -0.129934796086823,
        0.22656466991389945,
        -0.07388721924224628,
        -0.10606104257179999,
        -0.07039940137312684,
        0.22345291782894555
      ],
      [
        0.14456273571034248,
        -0.42475298560940905,
        0.5169173781598693,
        -0.5831250886592331,
        -0.14841401027776463,
        -0.19548842244285583,
        0.23063136122537672,
        0.4907238387552622,
        -0.04617537790314259,
        0.4439040811753647,
        -0.3983050963034912,
        0.24545729008793565,
        0.6703600376965405,
        -0.08951406868172211,
        -0.2142143168200434,
        -0.06729884063102344,
        0.27259197288232456,
        0.008428233866097722
      ],
      [
        -0.005598866772643723,
        -0.3905203858066071,
        -1.1794663083426475,
        -0.0769343123119228,
        0.474375154970449,
        0.8685233460183648,
        0.07783211116402954,
        0.20916092604843073,
        0.29217025529757906,
        0.0676158758235236,
        0.4440405498719429,
        -0.011601964201079245,
        -0.2652432743234102,
        0.8531402524702145,
        1.3742337343525566,
        0.5308684583947108,
        -0.8378863419293402,
        0.1281731999843214
      ],
      [
        0.23698705927241442,
        -0.7020217069739086,
        0.370241247103535,
        0.7032049508896338,
        0.2743099890695335,
        -0.2941845658171714,
        -0.45196481285727635,
        0.07221718257377482,
        0.37095337388868266,
        -0.45867047202523764,
        0.0860098777675745,
        0.16771212364818214,
        -0.014383086256240348,
        -0.5284609502839326,
        -0.3247130194109186,
        0.06955463920305562,
        0.254275519119725,
        -0.11655752833048443
      ],
      [
        -0.27013134831060426,
        0.5935904525765581,
        -0.1977068181864372,
        -0.1196742466350714,
        -1.070115991663184,
        0.741463055566234,
        0.17177489591139675,
        -0.16294693722696046,
        -0.08176378691972891,
        -0.3506609802742813,
        0.16941712298381142,
        0.5085686773192992,
        -0.16099734183970196,
        -0.5254620834830726,
        -0.1140377695299221,
        -0.21612807971856998,
        -0.22783191820572402,
        -0.7825797496145427
      ],
      [
        0.7270115879998262,
        -0.317854897596313,
        0.5939904022116618,
        -0.020905884247428196,
        -0.06091071582462766,
        -0.6441265465573032,
        -0.6169378120248923,
        0.46166287871350487,
        0.7972772647651881,
        0.14321185243867535,
        -0.5538732471648877,
        0.27732342375448465,
        -0.06809184758817587,
        0.05980494826564545,
        -0.800626137528958,
        0.03689330261085208,
        -0.5609570094564706,
        0.7559827401585917
      ],
      [
        0.2658793968689235,
        0.10208420667988259,
        -0.7025243755915577,
        -0.973587319476131,
        0.6565368731137524,
        0.6169725836654338,
        0.17705208171121142,
        -0.24470243108175663,
        -0.3915571055253042,
        -0.05169323563685312,
        -0.43275796740967737,
        -0.03538095353611872,
        0.029563020463674514,
        0.14925524865500173,
        -0.18441302055170297,
        -0.7965929045705253,
        0.645224358737737,
        -0.16818432050015544
      ],
      [
        0.37141881284290396,
        -0.5698742933307727,
        0.5574770646153151,
        -0.01701659666979263,
        0.0077912105039774394,
        -0.09516444391822453,
        -0.02520743281454942,
        0.3168520266211252,
        -0.34438019885006127,
        0.2756674082228042,
        0.2427755323349371,
        0.03840859104718525,
        -0.02556645374831801,
        0.7311734424660736,
        -0.19403434130041972,
        -0.6293747045925676,
        0.0037226431792044433,
        -0.05969935085990224
      ],
      [
        -0.6156861207431561,
        -0.056357598387864055,
        -0.18108539534242205,
        -0.4324046759462812,
        0.09202150704589092,
        -0.09761581959673246,
        -0.2375932725457669,
        -0.2875043073828181,
        0.48912587812221525,
        0.1267197763654885,
        -0.2846986634685776,
        -0.3788527184247555,
        -0.24379717488788136,
        -0.0016087863858777012,
        -0.6813808448147044,
        0.5742446162640489,
        0.026109470561407205,
        0.09116444657736202
      ]
    ],
    "hidden_biases": [
      0.04296333719171157,
      0.43257706247659666,
      -0.7266226425464957,
      -0.405830612037208,
      0.25578853842538923,
      0.44509980593665666,
      -0.5423515860250888,
      0.17253102752234778,
      0.143365539862704,
      0.6814134281362743,
      -0.5410210392395466,
      0.5786989628939474,
      0.21363643160694162,
      0.3089584403251614,
      -0.3234075812923172,
      -0.5708161171036972,
      -0.039205666961731916,
      -0.7058963308169002
    ],
    "hidden_output_weights": [
      [
        -0.8515103244717381,
        0.39173108097992027,
        0.5483863373314344,
        0.46427937224022214,
        -0.09898297036144096,
        -0.3044022519433752,
        -0.18739574214479524,
        -0.5513917583210941,
        0.3705818881946085
      ],
      [
        -1.6063117202470945,
        0.18945928430174358,
        0.30920698075488934,
        -0.9903244856834545,
        -0.4339093979040846,
        -0.15383484310780388,
        0.347239169385391,
        -0.5080292230826202,
        -0.3662559216034853
      ],
      [
        -0.1688962723869057,
        -0.04156039335945953,
        -0.022315848160705525,
        0.293247795291435,
        1.0017927319860622,
        0.769203495883585,
        0.4564335896012594,
        0.10518382409048951,
        -0.7692799518165849
      ],
      [
        -0.6163327203776595,
        0.41038167094016825,
        0.5172562816994074,
        0.02312199598153372,
        -0.4624586461222075,
        0.5510397278964537,
        0.5353863310421577,
        0.26609766861159295,
        0.4715475300038106
      ],
      [
        -1.8111506639728794,
        -0.1461791920998284,
        -0.1533685392116364,
        0.08294762076468881,
        0.3396914479422266,
        0.41205194725305444,
        0.2904933081582076,
        0.32295676649165467,
        -0.4108935352121687
      ],
      [
        -1.1425904688995197,
        -0.42963605542096384,
        -0.8725113560407081,
        0.23429948228900793,
        -0.6715836237967053,
        -0.15372806500715916,
        0.09266158667219253,
        0.08295592838848123,
        -0.7491595863526183
      ],
      [
        -0.7247991853307264,
        -0.054056793827804546,
        0.13738478029401646,
        0.31433633948232387,
        0.5019850643121485,
        0.5984613750915977,
        -0.23505652501963378,
        0.27812274824848854,
        0.31668152417839085
      ],
      [
        -0.44141019026678807,
        0.42773769225385416,
        -0.6329236307210304,
        0.5488162499598304,
        -0.5590317313376081,
        0.5218830931145924,
        0.3858815992002975,
        0.714234528205515,
        -0.05124368809060819
      ],
      [
        0.5755820524241347,
        -0.9066462382684196,
        -0.3478519021610264,
        0.5422920206179432,
        0.03897685546898359,
        0.02881865628650454,
        0.5646364307601988,
        -0.0672580644495836,
        -0.4146726691288394
      ],
      [
        -0.6887378877180124,
        -0.5531576877177147,
        0.5950969361804564,
        -0.1058340558964112,
        -1.2069706201331032,
        -0.27712469151787905,
        0.45511339605505313,
        -0.6678335834777068,
        0.2660811228104148
      ],
      [
        -1.1404876515320064,
        -0.453210397731976,
        0.13164468436830906,
        -0.40691852849461807,
        -1.1523513400026488,
        -0.7551448474374544,
        -0.04626057767326077,
        -0.11435031760881834,
        -0.5366036623947906
      ],
      [
        0.016169953502565518,
        -0.04037007362889898,
        0.8912586321330023,
        -0.612172347598664,
        0.2098884513455156,
        -0.2265856149566128,
        -0.373585452724182,
        0.34450640464671695,
        -0.08154084066573442
      ],
      [
        0.016431784552256416,
        -0.22611011576303658,
        0.44824764406492196,
        -0.1914438270405722,
        0.4289082403407049,
        -0.2616320050230529,
        0.4396942316315259,
        0.17811956562243625,
        -0.3288283742401438
      ],
      [
        0.9189677743222535,
        0.34542416117358227,
        0.5494277075793192,
        -0.2843232308717093,
        0.640324255494109,
        -0.0005615394662893574,
        -0.009179342314915732,
        0.1911314163670559,
        0.27328519432526327
      ],
      [
        1.6410438551421844,
        0.39667781503943045,
        0.7922036279185781,
        0.3718720257882784,
        0.7871552031590806,
        0.16115807144399283,
        0.4634585414170601,
        0.412806418314528,
        0.020363173824184396
      ],
      [
        -1.0204450853751192,
        0.33731161993130854,
        0.7773761033895874,
        0.4149999795106698,
        0.11067907678594181,
        0.07197233205999624,
        -0.47507625405005266,
        -0.06562027464143429,
        0.7460721129110799
      ],
      [
        1.5280198660729638,
        0.17115686118029907,
        0.7808994715904556,
        0.425484388816746,
        -0.48584771867251186,
        0.15176639745835951,
        -0.0443771037800676,
        0.5685595848801486,
        0.6453462083175083
      ],
      [
        0.55580847108064,
        0.3684560544509692,
        0.42320311323080856,
        -1.0160105976773641,
        -1.0375591444916088,
        0.1670828355039345,
        -0.06603419912504649,
        0.24097922477322517,
        0.3305610976257868
      ]
    ],
    "output_biases": [
      0.01366031426160225,
      -0.20284428919263836,
      0.33762085858534463,
      -1.0981772559121077,
      0.07863443457714629,
      -0.008210405735412082,
      -0.7590798479273619,
      -0.41121988501048795,
      0.2034296391320177
    ]
  },
  "training_summary": {
    "game": "morpion",
    "training_games_count": 300,
    "simulations_per_move": 30,
    "max_examples": 200,
    "examples_count": 200,
    "scored_moves_count": 1000,
    "average_legal_moves": 5.0,
    "average_best_score": 0.55,
    "input_size": 18,
    "hidden_size": 18,
    "output_size": 9,
    "epochs": 160,
    "learning_rate": 0.12,
    "initial_error": 0.07635568424850066,
    "final_error": 0.011477152413433021,
    "error_improvement": 0.06487853183506764
  }
}