{
  "type": "neural_model_package",
  "game": "morpion",
  "trained_player": "O",
  "opponent_player": "X",
  "model_data": {
    "type": "simple_neural_network",
    "input_size": 18,
    "hidden_size": 18,
    "output_size": 9,
    "learning_rate": 0.04,
    "input_hidden_weights": [
      [
        1.6512589619410707,
        0.7559008024628815,
        0.10125886553619205,
        0.40266071526963515,
        -0.1818696345031468,
        0.15833109463156664,
        -1.3342188252291172,
        0.12569120707311518,
        -1.142662543533032,
        -0.7459600933533977,
        1.7781380359231882,
        -0.7080093056730259,
        -1.3142403345691696,
        -0.8022336033282034,
        1.7865804202861746,
        0.5645719088282065,
        1.2494865999359477,
        -0.8256921435132009
      ],
      [
        0.6116671211929289,
        1.1043993290577312,
        -1.394326549916868,
        0.9125131415284335,
        -0.6905815969514704,
        0.8444071903867475,
        -0.10215383257608052,
        -0.3363217012939126,
        0.4985525439913248,
        2.1217037153487857,
        -0.44899463484871854,
        -0.5582072892928125,
        -1.074738941087699,
        -0.28854283783526036,
        -0.4141151156090368,
        0.4469199022127089,
        0.6657929495502786,
        -0.827857732966886
      ],
      [
        1.0075092452827685,
        0.832463422692894,
        0.18639899837214904,
        1.1245257840939074,
        -0.28980436911305807,
        0.25280772018169584,
        -0.2585099992132555,
        -1.372622687756004,
        -0.631095537589882,
        -1.2139152995884157,
        0.8541481293933937,
        1.1937185181475913,
        -0.9153716954774328,
        0.7050567703652015,
        -0.3752438208485695,
        -2.306286350522948,
        0.5522407788176754,
        -0.11879043404190105
      ],
      [
        0.9664928854185207,
        1.8931940746080953,
        -0.5631850808113591,
        -1.0024569811714992,
        1.024665380904756,
        0.14060919066262884,
        0.6806721060695584,
        -0.1320684754168343,
        -0.6295260771700345,
        -0.24798580116292443,
        0.24749427030292567,
        -1.0674693745477557,
        0.847432723532984,
        -0.30678617368344946,
        -0.8886564073525633,
        -0.5299764182901345,
        -2.231865998986172,
        -0.8938467101165377
      ],
      [
        0.16235524256141848,
        1.5525391645886644,
        -0.16980235048640208,
        1.1106378345362782,
        0.4291611812885424,
        1.587474902334868,
        -0.36657283443416006,
        0.4507094425211849,
        1.162248542949636,
        0.19508582974771166,
        -0.6415045155430515,
        -0.5588287242774872,
        1.1018157128774284,
        1.6093713784039672,
        1.7985088072773385,
        1.463992242015838,
        0.4224908053207183,
        -0.5289787997745271
      ],
      [
        1.5537789047178603,
        -1.2049138208401986,
        -0.45593064525166477,
        0.5133024170516408,
        0.627043902818727,
        0.23296175890764545,
        -0.5377067518353474,
        -1.9245037471911175,
        -0.49804877867807956,
        -0.08809859527877195,
        0.6340450515625984,
        1.249901121247048,
        0.7733589931827514,
        0.09402430480278325,
        -0.31279286205780593,
        0.39631084860478294,
        0.3480108885413284,
        -0.15650813100209704
      ],
      [
        1.4003261400847875,
        1.1620020034558747,
        -0.7090934389431637,
        -0.5244161068560115,
        -1.6589849582558707,
        -1.1499410236744587,
        -0.17443481508985212,
        0.31010384169272753,
        -1.3029454570961925,
        -0.22104362481656908,
        1.0851911657411144,
        -0.7373051560584505,
        0.7322775553583442,
        1.7868981421959789,
        -0.7188589104025594,
        1.4273875912267058,
        -2.093097987825549,
        -1.2755383156349778
      ],
      [
        1.243442616444532,
        0.7912630574916835,
        -1.806611635960506,
        0.5371996178875889,
        -0.032320167024407154,
        2.217057803977437,
        0.05827573835370587,
        0.031156215901391362,
        -0.2355229055138213,
        0.2003233356162907,
        -0.44712164828528805,
        -0.7887447847353274,
        0.2631575625513151,
        -0.6521905562527316,
        -0.45142786997150297,
        -0.31759520807541075,
        0.7403556746390076,
        1.8918525514503888
      ],
      [
        1.6070777271699543,
        0.8137351332675997,
        -0.7325198892992296,
        0.6374156670829749,
        1.4512580585449013,
        -0.8655948111350119,
        0.578057862944871,
        -1.6537688670242585,
        -1.1949476266169201,
        0.2313605344966151,
        2.313883506788944,
        1.0118592107772963,
        1.2297252796181306,
        -0.5764562755643982,
        2.1239444628822493,
        0.13836166507151526,
        0.3270429423064473,
        1.3271280300427208
      ],
      [
        1.0107020855341176,
        -0.9781446645596976,
        0.0392906554326462,
        -0.5080858233737513,
        0.573093371199298,
        -0.32301269809350397,
        1.116664149840608,
        -0.6901008423078906,
        0.647265674475777,
        0.6101628552261957,
        -0.27832503792546154,
        0.31216503486723673,
        0.38109585441465166,
        -0.36057017362814975,
        -0.37254578196808796,
        -0.03299586125431602,
        -1.9956978367578395,
        0.1818249363373439
      ],
      [
        1.3820452111904815,
        -0.9624278204923699,
        1.1242601056865553,
        -0.5389289929951796,
        0.11654876379164571,
        -0.2257019030283964,
        0.40026926076063507,
        -0.07228427219614782,
        0.2318523888870045,
        -0.3452045697352717,
        0.2963465326680051,
        0.3178129075187045,
        0.17885104015122905,
        -0.4042690929543891,
        0.32346618045422126,
        -0.10220709285155788,
        -0.5205107609348602,
        0.42877179974450924
      ],
      [
        1.1530508158426265,
        -0.9058159541639514,
        0.21644316243720893,
        -0.641882606510102,
        -0.1481155440631878,
        -0.12762452471211003,
        0.4324258342376788,
        1.063286151176925,
        0.4463622130765454,
        1.151543418595553,
        -0.245892922204872,
        -0.44206395863455633,
        0.42827462350369816,
        -0.9529704404885692,
        0.38815949165736746,
        0.14199214292443532,
        -0.4101616525995656,
        0.22447097257055176
      ],
      [
        1.5484952930614546,
        -2.429981604922181,
        0.5184145990595755,
        -0.3730153943273043,
        0.20809433613491804,
        0.08958766327600956,
        0.10276974489276845,
        0.21539944054150859,
        1.2352283833112725,
        0.09818980513654242,
        -0.23785403396601104,
        0.37350527327365574,
        -0.7932080312084764,
        -0.5001365599302738,
        0.5457708644424817,
        0.17303472449561264,
        -0.029106230300429865,
        -0.010988616427840946
      ],
      [
        -1.6851220959395197,
        -1.629103271941341,
        1.2012116777395176,
        -2.4733464414925486,
        -0.7527077920899531,
        -0.41722457719937767,
        -0.07830741804826959,
        -0.626903963049971,
        0.29034957930687305,
        -0.385315801209503,
        0.5201690270485378,
        -0.06941117943125837,
        -0.9165231886651908,
        -1.1226103765739697,
        -0.27678191947242253,
        -0.6830524552138021,
        -0.4851813427604403,
        0.4156967052955139
      ],
      [
        2.0128941491937895,
        -0.8502503545170069,
        0.643493382841138,
        -0.9453952553689635,
        0.13025766783427475,
        -0.10455696031718054,
        0.6016032511285795,
        0.8958908266052831,
        1.0376287712207526,
        0.23859739846102107,
        -0.2713043819486981,
        -0.2755149267409079,
        -0.7922009460083852,
        -0.08024534154358896,
        0.689210704537135,
        -0.49143512994160643,
        -0.3067659429118599,
        0.5913801992024905
      ],
      [
        1.391225063260619,
        -0.9062751099914134,
        0.7140314238463373,
        -0.06951792301855848,
        0.26509726360253566,
        0.18113869730490503,
        0.19012910239748448,
        0.18270059829238702,
        1.1593845240876346,
        -0.013697786038358537,
        -0.4566005957179099,
        0.377669098661878,
        -0.9315907496634475,
        -0.9472076329591574,
        0.4991416940367692,
        -0.32067644342429175,
        0.04184965052361427,
        2.02250095700013
      ],
      [
        1.1308898674973078,
        -1.0786925410831099,
        0.5927195309704147,
        -0.6537096683371769,
        -0.24091544980211743,
        -0.3808832559963773,
        0.8192493148781155,
        0.2082891046205844,
        0.4561213949007668,
        -0.13968724302015761,
        0.4943749228323031,
        0.387264929429597,
        -0.524569477031564,
        -0.039082658719293964,
        0.4560200778488038,
        -0.3695986902525706,
        -0.48074656694893303,
        0.15826415888667503
      ],
      [
        1.1620713606643425,
        -1.0205590614514064,
        0.11738249309794008,
        -0.6389514806330236,
        -0.5598091473489459,
        0.4693585804784392,
        0.6607170047224507,
        1.0125987175450113,
        1.7637841784812673,
        0.015865176074264454,
        -0.30503915625290245,
        -0.665925060682242,
        -0.9578992544912839,
        0.21365223555354482,
        -0.2238956432282255,
        -0.20640484107333038,
        -0.4086393252642483,
        -0.01843409888726228
      ]
    ],
    "hidden_biases": [
      0.614893998682858,
      0.3827793883056144,
      -0.4129333250387094,
      -0.6401382817435514,
      -0.6138687619997283,
      0.05789019632108062,
      -1.415319930290365,
      0.15931707880844714,
      1.0376281173771345,
      1.3273737546477,
      0.011540400472921581,
      -1.7666841585590225,
      -1.2138708262615576,
      2.7230742045065015,
      0.7383132597899248,
      -1.0092132901950568,
      -0.5222578240255722,
      0.9505382706871238
    ],
    "hidden_output_weights": [
      [
        -1.922918759708389,
        0.724977948258725,
        -2.531090476255722,
        0.407990321694443,
        -1.4679030652569287,
        0.4126014700873069,
        -2.7187334207691576,
        0.8251458751896895,
        -2.449093145057985
      ],
      [
        0.005717435352114122,
        -0.8108785286307886,
        -0.9192910584107523,
        -2.7573299785454712,
        -3.0643488225424247,
        0.15626279153274952,
        -1.4341541444457544,
        -1.0514730986367802,
        0.8595566441170351
      ],
      [
        1.3919049762403946,
        -0.2625793638185508,
        1.276981469313918,
        0.845461342563849,
        1.7230789964361748,
        0.9597010345078054,
        0.462770322152105,
        -0.0224433644624105,
        -0.46334787922519205
      ],
      [
        0.029822853323885505,
        0.16171984700147435,
        -1.2467488207107353,
        1.0407163310345195,
        -1.5580929403457509,
        -2.1150554749491035,
        3.573729221213355,
        -0.1889984880317901,
        -1.1585801847168935
      ],
      [
        -0.3086425979073237,
        0.24222051559460184,
        -0.7648159002356713,
        0.9705249686589904,
        -0.10590073195746895,
        0.08044351895654514,
        1.2780226786197135,
        -0.491579091059888,
        -0.13165336651718282
      ],
      [
        0.17532477864481977,
        -0.3924909638301175,
        -0.06933736615348599,
        0.30404379756255956,
        -2.362259971392743,
        -0.0698459401702155,
        1.526145809033653,
        -0.17988191661920214,
        1.9460587786471584
      ],
      [
        0.9507416946163294,
        0.8722879562908672,
        1.0143636235670992,
        0.5394867366429481,
        1.0971160021400022,
        1.1621367406007608,
        -0.3482165703981843,
        2.014761633025885,
        0.12952678312702753
      ],
      [
        0.962726880173645,
        0.6394382482034066,
        1.285646853377432,
        1.3056362244940434,
        0.05293381739399474,
        0.3468317426853381,
        1.4568949382484533,
        0.4750544770315774,
        1.527808921640682
      ],
      [
        1.1411604618476314,
        -0.02212590270042903,
        1.859442518585876,
        -0.39711192243344956,
        0.2359850843294646,
        1.5765367856376005,
        -1.0850426052429656,
        -2.8600190436643067,
        0.3114500964178641
      ],
      [
        1.6781530836520757,
        -2.6815104765522975,
        1.6669437218984902,
        -0.43956709995381016,
        -0.13371305673140985,
        0.3395744239313163,
        0.2790042376169852,
        -1.0688020377357206,
        0.22285915097308762
      ],
      [
        1.5571093854530191,
        -0.7203482335153835,
        -0.32923077938202294,
        0.13872850359320427,
        -1.9820340382876274,
        -0.6689344411353105,
        1.5092408695125603,
        -0.3928737528987847,
        2.2945927755385584
      ],
      [
        -0.16970821074989909,
        -0.5402974969920169,
        2.204294956771887,
        -0.20014864765482127,
        -1.330354581963724,
        2.585569355910662,
        -0.4410887928837419,
        -0.2801223977672873,
        2.299457552773782
      ],
      [
        0.9973334204340315,
        0.5995232502290023,
        1.381176116075175,
        -0.9785104884226533,
        -0.7694496210416781,
        -0.3707311585837499,
        -1.30244224140062,
        -0.9699116901347777,
        -1.5499044591115103
      ],
      [
        1.4643931780220902,
        0.7095904219952226,
        -1.0243947861832716,
        0.3200075255175591,
        -1.868420423173031,
        0.3022478395717705,
        -0.5887170414982245,
        1.2909271476419633,
        3.1038767002820298
      ],
      [
        -1.0240113570762484,
        1.5362788359787611,
        0.831713184650911,
        0.9701580467371369,
        -1.2941191324275305,
        0.6965622482043891,
        1.9410350157719884,
        1.2403518449991413,
        -2.3638396742589474
      ],
      [
        -0.12434806269308413,
        0.1501190081585745,
        0.2275419687421322,
        1.2859109894957292,
        -1.377301473196703,
        0.4039474537845073,
        -1.3639491762057134,
        1.3824181175713537,
        2.1596792573814194
      ],
      [
        3.65454870692916,
        0.7050833244399983,
        0.29567519776755885,
        -1.539515659652833,
        0.6130299304383698,
        1.2163142534493747,
        -3.6961086510235734,
        0.43984756404309366,
        0.955736177187571
      ],
      [
        -0.11306941176547577,
        0.48966044422523636,
        -0.21649693862726702,
        -0.606688442096459,
        -0.11211892065722448,
        -0.6170159830825582,
        -0.6214683276931371,
        1.824394622706971,
        2.3063190093376478
      ]
    ],
    "output_biases": [
      1.1315536695215747,
      -0.8858328420808943,
      0.8433464228053252,
      -2.8764119867704756,
      -0.0710421257056696,
      -1.6487671744525823,
      -0.6677935633126548,
      -1.5022451141669897,
      -0.23781691497285162
    ]
  },
  "training_summary": {
    "game": "morpion",
    "training_games_count": 1000,
    "simulations_per_move": 30,
    "max_examples": 1000,
    "available_states_count": 1263,
    "tactical_repeat_count": 25,
    "base_examples_count": 1000,
    "extra_examples_count": 450,
    "examples_count": 1450,
    "training_examples_count": 1160,
    "validation_examples_count": 290,
    "validation_ratio": 0.2,
    "scored_moves_count": null,
    "average_legal_moves": null,
    "average_best_score": null,
    "input_size": 18,
    "hidden_size": 18,
    "output_size": 9,
    "epochs": 60,
    "learning_rate": 0.04,
    "started_from_existing_model": false,
    "initial_error": 0.1561432551606091,
    "final_error": 0.046399331164799495,
    "error_improvement": 0.1097439239958096,
    "initial_validation_error": 0.16646508425335735,
    "final_validation_error": 0.09408235394482269,
    "validation_error_improvement": 0.07238273030853466,
    "benchmark_checkpoints_count": 50,
    "benchmark_epochs_per_checkpoint": 20,
    "benchmark_evaluation_games_count": 500,
    "initial_evaluation_efficiency": 36.6,
    "final_evaluation_efficiency": 84.5,
    "evaluation_efficiency_improvement": 47.9,
    "initial_tactical_success_rate": 16.666666666666664,
    "final_tactical_success_rate": 83.33333333333334,
    "tactical_success_rate_improvement": 66.66666666666669,
    "best_checkpoint_index": 3,
    "best_total_epochs": 60,
    "final_checkpoint_is_best": false,
    "stopped_early": true
  },
  "benchmark_summary": {
    "available_states_count": 1263,
    "checkpoints": [
      {
        "checkpoint_index": 0,
        "total_epochs": 0,
        "elapsed_seconds": 0.0,
        "training_error": 0.1561432551606091,
        "validation_error": 0.16646508425335735,
        "evaluation_results": {
          "X": 275,
          "O": 141,
          "draw": 84
        },
        "evaluation_seed": 0,
        "evaluation_efficiency": 36.6,
        "tactical_passed_count": 3,
        "tactical_total_count": 18,
        "tactical_success_rate": 16.666666666666664
      },
      {
        "checkpoint_index": 1,
        "total_epochs": 20,
        "elapsed_seconds": 2.3494707997888327,
        "training_error": 0.0842841136795552,
        "validation_error": 0.16390554368548604,
        "evaluation_results": {
          "X": 225,
          "O": 257,
          "draw": 18
        },
        "evaluation_seed": 0,
        "evaluation_efficiency": 53.2,
        "tactical_passed_count": 12,
        "tactical_total_count": 18,
        "tactical_success_rate": 66.66666666666666
      },
      {
        "checkpoint_index": 2,
        "total_epochs": 40,
        "elapsed_seconds": 4.619350899942219,
        "training_error": 0.06015208098952038,
        "validation_error": 0.12400467022073754,
        "evaluation_results": {
          "X": 126,
          "O": 345,
          "draw": 29
        },
        "evaluation_seed": 0,
        "evaluation_efficiency": 71.89999999999999,
        "tactical_passed_count": 13,
        "tactical_total_count": 18,
        "tactical_success_rate": 72.22222222222221
      },
      {
        "checkpoint_index": 3,
        "total_epochs": 60,
        "elapsed_seconds": 6.874342900002375,
        "training_error": 0.046399331164799495,
        "validation_error": 0.09408235394482269,
        "evaluation_results": {
          "X": 51,
          "O": 396,
          "draw": 53
        },
        "evaluation_seed": 0,
        "evaluation_efficiency": 84.5,
        "tactical_passed_count": 15,
        "tactical_total_count": 18,
        "tactical_success_rate": 83.33333333333334
      },
      {
        "checkpoint_index": 4,
        "total_epochs": 80,
        "elapsed_seconds": 9.13616959983483,
        "training_error": 0.03912249222221089,
        "validation_error": 0.08549161266779778,
        "evaluation_results": {
          "X": 43,
          "O": 423,
          "draw": 34
        },
        "evaluation_seed": 0,
        "evaluation_efficiency": 88.0,
        "tactical_passed_count": 14,
        "tactical_total_count": 18,
        "tactical_success_rate": 77.77777777777779
      },
      {
        "checkpoint_index": 5,
        "total_epochs": 100,
        "elapsed_seconds": 11.394904999993742,
        "training_error": 0.03512732474009308,
        "validation_error": 0.08231611883001219,
        "evaluation_results": {
          "X": 42,
          "O": 414,
          "draw": 44
        },
        "evaluation_seed": 0,
        "evaluation_efficiency": 87.2,
        "tactical_passed_count": 14,
        "tactical_total_count": 18,
        "tactical_success_rate": 77.77777777777779
      },
      {
        "checkpoint_index": 6,
        "total_epochs": 120,
        "elapsed_seconds": 13.653235599864274,
        "training_error": 0.03275803828312468,
        "validation_error": 0.08598835923219371,
        "evaluation_results": {
          "X": 44,
          "O": 401,
          "draw": 55
        },
        "evaluation_seed": 0,
        "evaluation_efficiency": 85.7,
        "tactical_passed_count": 13,
        "tactical_total_count": 18,
        "tactical_success_rate": 72.22222222222221
      },
      {
        "checkpoint_index": 7,
        "total_epochs": 140,
        "elapsed_seconds": 15.8810864998959,
        "training_error": 0.03130546089738956,
        "validation_error": 0.08442214727343937,
        "evaluation_results": {
          "X": 46,
          "O": 397,
          "draw": 57
        },
        "evaluation_seed": 0,
        "evaluation_efficiency": 85.1,
        "tactical_passed_count": 13,
        "tactical_total_count": 18,
        "tactical_success_rate": 72.22222222222221
      },
      {
        "checkpoint_index": 8,
        "total_epochs": 160,
        "elapsed_seconds": 18.1244550999254,
        "training_error": 0.02992754421327077,
        "validation_error": 0.08169580697821212,
        "evaluation_results": {
          "X": 33,
          "O": 415,
          "draw": 52
        },
        "evaluation_seed": 0,
        "evaluation_efficiency": 88.2,
        "tactical_passed_count": 14,
        "tactical_total_count": 18,
        "tactical_success_rate": 77.77777777777779
      },
      {
        "checkpoint_index": 9,
        "total_epochs": 180,
        "elapsed_seconds": 20.385988499969244,
        "training_error": 0.028990521086379416,
        "validation_error": 0.08603800710741047,
        "evaluation_results": {
          "X": 37,
          "O": 416,
          "draw": 47
        },
        "evaluation_seed": 0,
        "evaluation_efficiency": 87.9,
        "tactical_passed_count": 13,
        "tactical_total_count": 18,
        "tactical_success_rate": 72.22222222222221
      },
      {
        "checkpoint_index": 10,
        "total_epochs": 200,
        "elapsed_seconds": 22.645671599777415,
        "training_error": 0.02830316542445408,
        "validation_error": 0.08467074184309664,
        "evaluation_results": {
          "X": 27,
          "O": 434,
          "draw": 39
        },
        "evaluation_seed": 0,
        "evaluation_efficiency": 90.7,
        "tactical_passed_count": 13,
        "tactical_total_count": 18,
        "tactical_success_rate": 72.22222222222221
      },
      {
        "checkpoint_index": 11,
        "total_epochs": 220,
        "elapsed_seconds": 24.888555999845266,
        "training_error": 0.027535530117989142,
        "validation_error": 0.08396660821802927,
        "evaluation_results": {
          "X": 29,
          "O": 421,
          "draw": 50
        },
        "evaluation_seed": 0,
        "evaluation_efficiency": 89.2,
        "tactical_passed_count": 13,
        "tactical_total_count": 18,
        "tactical_success_rate": 72.22222222222221
      },
      {
        "checkpoint_index": 12,
        "total_epochs": 240,
        "elapsed_seconds": 27.14257329981774,
        "training_error": 0.02746246358351965,
        "validation_error": 0.08346442442235394,
        "evaluation_results": {
          "X": 29,
          "O": 432,
          "draw": 39
        },
        "evaluation_seed": 0,
        "evaluation_efficiency": 90.3,
        "tactical_passed_count": 14,
        "tactical_total_count": 18,
        "tactical_success_rate": 77.77777777777779
      },
      {
        "checkpoint_index": 13,
        "total_epochs": 260,
        "elapsed_seconds": 29.38824259978719,
        "training_error": 0.026448047509077886,
        "validation_error": 0.08291832827601105,
        "evaluation_results": {
          "X": 29,
          "O": 431,
          "draw": 40
        },
        "evaluation_seed": 0,
        "evaluation_efficiency": 90.2,
        "tactical_passed_count": 13,
        "tactical_total_count": 18,
        "tactical_success_rate": 72.22222222222221
      }
    ],
    "initial_training_error": 0.1561432551606091,
    "final_training_error": 0.026448047509077886,
    "training_error_improvement": 0.1296952076515312,
    "initial_validation_error": 0.16646508425335735,
    "final_validation_error": 0.08291832827601105,
    "validation_error_improvement": 0.0835467559773463,
    "initial_evaluation_efficiency": 36.6,
    "final_evaluation_efficiency": 90.2,
    "evaluation_efficiency_improvement": 53.6,
    "initial_tactical_success_rate": 16.666666666666664,
    "final_tactical_success_rate": 72.22222222222221,
    "tactical_success_rate_improvement": 55.55555555555555,
    "best_checkpoint": {
      "checkpoint_index": 3,
      "total_epochs": 60,
      "elapsed_seconds": 6.874342900002375,
      "training_error": 0.046399331164799495,
      "validation_error": 0.09408235394482269,
      "evaluation_results": {
        "X": 51,
        "O": 396,
        "draw": 53
      },
      "evaluation_seed": 0,
      "evaluation_efficiency": 84.5,
      "tactical_passed_count": 15,
      "tactical_total_count": 18,
      "tactical_success_rate": 83.33333333333334
    },
    "best_checkpoint_index": 3,
    "best_total_epochs": 60,
    "best_training_error": 0.046399331164799495,
    "best_validation_error": 0.09408235394482269,
    "best_evaluation_efficiency": 84.5,
    "best_tactical_success_rate": 83.33333333333334,
    "final_checkpoint_is_best": false,
    "stopped_early": true
  }
}