{
  "type": "neural_model_package",
  "game": "morpion",
  "trained_player": "O",
  "opponent_player": "X",
  "model_data": {
    "type": "simple_neural_network",
    "input_size": 18,
    "hidden_size": 18,
    "output_size": 9,
    "learning_rate": 0.12,
    "input_hidden_weights": [
      [
        2.50874982277295,
        1.4924905734407532,
        -0.9796012039967494,
        -1.5376749393779614,
        -0.39118280019269963,
        0.8514156599132741,
        -0.10476276573457272,
        -3.5131499218462237,
        -0.27048259012679193,
        0.26883075875503654,
        1.6219171784612638,
        2.2042843273459773,
        0.9942629778532671,
        0.7739208098595136,
        -4.136531212862744,
        2.1077622433630623,
        2.5599344304112606,
        0.03956715545859938
      ],
      [
        -1.2382639886780822,
        -1.9017081274770231,
        -1.3759716646946216,
        1.0194041620358754,
        0.040909032824086845,
        1.1495222334852646,
        -3.0695822875416243,
        -0.7206816640615273,
        1.6600648499497832,
        -1.2927322376250274,
        2.723560103123942,
        -0.9821798263579932,
        0.029091478275711395,
        -0.2088529283549961,
        0.42081717060759694,
        -0.07687436739544427,
        -1.2021613033577911,
        -0.020486646312942995
      ],
      [
        -0.8544533027978694,
        2.768749628899442,
        2.469861491432342,
        -1.9658688497473549,
        -0.1259198656234972,
        0.5800504488670611,
        0.4144801961208472,
        -0.5194652930873804,
        0.052277926728033976,
        -0.9052489137834246,
        -0.8943574302003005,
        -0.17122508454059693,
        -0.4764391872517058,
        0.7719555810087657,
        0.14861402111706296,
        -0.8651857776763103,
        1.5960325959920674,
        -0.6808810702587312
      ],
      [
        -0.6823318883371929,
        1.2460060011990408,
        -0.6378343788869755,
        1.2938786922333574,
        -1.9093146924679165,
        -1.5078951441535846,
        -0.10391885148126041,
        0.35865717042756307,
        0.5772470589030132,
        0.1480354910949645,
        -0.8873126675775592,
        0.1664472671416542,
        2.802947658609676,
        -3.212799900350838,
        -1.1092901718199426,
        0.9360132442835458,
        1.52917098416461,
        1.8862549263644846
      ],
      [
        0.8033554338579183,
        3.345029445132852,
        0.9181485323600821,
        0.7227135031063787,
        0.2731873308404697,
        0.7314729205391841,
        2.613124600059412,
        1.0140578770801403,
        2.1456763657186553,
        -0.45717268437354874,
        -1.2109369060400395,
        -2.360231863857941,
        0.7393043893508352,
        0.9890964037310843,
        0.6408153833582646,
        0.5207374247311285,
        1.9700906504621853,
        0.48403197396857567
      ],
      [
        0.9372139846719905,
        0.5535786273135862,
        -0.3580139949203579,
        0.7901035663009556,
        -0.5126233822817593,
        1.3296928339733716,
        0.509596498186699,
        -1.3707740800741541,
        -0.6143491423296608,
        2.1223517444374775,
        -0.6727125107370765,
        1.4148331082366636,
        0.022817060757316376,
        0.18806878035756164,
        -0.21499823646385638,
        1.012139572716949,
        1.763566689317252,
        -1.3694778750205931
      ],
      [
        0.17547309161406305,
        -2.649363019135865,
        -0.16824210603296408,
        -2.0699644507975052,
        -1.9418981736721566,
        -0.06474240029638756,
        0.19852785933702446,
        1.5452961259404865,
        0.47471477999866796,
        0.511113051706335,
        -1.1828578090967248,
        -0.4464880723990016,
        1.9314976041116092,
        0.15649210756461598,
        -0.4527535156791864,
        1.2425123210123328,
        0.38530891016945307,
        -0.34686842058041456
      ],
      [
        0.805151598359782,
        -0.03678897363545174,
        -0.7255223415181229,
        -2.8365818454483716,
        0.7143500377864882,
        1.3389732103707985,
        1.0611463163876311,
        -1.7802156163148626,
        -0.5310201695884778,
        -0.7806555097411783,
        0.1882859266309281,
        0.4850357428492073,
        -0.034782229985394465,
        -0.9997893837825612,
        0.3567988124271827,
        -2.851321500825485,
        -0.8559657996168415,
        0.45426111920589246
      ],
      [
        0.2860223855221512,
        -0.5212188230607262,
        -0.9753983389291215,
        -2.2257498191257707,
        2.7616907747156056,
        -3.2514163064140402,
        -0.3030161580874135,
        -0.1179892043097026,
        -1.1699025060863464,
        -0.1764817113076897,
        -0.1987005333310138,
        0.18264109235135217,
        -1.653168649843908,
        -1.2709348545236312,
        -0.44665169556075635,
        -0.20113448583623253,
        0.4229465826025596,
        -0.9709607144475404
      ],
      [
        0.9464985700491106,
        1.6020877144543026,
        -1.9113096797576008,
        -1.2126167149799456,
        -0.5048636701775151,
        0.8050469747879659,
        -0.8686383063115369,
        -1.8019173999787592,
        1.2172782230954,
        0.3398459111603442,
        -0.31525158094229044,
        0.1438084257539683,
        0.31831640929933996,
        1.0836913545247624,
        -1.4321413535987708,
        2.591558033888001,
        1.9225017186508364,
        -0.5585955963117216
      ],
      [
        0.5591559452838362,
        0.0788064106154455,
        0.9287248594387976,
        -1.4785210958163981,
        0.6436363970542799,
        -0.8144231096833043,
        0.0804112565737555,
        1.3184552562557652,
        0.08719645374526411,
        1.1392098822470484,
        0.02036064975146501,
        -0.4913483473919856,
        -0.35438154396648064,
        -0.3364735576147853,
        0.39057951212371195,
        -0.7408486273651634,
        0.30600372033117135,
        0.021047345125012044
      ],
      [
        -0.3299803437167883,
        -1.3513967067127515,
        0.8609604657365464,
        -3.0067340129207483,
        0.7327100326226252,
        3.0671213320456054,
        1.0806592625234301,
        1.9747179408502844,
        0.3952555118114594,
        -0.13047780898617004,
        -1.500511769786085,
        -0.21954885293665943,
        1.0733243380483786,
        0.2038970849605719,
        0.5582436267089482,
        0.33630599828801583,
        0.10732918711810392,
        0.5322616800341561
      ],
      [
        1.0172309717750916,
        -0.40176813189766214,
        0.5127080637312604,
        -0.28523027387932987,
        1.1573012375311165,
        -0.4783902230037366,
        0.47549847413231966,
        -0.8662176044882114,
        0.5639635592907128,
        -0.47480269235178796,
        0.8167878357800015,
        -0.05655784821607152,
        -0.2759255009649222,
        -0.8742380595059412,
        1.5980212945232801,
        -0.7856896507880975,
        -1.6245471153083402,
        0.2346217903218943
      ],
      [
        -2.857143526089129,
        0.2629750399118644,
        0.25294854699362307,
        -2.8477496461726894,
        -3.335113744918634,
        -0.12978839379142518,
        1.4104010474288948,
        -0.4777843780317887,
        -2.271925438544748,
        0.7373173831079024,
        -0.6198911598262008,
        0.5291943624770412,
        0.9289818024936742,
        -0.11563478379406229,
        -0.34720350492247415,
        -0.8978869586737696,
        0.4955677651851455,
        -0.5977641008739172
      ],
      [
        0.6462740425669694,
        -0.6383141992821947,
        0.7989049341283068,
        1.415805874154053,
        0.18453344200746352,
        -1.194473868870972,
        -0.23358326270056695,
        1.5312472554465226,
        0.19017108595731722,
        -0.1705528471490366,
        0.36405683944946154,
        -0.595334091966272,
        0.35185953686167,
        -0.9655763973133762,
        -1.060798802130353,
        -0.6662271188566787,
        -0.8591798960330128,
        0.6957460169130819
      ],
      [
        -0.5386974803968975,
        -0.4108528073164069,
        0.2469767880211373,
        0.47835573092944533,
        0.7389625667968408,
        0.5249414165209488,
        -0.6530949837039534,
        -0.19370147440811075,
        0.687782528189446,
        -0.446748322431588,
        0.17684367801514592,
        -0.7186878368885453,
        -0.19828463517037515,
        -0.47750403921905615,
        0.5061593786889013,
        -2.726591407577841,
        0.3654239559553456,
        0.08396058490987177
      ],
      [
        0.2363687717509559,
        -0.5237918119199891,
        0.5249726345669691,
        1.3535567146979115,
        0.41717188987892084,
        -0.6764361809923127,
        -0.6237127577752103,
        0.28253075091617774,
        0.382870777795976,
        0.05484270523261908,
        -0.006605238058553593,
        -0.868030093699431,
        0.07073459653551434,
        0.09034820603970362,
        0.24176111418166127,
        -0.7088310782672178,
        0.06493272641003299,
        -0.32979556829087103
      ],
      [
        -0.4673942557948294,
        -0.18315784372443097,
        0.1417357217656712,
        0.7046818504562704,
        0.2779979851594608,
        -0.5799362507946914,
        -0.40443318552290575,
        -1.0035477983031955,
        1.1467020074890693,
        -0.36380691579482055,
        0.260770913161325,
        -1.2965058984987492,
        0.03716093324015149,
        -0.25357247280365575,
        0.18526621890726486,
        -0.7658377565312097,
        0.21765407028998415,
        0.24943681443623614
      ]
    ],
    "hidden_biases": [
      0.5584958776736249,
      -2.2520664551748037,
      0.3372684380002271,
      0.37990322323190273,
      1.2266987621006682,
      1.190017519996723,
      -0.9503386153762755,
      0.9769010807095795,
      0.5274251752869749,
      2.4522486761639786,
      1.5338838769136034,
      -0.8441536837816798,
      -1.0281110170363223,
      2.544174607281164,
      0.26582275047612336,
      -1.125039087245275,
      -2.988038869753469,
      -1.214015950620282
    ],
    "hidden_output_weights": [
      [
        -0.38768378436888856,
        0.7637247357036326,
        2.213114933077953,
        -0.13310570993263124,
        -0.47779783120348973,
        -0.36333436187564244,
        -0.12839880543533985,
        -0.17645138389533901,
        -1.0837650765360516
      ],
      [
        -1.8298765182023824,
        0.5334170764429695,
        -0.47898649087406464,
        -1.0584562446510908,
        -4.12934989914552,
        -0.8015763055230836,
        -0.9585416779663757,
        -0.7496162255606895,
        -1.7084656511288994
      ],
      [
        1.554127872783137,
        0.9450336874514672,
        -4.860026897092759,
        0.5911122335652302,
        2.314416780993171,
        0.6327451450538665,
        0.06806662094331262,
        1.8096055966794249,
        2.086930727469415
      ],
      [
        0.3399316994707383,
        0.12920965877415733,
        0.09441912948977767,
        -0.01769332211061465,
        0.2823826612839136,
        0.551239143416455,
        0.8280464209179783,
        1.0287525266843254,
        0.32680784138428576
      ],
      [
        -2.623216188677167,
        -0.09950966240186208,
        -0.42816268383333805,
        -0.01758632448510821,
        -0.21098671253057932,
        -0.6389515506279186,
        -0.2061061446577951,
        0.39531218109658517,
        -0.21974468312809875
      ],
      [
        -1.6283525304992719,
        -0.4796542977234652,
        -0.9079761062560504,
        -0.04964905944729219,
        -1.1775814391827708,
        -1.3562729000981453,
        0.19402497520483986,
        -0.4228503696767146,
        -0.8225657689471955
      ],
      [
        0.8639528610020664,
        -0.984448144250184,
        0.24183391968988094,
        1.2190591889179654,
        0.13860114112825547,
        -0.38835077100597704,
        0.8010193331073436,
        0.12954442542655273,
        0.8751517971605114
      ],
      [
        0.2884366988239909,
        0.22166985295490899,
        1.457699888561493,
        0.695528725442156,
        0.22398412370253365,
        0.17590803803744362,
        1.0678186046213063,
        0.4846097891559456,
        -0.6643032345531872
      ],
      [
        2.339059932643908,
        -1.4145450149903256,
        -0.26400923817300714,
        0.5577524965466601,
        0.38527212723479076,
        -0.7693339084619154,
        -0.01748551607611054,
        -1.1999928918647893,
        0.4318127402708966
      ],
      [
        -2.215406876007828,
        -3.359757978736381,
        0.6252620581413347,
        0.20683577847892626,
        -3.766984664996157,
        1.8277352091978611,
        0.9148683771828576,
        -2.768237848065356,
        1.0219784338188331
      ],
      [
        -1.605939390458859,
        -0.6194473690550577,
        -1.5719348276534961,
        0.71353869675054,
        -1.2800102240339915,
        -0.41638026337092715,
        0.059969685736345306,
        -0.3172254730993602,
        1.3477723815925073
      ],
      [
        -0.8728417481573918,
        -0.34487324378589057,
        3.1288977248793213,
        -2.4701765717358093,
        -0.32781578876051726,
        0.08584432647748738,
        -0.06362536887269014,
        -1.4157365133451112,
        -1.7420532559959918
      ],
      [
        -2.7998461262915324,
        0.007948829852542584,
        0.14622045141372225,
        -0.25638086532582166,
        -0.6450828643436609,
        -0.511110217219216,
        -0.8580714477785681,
        0.19690635839052137,
        -0.6506552873434945
      ],
      [
        0.488972881582047,
        0.7985557303798458,
        2.129003862331544,
        -0.2284320406301813,
        0.39543841257121376,
        1.5387096536975802,
        -0.6977538619205865,
        -0.0003072163621934502,
        1.5446059450511016
      ],
      [
        0.6391631022579523,
        0.7422259593032665,
        0.863708351002565,
        -0.21124371495328856,
        0.6758891152553781,
        3.078616150678326,
        0.6979568081760209,
        1.2965571726338072,
        0.5071088821463486
      ],
      [
        0.4287842032083074,
        -0.06980503240873986,
        -4.160119312044133,
        1.3686990224351614,
        -1.8983656955916939,
        1.3513359625510577,
        -0.4291245166011976,
        0.8155932989544501,
        3.747131898213172
      ],
      [
        0.01561219057065356,
        -0.05990146549564514,
        0.279921845693384,
        1.9432184984779763,
        1.9382052866275121,
        1.2734129992946093,
        0.5085605947222394,
        -0.3658451309121435,
        2.9550470957474326
      ],
      [
        0.7155944477375058,
        1.1280117234154448,
        2.2093087595444008,
        -1.3187427828792282,
        0.16764315197995783,
        2.376177388732244,
        0.2271774460868504,
        -0.26420447131042957,
        1.7680282732913701
      ]
    ],
    "output_biases": [
      -0.0010986372546707176,
      2.123020916376474,
      0.5070216238579536,
      -2.90210599505959,
      -1.5572789174788,
      -1.085251359048058,
      -2.3606365671457072,
      -0.6827602576962754,
      0.536653129074409
    ]
  },
  "training_summary": {
    "game": "morpion",
    "training_games_count": 300,
    "simulations_per_move": 30,
    "max_examples": 200,
    "tactical_repeat_count": 25,
    "base_examples_count": 200,
    "extra_examples_count": 100,
    "examples_count": 300,
    "scored_moves_count": null,
    "average_legal_moves": null,
    "average_best_score": null,
    "input_size": 18,
    "hidden_size": 18,
    "output_size": 9,
    "epochs": 440,
    "learning_rate": 0.12,
    "started_from_existing_model": true,
    "initial_error": 0.0025880657240981418,
    "final_error": 0.002513848250668808,
    "error_improvement": 7.421747342933362e-05,
    "benchmark_checkpoints_count": 50,
    "benchmark_epochs_per_checkpoint": 40,
    "benchmark_evaluation_games_count": 500,
    "initial_evaluation_efficiency": 63.6,
    "final_evaluation_efficiency": 70.1,
    "evaluation_efficiency_improvement": 6.499999999999993,
    "initial_tactical_success_rate": 100.0,
    "final_tactical_success_rate": 100.0,
    "tactical_success_rate_improvement": 0.0,
    "best_checkpoint_index": 11,
    "best_total_epochs": 440,
    "final_checkpoint_is_best": false
  },
  "benchmark_summary": {
    "checkpoints": [
      {
        "checkpoint_index": 0,
        "total_epochs": 0,
        "elapsed_seconds": 0.0,
        "training_error": 0.0025880657240981418,
        "evaluation_results": {
          "X": 138,
          "O": 274,
          "draw": 88
        },
        "evaluation_efficiency": 63.6,
        "tactical_passed_count": 4,
        "tactical_total_count": 4,
        "tactical_success_rate": 100.0
      },
      {
        "checkpoint_index": 1,
        "total_epochs": 40,
        "elapsed_seconds": 1.2688851999118924,
        "training_error": 0.0025807051601202946,
        "evaluation_results": {
          "X": 144,
          "O": 251,
          "draw": 105
        },
        "evaluation_efficiency": 60.699999999999996,
        "tactical_passed_count": 4,
        "tactical_total_count": 4,
        "tactical_success_rate": 100.0
      },
      {
        "checkpoint_index": 2,
        "total_epochs": 80,
        "elapsed_seconds": 2.5377158999908715,
        "training_error": 0.0025734803342231565,
        "evaluation_results": {
          "X": 149,
          "O": 253,
          "draw": 98
        },
        "evaluation_efficiency": 60.4,
        "tactical_passed_count": 4,
        "tactical_total_count": 4,
        "tactical_success_rate": 100.0
      },
      {
        "checkpoint_index": 3,
        "total_epochs": 120,
        "elapsed_seconds": 3.8120544999837875,
        "training_error": 0.0025663856237386597,
        "evaluation_results": {
          "X": 151,
          "O": 263,
          "draw": 86
        },
        "evaluation_efficiency": 61.199999999999996,
        "tactical_passed_count": 4,
        "tactical_total_count": 4,
        "tactical_success_rate": 100.0
      },
      {
        "checkpoint_index": 4,
        "total_epochs": 160,
        "elapsed_seconds": 5.086314799962565,
        "training_error": 0.002559414463484765,
        "evaluation_results": {
          "X": 135,
          "O": 270,
          "draw": 95
        },
        "evaluation_efficiency": 63.5,
        "tactical_passed_count": 4,
        "tactical_total_count": 4,
        "tactical_success_rate": 100.0
      },
      {
        "checkpoint_index": 5,
        "total_epochs": 200,
        "elapsed_seconds": 6.351300399983302,
        "training_error": 0.002552560714419015,
        "evaluation_results": {
          "X": 146,
          "O": 253,
          "draw": 101
        },
        "evaluation_efficiency": 60.699999999999996,
        "tactical_passed_count": 4,
        "tactical_total_count": 4,
        "tactical_success_rate": 100.0
      },
      {
        "checkpoint_index": 6,
        "total_epochs": 240,
        "elapsed_seconds": 7.667267000069842,
        "training_error": 0.0025458202316454423,
        "evaluation_results": {
          "X": 118,
          "O": 280,
          "draw": 102
        },
        "evaluation_efficiency": 66.2,
        "tactical_passed_count": 4,
        "tactical_total_count": 4,
        "tactical_success_rate": 100.0
      },
      {
        "checkpoint_index": 7,
        "total_epochs": 280,
        "elapsed_seconds": 8.933937099995092,
        "training_error": 0.002539191927402057,
        "evaluation_results": {
          "X": 120,
          "O": 275,
          "draw": 105
        },
        "evaluation_efficiency": 65.5,
        "tactical_passed_count": 4,
        "tactical_total_count": 4,
        "tactical_success_rate": 100.0
      },
      {
        "checkpoint_index": 8,
        "total_epochs": 320,
        "elapsed_seconds": 10.200059100054204,
        "training_error": 0.002532677590699031,
        "evaluation_results": {
          "X": 122,
          "O": 292,
          "draw": 86
        },
        "evaluation_efficiency": 67.0,
        "tactical_passed_count": 4,
        "tactical_total_count": 4,
        "tactical_success_rate": 100.0
      },
      {
        "checkpoint_index": 9,
        "total_epochs": 360,
        "elapsed_seconds": 11.462691700085998,
        "training_error": 0.002526280411620633,
        "evaluation_results": {
          "X": 114,
          "O": 300,
          "draw": 86
        },
        "evaluation_efficiency": 68.60000000000001,
        "tactical_passed_count": 4,
        "tactical_total_count": 4,
        "tactical_success_rate": 100.0
      },
      {
        "checkpoint_index": 10,
        "total_epochs": 400,
        "elapsed_seconds": 12.721074899891391,
        "training_error": 0.002520003281843248,
        "evaluation_results": {
          "X": 114,
          "O": 314,
          "draw": 72
        },
        "evaluation_efficiency": 70.0,
        "tactical_passed_count": 4,
        "tactical_total_count": 4,
        "tactical_success_rate": 100.0
      },
      {
        "checkpoint_index": 11,
        "total_epochs": 440,
        "elapsed_seconds": 13.989376399898902,
        "training_error": 0.002513848250668808,
        "evaluation_results": {
          "X": 111,
          "O": 312,
          "draw": 77
        },
        "evaluation_efficiency": 70.1,
        "tactical_passed_count": 4,
        "tactical_total_count": 4,
        "tactical_success_rate": 100.0
      },
      {
        "checkpoint_index": 12,
        "total_epochs": 480,
        "elapsed_seconds": 15.263051700079814,
        "training_error": 0.0025078172913347626,
        "evaluation_results": {
          "X": 116,
          "O": 301,
          "draw": 83
        },
        "evaluation_efficiency": 68.5,
        "tactical_passed_count": 4,
        "tactical_total_count": 4,
        "tactical_success_rate": 100.0
      },
      {
        "checkpoint_index": 13,
        "total_epochs": 520,
        "elapsed_seconds": 16.575014099944383,
        "training_error": 0.0025019131262717094,
        "evaluation_results": {
          "X": 122,
          "O": 290,
          "draw": 88
        },
        "evaluation_efficiency": 66.8,
        "tactical_passed_count": 4,
        "tactical_total_count": 4,
        "tactical_success_rate": 100.0
      },
      {
        "checkpoint_index": 14,
        "total_epochs": 560,
        "elapsed_seconds": 17.836081800051033,
        "training_error": 0.0024961389994462473,
        "evaluation_results": {
          "X": 127,
          "O": 290,
          "draw": 83
        },
        "evaluation_efficiency": 66.3,
        "tactical_passed_count": 4,
        "tactical_total_count": 4,
        "tactical_success_rate": 100.0
      },
      {
        "checkpoint_index": 15,
        "total_epochs": 600,
        "elapsed_seconds": 19.109716600039974,
        "training_error": 0.0024904975233614266,
        "evaluation_results": {
          "X": 125,
          "O": 301,
          "draw": 74
        },
        "evaluation_efficiency": 67.60000000000001,
        "tactical_passed_count": 4,
        "tactical_total_count": 4,
        "tactical_success_rate": 100.0
      },
      {
        "checkpoint_index": 16,
        "total_epochs": 640,
        "elapsed_seconds": 20.37127669993788,
        "training_error": 0.0024849894585818964,
        "evaluation_results": {
          "X": 114,
          "O": 283,
          "draw": 103
        },
        "evaluation_efficiency": 66.9,
        "tactical_passed_count": 4,
        "tactical_total_count": 4,
        "tactical_success_rate": 100.0
      },
      {
        "checkpoint_index": 17,
        "total_epochs": 680,
        "elapsed_seconds": 21.637315100058913,
        "training_error": 0.002479613048234539,
        "evaluation_results": {
          "X": 122,
          "O": 279,
          "draw": 99
        },
        "evaluation_efficiency": 65.7,
        "tactical_passed_count": 4,
        "tactical_total_count": 4,
        "tactical_success_rate": 100.0
      },
      {
        "checkpoint_index": 18,
        "total_epochs": 720,
        "elapsed_seconds": 22.906960299937055,
        "training_error": 0.0024743639819988844,
        "evaluation_results": {
          "X": 131,
          "O": 282,
          "draw": 87
        },
        "evaluation_efficiency": 65.10000000000001,
        "tactical_passed_count": 4,
        "tactical_total_count": 4,
        "tactical_success_rate": 100.0
      },
      {
        "checkpoint_index": 19,
        "total_epochs": 760,
        "elapsed_seconds": 24.2174662000034,
        "training_error": 0.0024692357504276343,
        "evaluation_results": {
          "X": 126,
          "O": 286,
          "draw": 88
        },
        "evaluation_efficiency": 66.0,
        "tactical_passed_count": 4,
        "tactical_total_count": 4,
        "tactical_success_rate": 100.0
      },
      {
        "checkpoint_index": 20,
        "total_epochs": 800,
        "elapsed_seconds": 25.490417799912393,
        "training_error": 0.0024642201230909446,
        "evaluation_results": {
          "X": 134,
          "O": 286,
          "draw": 80
        },
        "evaluation_efficiency": 65.2,
        "tactical_passed_count": 4,
        "tactical_total_count": 4,
        "tactical_success_rate": 100.0
      },
      {
        "checkpoint_index": 21,
        "total_epochs": 840,
        "elapsed_seconds": 26.755628899903968,
        "training_error": 0.0024593075845768435,
        "evaluation_results": {
          "X": 134,
          "O": 273,
          "draw": 93
        },
        "evaluation_efficiency": 63.9,
        "tactical_passed_count": 4,
        "tactical_total_count": 4,
        "tactical_success_rate": 100.0
      },
      {
        "checkpoint_index": 22,
        "total_epochs": 880,
        "elapsed_seconds": 28.022044300101697,
        "training_error": 0.0024544876671049555,
        "evaluation_results": {
          "X": 122,
          "O": 287,
          "draw": 91
        },
        "evaluation_efficiency": 66.5,
        "tactical_passed_count": 4,
        "tactical_total_count": 4,
        "tactical_success_rate": 100.0
      },
      {
        "checkpoint_index": 23,
        "total_epochs": 920,
        "elapsed_seconds": 29.29520280007273,
        "training_error": 0.0024497491842082383,
        "evaluation_results": {
          "X": 143,
          "O": 280,
          "draw": 77
        },
        "evaluation_efficiency": 63.7,
        "tactical_passed_count": 4,
        "tactical_total_count": 4,
        "tactical_success_rate": 100.0
      },
      {
        "checkpoint_index": 24,
        "total_epochs": 960,
        "elapsed_seconds": 30.56780240009539,
        "training_error": 0.0024450803983677,
        "evaluation_results": {
          "X": 137,
          "O": 279,
          "draw": 84
        },
        "evaluation_efficiency": 64.2,
        "tactical_passed_count": 4,
        "tactical_total_count": 4,
        "tactical_success_rate": 100.0
      },
      {
        "checkpoint_index": 25,
        "total_epochs": 1000,
        "elapsed_seconds": 31.88608009996824,
        "training_error": 0.0024404691606543464,
        "evaluation_results": {
          "X": 125,
          "O": 293,
          "draw": 82
        },
        "evaluation_efficiency": 66.8,
        "tactical_passed_count": 4,
        "tactical_total_count": 4,
        "tactical_success_rate": 100.0
      },
      {
        "checkpoint_index": 26,
        "total_epochs": 1040,
        "elapsed_seconds": 33.148031200049445,
        "training_error": 0.0024359030545426062,
        "evaluation_results": {
          "X": 135,
          "O": 272,
          "draw": 93
        },
        "evaluation_efficiency": 63.7,
        "tactical_passed_count": 4,
        "tactical_total_count": 4,
        "tactical_success_rate": 100.0
      },
      {
        "checkpoint_index": 27,
        "total_epochs": 1080,
        "elapsed_seconds": 34.41544010001235,
        "training_error": 0.002431369566615586,
        "evaluation_results": {
          "X": 148,
          "O": 278,
          "draw": 74
        },
        "evaluation_efficiency": 63.0,
        "tactical_passed_count": 4,
        "tactical_total_count": 4,
        "tactical_success_rate": 100.0
      },
      {
        "checkpoint_index": 28,
        "total_epochs": 1120,
        "elapsed_seconds": 35.67546000005677,
        "training_error": 0.002426856297563363,
        "evaluation_results": {
          "X": 131,
          "O": 295,
          "draw": 74
        },
        "evaluation_efficiency": 66.4,
        "tactical_passed_count": 4,
        "tactical_total_count": 4,
        "tactical_success_rate": 100.0
      },
      {
        "checkpoint_index": 29,
        "total_epochs": 1160,
        "elapsed_seconds": 36.94333990011364,
        "training_error": 0.00242235121893839,
        "evaluation_results": {
          "X": 145,
          "O": 280,
          "draw": 75
        },
        "evaluation_efficiency": 63.5,
        "tactical_passed_count": 4,
        "tactical_total_count": 4,
        "tactical_success_rate": 100.0
      },
      {
        "checkpoint_index": 30,
        "total_epochs": 1200,
        "elapsed_seconds": 38.209896200103685,
        "training_error": 0.002417842974463928,
        "evaluation_results": {
          "X": 145,
          "O": 268,
          "draw": 87
        },
        "evaluation_efficiency": 62.3,
        "tactical_passed_count": 4,
        "tactical_total_count": 4,
        "tactical_success_rate": 100.0
      },
      {
        "checkpoint_index": 31,
        "total_epochs": 1240,
        "elapsed_seconds": 39.53127110004425,
        "training_error": 0.0024133212185743387,
        "evaluation_results": {
          "X": 147,
          "O": 267,
          "draw": 86
        },
        "evaluation_efficiency": 62.0,
        "tactical_passed_count": 4,
        "tactical_total_count": 4,
        "tactical_success_rate": 100.0
      },
      {
        "checkpoint_index": 32,
        "total_epochs": 1280,
        "elapsed_seconds": 40.80904660001397,
        "training_error": 0.0024087769785372565,
        "evaluation_results": {
          "X": 153,
          "O": 262,
          "draw": 85
        },
        "evaluation_efficiency": 60.9,
        "tactical_passed_count": 4,
        "tactical_total_count": 4,
        "tactical_success_rate": 100.0
      },
      {
        "checkpoint_index": 33,
        "total_epochs": 1320,
        "elapsed_seconds": 42.07806050009094,
        "training_error": 0.0024042030196705813,
        "evaluation_results": {
          "X": 161,
          "O": 266,
          "draw": 73
        },
        "evaluation_efficiency": 60.5,
        "tactical_passed_count": 4,
        "tactical_total_count": 4,
        "tactical_success_rate": 100.0
      },
      {
        "checkpoint_index": 34,
        "total_epochs": 1360,
        "elapsed_seconds": 43.34441399993375,
        "training_error": 0.0023995941863741454,
        "evaluation_results": {
          "X": 137,
          "O": 278,
          "draw": 85
        },
        "evaluation_efficiency": 64.1,
        "tactical_passed_count": 4,
        "tactical_total_count": 4,
        "tactical_success_rate": 100.0
      },
      {
        "checkpoint_index": 35,
        "total_epochs": 1400,
        "elapsed_seconds": 44.614841599948704,
        "training_error": 0.0023949476865151123,
        "evaluation_results": {
          "X": 139,
          "O": 291,
          "draw": 70
        },
        "evaluation_efficiency": 65.2,
        "tactical_passed_count": 4,
        "tactical_total_count": 4,
        "tactical_success_rate": 100.0
      },
      {
        "checkpoint_index": 36,
        "total_epochs": 1440,
        "elapsed_seconds": 45.89066700008698,
        "training_error": 0.0023902632854511325,
        "evaluation_results": {
          "X": 125,
          "O": 288,
          "draw": 87
        },
        "evaluation_efficiency": 66.3,
        "tactical_passed_count": 4,
        "tactical_total_count": 4,
        "tactical_success_rate": 100.0
      },
      {
        "checkpoint_index": 37,
        "total_epochs": 1480,
        "elapsed_seconds": 47.202207300113514,
        "training_error": 0.0023855433808889054,
        "evaluation_results": {
          "X": 130,
          "O": 285,
          "draw": 85
        },
        "evaluation_efficiency": 65.5,
        "tactical_passed_count": 4,
        "tactical_total_count": 4,
        "tactical_success_rate": 100.0
      },
      {
        "checkpoint_index": 38,
        "total_epochs": 1520,
        "elapsed_seconds": 48.470643900102004,
        "training_error": 0.0023807929418148627,
        "evaluation_results": {
          "X": 143,
          "O": 278,
          "draw": 79
        },
        "evaluation_efficiency": 63.5,
        "tactical_passed_count": 4,
        "tactical_total_count": 4,
        "tactical_success_rate": 100.0
      },
      {
        "checkpoint_index": 39,
        "total_epochs": 1560,
        "elapsed_seconds": 49.73859390011057,
        "training_error": 0.0023760193124897485,
        "evaluation_results": {
          "X": 128,
          "O": 295,
          "draw": 77
        },
        "evaluation_efficiency": 66.7,
        "tactical_passed_count": 4,
        "tactical_total_count": 4,
        "tactical_success_rate": 100.0
      },
      {
        "checkpoint_index": 40,
        "total_epochs": 1600,
        "elapsed_seconds": 51.012285799952224,
        "training_error": 0.0023712319020107496,
        "evaluation_results": {
          "X": 153,
          "O": 281,
          "draw": 66
        },
        "evaluation_efficiency": 62.8,
        "tactical_passed_count": 4,
        "tactical_total_count": 4,
        "tactical_success_rate": 100.0
      },
      {
        "checkpoint_index": 41,
        "total_epochs": 1640,
        "elapsed_seconds": 52.28079240000807,
        "training_error": 0.0023664417958555195,
        "evaluation_results": {
          "X": 151,
          "O": 277,
          "draw": 72
        },
        "evaluation_efficiency": 62.6,
        "tactical_passed_count": 4,
        "tactical_total_count": 4,
        "tactical_success_rate": 100.0
      },
      {
        "checkpoint_index": 42,
        "total_epochs": 1680,
        "elapsed_seconds": 53.54489689995535,
        "training_error": 0.002361661333525271,
        "evaluation_results": {
          "X": 147,
          "O": 267,
          "draw": 86
        },
        "evaluation_efficiency": 62.0,
        "tactical_passed_count": 4,
        "tactical_total_count": 4,
        "tactical_success_rate": 100.0
      },
      {
        "checkpoint_index": 43,
        "total_epochs": 1720,
        "elapsed_seconds": 54.8373821999412,
        "training_error": 0.002356903694062494,
        "evaluation_results": {
          "X": 159,
          "O": 293,
          "draw": 48
        },
        "evaluation_efficiency": 63.4,
        "tactical_passed_count": 4,
        "tactical_total_count": 4,
        "tactical_success_rate": 100.0
      },
      {
        "checkpoint_index": 44,
        "total_epochs": 1760,
        "elapsed_seconds": 56.104691999964416,
        "training_error": 0.002352182520491105,
        "evaluation_results": {
          "X": 123,
          "O": 302,
          "draw": 75
        },
        "evaluation_efficiency": 67.9,
        "tactical_passed_count": 4,
        "tactical_total_count": 4,
        "tactical_success_rate": 100.0
      },
      {
        "checkpoint_index": 45,
        "total_epochs": 1800,
        "elapsed_seconds": 57.364166599931195,
        "training_error": 0.002347511599300005,
        "evaluation_results": {
          "X": 133,
          "O": 292,
          "draw": 75
        },
        "evaluation_efficiency": 65.9,
        "tactical_passed_count": 4,
        "tactical_total_count": 4,
        "tactical_success_rate": 100.0
      },
      {
        "checkpoint_index": 46,
        "total_epochs": 1840,
        "elapsed_seconds": 58.636310199974105,
        "training_error": 0.0023429045966688322,
        "evaluation_results": {
          "X": 147,
          "O": 287,
          "draw": 66
        },
        "evaluation_efficiency": 64.0,
        "tactical_passed_count": 4,
        "tactical_total_count": 4,
        "tactical_success_rate": 100.0
      },
      {
        "checkpoint_index": 47,
        "total_epochs": 1880,
        "elapsed_seconds": 59.90725290006958,
        "training_error": 0.0023383748425280467,
        "evaluation_results": {
          "X": 144,
          "O": 291,
          "draw": 65
        },
        "evaluation_efficiency": 64.7,
        "tactical_passed_count": 4,
        "tactical_total_count": 4,
        "tactical_success_rate": 100.0
      },
      {
        "checkpoint_index": 48,
        "total_epochs": 1920,
        "elapsed_seconds": 61.18214929988608,
        "training_error": 0.00233393514778236,
        "evaluation_results": {
          "X": 137,
          "O": 280,
          "draw": 83
        },
        "evaluation_efficiency": 64.3,
        "tactical_passed_count": 4,
        "tactical_total_count": 4,
        "tactical_success_rate": 100.0
      },
      {
        "checkpoint_index": 49,
        "total_epochs": 1960,
        "elapsed_seconds": 62.499684599926695,
        "training_error": 0.0023295976382070828,
        "evaluation_results": {
          "X": 168,
          "O": 261,
          "draw": 71
        },
        "evaluation_efficiency": 59.3,
        "tactical_passed_count": 4,
        "tactical_total_count": 4,
        "tactical_success_rate": 100.0
      },
      {
        "checkpoint_index": 50,
        "total_epochs": 2000,
        "elapsed_seconds": 63.77074320008978,
        "training_error": 0.0023253735890843346,
        "evaluation_results": {
          "X": 162,
          "O": 268,
          "draw": 70
        },
        "evaluation_efficiency": 60.6,
        "tactical_passed_count": 4,
        "tactical_total_count": 4,
        "tactical_success_rate": 100.0
      }
    ],
    "initial_training_error": 0.0025880657240981418,
    "final_training_error": 0.0023253735890843346,
    "training_error_improvement": 0.0002626921350138071,
    "initial_evaluation_efficiency": 63.6,
    "final_evaluation_efficiency": 60.6,
    "evaluation_efficiency_improvement": -3.0,
    "initial_tactical_success_rate": 100.0,
    "final_tactical_success_rate": 100.0,
    "tactical_success_rate_improvement": 0.0,
    "best_checkpoint": {
      "checkpoint_index": 11,
      "total_epochs": 440,
      "elapsed_seconds": 13.989376399898902,
      "training_error": 0.002513848250668808,
      "evaluation_results": {
        "X": 111,
        "O": 312,
        "draw": 77
      },
      "evaluation_efficiency": 70.1,
      "tactical_passed_count": 4,
      "tactical_total_count": 4,
      "tactical_success_rate": 100.0
    },
    "best_checkpoint_index": 11,
    "best_total_epochs": 440,
    "best_training_error": 0.002513848250668808,
    "best_evaluation_efficiency": 70.1,
    "best_tactical_success_rate": 100.0,
    "final_checkpoint_is_best": false
  }
}