{
  "type": "neural_model_package",
  "game": "morpion",
  "trained_player": "O",
  "opponent_player": "X",
  "model_data": {
    "type": "simple_neural_network",
    "input_size": 18,
    "hidden_size": 18,
    "output_size": 9,
    "learning_rate": 0.12,
    "input_hidden_weights": [
      [
        1.9034562825630081,
        1.1753694282822633,
        -0.39138945041961365,
        -1.2339115671593743,
        -0.515785142631897,
        0.7878084402567633,
        -0.04701334098125671,
        -1.9271125544633037,
        -0.47095364254719235,
        0.3794158800927386,
        1.2189175844438294,
        1.788674461070279,
        -0.010255972210657441,
        0.5858054931188971,
        -1.2779622323358686,
        0.6242407492283296,
        0.6542045894241992,
        0.2927363364246172
      ],
      [
        -0.09609546650445068,
        -1.8046966416670847,
        -1.0338178789319932,
        0.49063953387690146,
        -0.3402178600298528,
        0.8019025982751002,
        -0.7427169485522646,
        -0.35679965658753227,
        1.0347069247312946,
        -0.7225948493245518,
        1.56874742692286,
        -0.12867267521208708,
        -0.2918441389292066,
        0.300600813654875,
        -0.4882572260545122,
        0.24515358401776685,
        -0.2457087541992757,
        -0.24166476502879908
      ],
      [
        -0.12216046632033241,
        1.4776046495265178,
        1.460420559108424,
        -0.2782934428518239,
        -0.6177142262708304,
        0.5682997273599603,
        -0.1843040030699922,
        0.11125065185079139,
        0.0455233924403698,
        -1.0354595227262677,
        -0.3670638951140604,
        -0.129959749720273,
        -0.770664380483405,
        0.8811590091890259,
        0.8086999367873235,
        0.022732325155469333,
        0.28765119404833067,
        -0.6774376930642547
      ],
      [
        -0.4556751252267069,
        0.7769911250198689,
        -0.6764509104309933,
        -0.1827232463163508,
        -0.09908417298831788,
        -0.434282211492346,
        0.42235810353138253,
        0.09360957563275811,
        0.1770886294977799,
        0.9196494928622708,
        -0.9583797500523951,
        0.01871632329636118,
        1.2288920426836618,
        -0.8841956787875984,
        -0.9191043730601399,
        0.2958153052749442,
        0.5620076796436694,
        0.6992457907805739
      ],
      [
        0.43720825868350394,
        1.1392321444084763,
        1.0166468073432275,
        0.5001942597370528,
        0.3694078455569521,
        0.10732936720500309,
        0.9581044932263885,
        1.1803835597255883,
        1.6306719646496457,
        -0.2450495405568581,
        -0.3431198628011479,
        -1.9722399567471873,
        -0.31054859779602245,
        0.7164714318439397,
        0.4324565140597261,
        0.4212955628693775,
        0.18247445885733696,
        0.5921988549872299
      ],
      [
        0.07959548803659576,
        0.0509409345687032,
        -0.7060858304274877,
        -0.004176277207330925,
        0.09538678252145681,
        0.718068048598038,
        0.7714170816100111,
        -0.6048812438933853,
        -0.19439019358932225,
        1.4619178585104875,
        -0.22309360994356653,
        0.7485289355521237,
        0.22350955833079206,
        -0.1104958016128625,
        0.3441710531331352,
        -0.11609032985393612,
        0.8339762799989459,
        -0.9820619397696815
      ],
      [
        0.02070980636754306,
        -1.3703353669041782,
        -0.5976848976070812,
        -0.6236527600032152,
        -0.6937671905463476,
        0.09046913837755957,
        0.048984743490911496,
        0.2903578243842339,
        -0.24295081227450557,
        0.43152856165157855,
        0.01211807282312172,
        -0.614978591271113,
        1.4989302322162834,
        0.18506321665965045,
        0.08333765567565816,
        1.152810400857905,
        -0.1703420793909127,
        -0.21265975495282588
      ],
      [
        0.6785376132727171,
        -0.35514306479858376,
        0.44959859037771555,
        -0.4725911287097202,
        0.3432653837693039,
        1.2299856132174742,
        -0.35507173804420744,
        -0.4061650950032094,
        -0.13273741201637437,
        -0.5719037989100498,
        0.2505247317975572,
        0.6272359526647474,
        -0.17651398102305813,
        -0.505182294957856,
        0.09980194668697748,
        -2.1403369628494118,
        -1.064789987967395,
        0.75566457434215
      ],
      [
        0.34693630407930015,
        0.23430372176208358,
        -0.8407362572690135,
        -0.8837554786817999,
        0.7337448162877187,
        -1.3920351449759834,
        0.010749464138291838,
        0.1278877542200685,
        -1.0161600117513063,
        0.38911655727187033,
        0.03273159633848703,
        -0.21295669715135465,
        -0.715315443161326,
        0.16469001783536352,
        0.04862119444221919,
        0.12758072146687546,
        0.24562951865955682,
        -0.3928029318766012
      ],
      [
        0.48444239536024464,
        0.8963471355636037,
        -1.705080234985482,
        -0.5946379565615054,
        -0.5789347744221127,
        0.347409889412038,
        0.19478361371284345,
        -0.8242341738528276,
        0.3355531329034761,
        0.2909936521086622,
        0.12331820986632093,
        0.5634918183231038,
        0.07946565605629559,
        0.8562622841717998,
        -0.6562011786607428,
        1.4570262163282472,
        0.5515409897651401,
        0.8529284770756602
      ],
      [
        0.433851370617817,
        -0.12177043795742651,
        0.3499448006866724,
        -0.3266868999955116,
        0.11542315338721928,
        -0.22053387765681615,
        0.18529900897044754,
        0.34266515517200125,
        0.04615128639956715,
        0.5183758886078246,
        -0.5081550075148941,
        -0.35627707774853473,
        -0.07489540933417299,
        -0.4033545804231102,
        0.22718966168363464,
        -0.15938719897030837,
        0.5809942502587911,
        0.13592540508130843
      ],
      [
        -0.26698888025501283,
        -1.306455847096385,
        0.20521062960893682,
        -1.0837664076049809,
        0.46936558578397436,
        1.4088484615716441,
        0.38304236464140007,
        0.7723758482479441,
        0.9581046124456422,
        -0.011009358367049454,
        -0.572900124878691,
        -0.5520800772954958,
        0.48561812346312594,
        0.006279807099299996,
        0.5498806756247815,
        0.041982430529834004,
        -0.41849035792668665,
        0.3976856572755587
      ],
      [
        0.989021337565334,
        -0.31634318717197796,
        0.6945602803074525,
        -0.30829499973257757,
        0.3280378369243305,
        -0.006087896937294865,
        -0.08017160498154871,
        -0.4680312236110989,
        -0.003654242600320869,
        -0.34722329427444015,
        0.5610842161619809,
        -0.11195155964538682,
        -0.29157827755679194,
        -0.5051860125143605,
        1.1567879174621716,
        -0.47952842640074034,
        -1.0715584842353998,
        0.002269365480823284
      ],
      [
        -1.5823550884459165,
        -0.2654267928010449,
        -0.5674747624691467,
        -1.1312988755044664,
        -0.8688504078556829,
        0.4981418889035279,
        0.37682755004886337,
        -0.027905762185048116,
        -0.6395889368423017,
        -0.06962227439834147,
        -0.2854910968680094,
        -0.09329845723075979,
        0.9870805164337588,
        -0.32631860778150484,
        -0.5798551040133332,
        0.3656076979595058,
        0.20637780548601034,
        -0.9360376405690011
      ],
      [
        0.21425988094723286,
        -0.2593524841761361,
        1.225254575588699,
        0.25899677489416867,
        0.4306308430894415,
        -0.8511520988148891,
        0.17131964306273406,
        0.9535075940994051,
        0.17974536771270216,
        0.05169879572976153,
        0.1792827331484402,
        -0.9562554137672398,
        0.11402860369450334,
        -0.28002061497375136,
        -0.8668914596501027,
        -1.1363436536873486,
        -0.7758488277050082,
        0.8538475266055496
      ],
      [
        -0.4402493636686204,
        -0.018643258949974352,
        0.07073957351806262,
        0.366140159469636,
        0.24198660841774725,
        0.4461891540996676,
        -0.8249807732723725,
        -0.007395674194952089,
        0.36551972072382377,
        -0.0377847391408624,
        0.043957817039867814,
        -0.37087677472788316,
        -0.5309602400156223,
        0.16886787905159398,
        0.6547902141047885,
        -1.2396371245173268,
        0.30152722573008367,
        -0.7209554565228199
      ],
      [
        -0.075475239497097,
        -0.44330161177122435,
        0.7045964830735769,
        0.28568921530525826,
        -0.16263706534199418,
        -0.31873684998130036,
        -0.6373512064272017,
        0.4238002577467618,
        -0.11951437264333852,
        0.25924260401068633,
        -0.24989178096650794,
        -0.6179250571888879,
        0.1036126228768133,
        0.6828464112611438,
        -0.2718069061103049,
        -0.7855737498351172,
        0.3358150213653283,
        -0.5331870380044514
      ],
      [
        0.07603677366395588,
        -0.17591664688568456,
        0.8578398014474388,
        0.4717836625136664,
        0.24092932148776625,
        -0.022231284050311717,
        0.2116635689640179,
        -0.31603748965831,
        0.8098523563252304,
        -0.006520355975300287,
        0.3743471136002774,
        -1.3413166854674767,
        0.16759629711845744,
        0.41501418906787896,
        0.34214309504940044,
        -1.129791209981343,
        -0.3443351818280524,
        -0.21311476100901058
      ]
    ],
    "hidden_biases": [
      0.05978109566912731,
      -0.7478705721199944,
      0.09760371157137276,
      -0.0034482733208349805,
      0.5656023071933599,
      0.10648678475577177,
      0.2208449013738134,
      0.012788235612047495,
      0.47153098229577484,
      0.9087245120084285,
      0.3339490425679296,
      -0.7347905725823299,
      0.49604301826637803,
      0.2413240484384965,
      -0.1084625772616894,
      -1.2532415334241553,
      -1.0105722902450902,
      -0.3986581505821499
    ],
    "hidden_output_weights": [
      [
        -0.3877470737903781,
        0.14755049789648275,
        1.5386119747197318,
        0.2169734432149195,
        -0.29800309250456725,
        -0.7931577148848552,
        -0.42710945384217686,
        -0.03826315132307305,
        -1.1948057623545105
      ],
      [
        -2.2041316233318016,
        0.1561885402260691,
        -0.9775733997689917,
        -0.5807795153085635,
        -1.6972785880767602,
        -0.5479829874793157,
        -0.37471253834321033,
        -1.1814592327733338,
        -0.2199532473667848
      ],
      [
        0.6858923228578279,
        -0.2097403115159167,
        -2.377952331007865,
        0.7191239692378265,
        0.2722479264764546,
        0.8472162269056678,
        -0.11587362954751479,
        0.05185902557016179,
        1.1932823646016986
      ],
      [
        -0.12583755620498654,
        -0.006268573356693218,
        0.7004343051562711,
        -0.15877566662473122,
        0.2031875656120081,
        0.7858265285269133,
        1.318886632280459,
        1.377828863755172,
        -0.447384500965901
      ],
      [
        -2.1838183668835653,
        -0.24591172695941046,
        -0.32555053227229297,
        -0.057881912335251126,
        0.3450212174093003,
        0.21856630058221507,
        0.3290128413777673,
        -0.2479710909049686,
        0.24839472912365687
      ],
      [
        -1.4745054076638846,
        -0.21877820427703484,
        -0.5575950252291598,
        -0.2681073271388247,
        -0.9873193325186451,
        -1.0271341258318214,
        0.05360940362398048,
        0.08551094171768392,
        -0.6895408714494544
      ],
      [
        0.6092570981181759,
        -0.4177642051899334,
        -0.00902102692390744,
        0.4282682571435833,
        0.30396936731029917,
        0.14088115088564357,
        -0.1439723924964102,
        0.36499105629475154,
        0.5711921717393103
      ],
      [
        -0.3837269233419623,
        0.7604983353233654,
        0.7334822461155032,
        1.1143174345285494,
        0.6758857892648963,
        0.6281553186116124,
        1.1816810284973898,
        1.2663925312338737,
        -1.0142100235961948
      ],
      [
        1.727033253953977,
        -0.39506299367755565,
        -0.07465534694957403,
        0.37488315196069344,
        -0.021105750646471706,
        -0.8381190850257861,
        -0.11146381603266627,
        -0.9884012982374878,
        0.49894203433645734
      ],
      [
        -0.4201177361707853,
        -0.8348661367888917,
        -0.6046398361718357,
        0.08761973983304691,
        -2.0709317040736033,
        -0.43126708664026914,
        0.3243410942429455,
        -0.9112660338763405,
        0.5531936271487288
      ],
      [
        -1.3230804061410315,
        -0.22186093366239457,
        -1.0031587277672285,
        0.19605517633822353,
        -0.5254412626808379,
        -0.780954771585612,
        -0.4704979180615592,
        -0.15121196338913914,
        1.1329057756375431
      ],
      [
        0.19072369785035512,
        -0.29161049078555074,
        2.467980873770533,
        -0.038895538855315756,
        -0.24852324329856215,
        0.35744910800332585,
        -0.18936159280166148,
        -0.833746864701578,
        -1.7059594319011127
      ],
      [
        -2.1489243147047357,
        0.20747423392294176,
        0.4086065408359715,
        -0.04113587156197864,
        0.2285655651327944,
        0.4026435248367968,
        -0.5771999658887914,
        -0.13054158074927372,
        -0.4453000648402899
      ],
      [
        0.27369342200423635,
        0.3693920697045188,
        0.8913598171431294,
        0.01655096376653086,
        -0.47094231028917977,
        -0.31101281352612425,
        -1.260255931972649,
        -0.557265222711522,
        0.5950197403601304
      ],
      [
        0.4750340538540642,
        0.6849701604459592,
        0.568271992684229,
        0.5315996003403594,
        0.6622636150237262,
        1.5627226852617782,
        0.7709693371407792,
        1.2671827994241611,
        0.6341703566033934
      ],
      [
        0.07854508757202043,
        -0.11394424159961275,
        -2.350112113072276,
        0.9881656441863157,
        -0.004953251203253539,
        0.03714047952351952,
        -0.23015141953871152,
        0.6169344882754495,
        2.0709108256458935
      ],
      [
        -0.28095039503967095,
        0.1811746360199695,
        -0.729013013554676,
        0.5442037362687854,
        0.7843505866941869,
        -0.2426364640120245,
        -0.3416523205197834,
        0.18142719993494927,
        1.4435819656817064
      ],
      [
        0.29331589410746967,
        0.7609942355316479,
        0.8949102244211905,
        -0.7206077980892107,
        -0.9233686400299669,
        0.17203313285371855,
        -0.5223114257570427,
        0.10227703733356605,
        1.1586057895930755
      ]
    ],
    "output_biases": [
      -0.361065081542836,
      -0.32399552765546824,
      0.013286744341587178,
      -1.3639870668681546,
      -0.3007165176868201,
      -0.9398728888820328,
      -1.2966579552411144,
      -0.6143745835692418,
      0.27688922194543847
    ]
  },
  "training_summary": {
    "game": "morpion",
    "training_games_count": 300,
    "simulations_per_move": 30,
    "max_examples": 200,
    "tactical_repeat_count": 25,
    "base_examples_count": 200,
    "extra_examples_count": 100,
    "examples_count": 300,
    "scored_moves_count": null,
    "average_legal_moves": null,
    "average_best_score": null,
    "input_size": 18,
    "hidden_size": 18,
    "output_size": 9,
    "epochs": 200,
    "learning_rate": 0.12,
    "started_from_existing_model": false,
    "initial_error": 0.13260776688834894,
    "final_error": 0.006298703203570123,
    "error_improvement": 0.12630906368477882,
    "benchmark_checkpoints_count": 5,
    "benchmark_epochs_per_checkpoint": 40,
    "benchmark_evaluation_games_count": 100,
    "initial_evaluation_efficiency": 35.0,
    "final_evaluation_efficiency": 60.5,
    "evaluation_efficiency_improvement": 25.5,
    "initial_tactical_success_rate": 25.0,
    "final_tactical_success_rate": 100.0,
    "tactical_success_rate_improvement": 75.0
  },
  "benchmark_summary": {
    "checkpoints": [
      {
        "checkpoint_index": 0,
        "total_epochs": 0,
        "elapsed_seconds": 0.0,
        "training_error": 0.13260776688834894,
        "evaluation_results": {
          "X": 56,
          "O": 26,
          "draw": 18
        },
        "evaluation_efficiency": 35.0,
        "tactical_passed_count": 1,
        "tactical_total_count": 4,
        "tactical_success_rate": 25.0
      },
      {
        "checkpoint_index": 1,
        "total_epochs": 40,
        "elapsed_seconds": 1.1036793000530452,
        "training_error": 0.019055021682223543,
        "evaluation_results": {
          "X": 37,
          "O": 50,
          "draw": 13
        },
        "evaluation_efficiency": 56.49999999999999,
        "tactical_passed_count": 4,
        "tactical_total_count": 4,
        "tactical_success_rate": 100.0
      },
      {
        "checkpoint_index": 2,
        "total_epochs": 80,
        "elapsed_seconds": 2.178059699945152,
        "training_error": 0.01081858122000247,
        "evaluation_results": {
          "X": 25,
          "O": 61,
          "draw": 14
        },
        "evaluation_efficiency": 68.0,
        "tactical_passed_count": 4,
        "tactical_total_count": 4,
        "tactical_success_rate": 100.0
      },
      {
        "checkpoint_index": 3,
        "total_epochs": 120,
        "elapsed_seconds": 3.3168025999329984,
        "training_error": 0.008310388360089755,
        "evaluation_results": {
          "X": 39,
          "O": 49,
          "draw": 12
        },
        "evaluation_efficiency": 55.00000000000001,
        "tactical_passed_count": 4,
        "tactical_total_count": 4,
        "tactical_success_rate": 100.0
      },
      {
        "checkpoint_index": 4,
        "total_epochs": 160,
        "elapsed_seconds": 4.407535600010306,
        "training_error": 0.007080793586586104,
        "evaluation_results": {
          "X": 31,
          "O": 54,
          "draw": 15
        },
        "evaluation_efficiency": 61.5,
        "tactical_passed_count": 4,
        "tactical_total_count": 4,
        "tactical_success_rate": 100.0
      },
      {
        "checkpoint_index": 5,
        "total_epochs": 200,
        "elapsed_seconds": 5.497850300045684,
        "training_error": 0.006298703203570123,
        "evaluation_results": {
          "X": 32,
          "O": 53,
          "draw": 15
        },
        "evaluation_efficiency": 60.5,
        "tactical_passed_count": 4,
        "tactical_total_count": 4,
        "tactical_success_rate": 100.0
      }
    ],
    "initial_training_error": 0.13260776688834894,
    "final_training_error": 0.006298703203570123,
    "training_error_improvement": 0.12630906368477882,
    "initial_evaluation_efficiency": 35.0,
    "final_evaluation_efficiency": 60.5,
    "evaluation_efficiency_improvement": 25.5,
    "initial_tactical_success_rate": 25.0,
    "final_tactical_success_rate": 100.0,
    "tactical_success_rate_improvement": 75.0
  }
}