{
  "type": "neural_model_package",
  "game": "morpion",
  "trained_player": "O",
  "opponent_player": "X",
  "model_data": {
    "type": "simple_neural_network",
    "input_size": 34,
    "hidden_size": 18,
    "output_size": 9,
    "learning_rate": 0.04,
    "input_hidden_weights": [
      [
        0.9753411775031503,
        0.6003580029313244,
        -0.9166047702403175,
        0.6474459846330601,
        -0.24222093544275355,
        -1.007200513246912,
        0.5681963081830197,
        -0.18137801527796785,
        -0.5545237201813854,
        0.43926508628075944,
        1.0684321734201903,
        0.29830994094163527,
        0.9593799843966457,
        0.69173293756486,
        0.823503917813077,
        -0.6080821475415714,
        0.4120820275856079,
        -1.1606314044698742
      ],
      [
        0.5297408726141195,
        0.37280454616547704,
        0.42001029298829184,
        0.5640236670780437,
        0.052300029260500355,
        0.12048828460082092,
        0.43014432981701006,
        -0.3266999434876455,
        -0.7366495089651593,
        1.081558695330065,
        0.8581269514917581,
        -0.221489460164383,
        -0.04939802290167425,
        0.40485651766156816,
        0.024281537522552177,
        -1.1377166904111091,
        -0.16728540566194303,
        -0.9911840374144949
      ],
      [
        -0.34496205472836067,
        -0.38457358590773955,
        -0.02386347196535557,
        0.1651766335857933,
        0.023215669031489736,
        -0.4498562315675506,
        0.5083344188541657,
        -0.7193233633697452,
        -1.046176704221992,
        1.3289068906368084,
        0.5847088109109472,
        -0.1632993399478227,
        0.1253134867586783,
        0.04364414139320518,
        0.8909188568482147,
        0.35494278000768403,
        -1.2261551939504516,
        -1.1241101656505021
      ],
      [
        0.6608514381110565,
        1.6004377146561968,
        0.14252411243082538,
        0.7043275804562047,
        -0.18948281128095298,
        0.025689951735351286,
        0.25654048813663455,
        -0.3032394391262876,
        -0.5075985452764677,
        0.2787103722369718,
        0.5828587035291094,
        -0.5594448907375208,
        -0.3415401562466688,
        0.5130609417119227,
        0.38525508311056295,
        -0.7124482701070671,
        -0.24813270955948621,
        -0.8471907588345164
      ],
      [
        -0.6675455284250058,
        0.5111613103123067,
        -0.1298648709002308,
        0.4144820963159017,
        0.2790432285318691,
        -0.36014475392954726,
        0.25184183050195363,
        -0.16310757934509768,
        -0.8367386208099102,
        1.5710850466611295,
        0.4516168149190239,
        -0.4434483615183407,
        -0.09637674184192953,
        -0.5495392820083876,
        -0.17760819052199034,
        0.4125053198639817,
        -0.07628677550317034,
        -1.040743849474328
      ],
      [
        0.7891805653340763,
        0.42697740768330217,
        0.2461424536117737,
        0.2005936271225436,
        0.2868479712800775,
        1.163648145502404,
        0.4077992796913343,
        -0.039087040912180925,
        -0.2771249486410324,
        0.864583854857235,
        -0.12074711766641964,
        -0.2580531111946468,
        0.23743528287788682,
        0.14069619497433677,
        0.25375373776710203,
        -1.055610688493603,
        -0.002665386812657962,
        -0.589841480927621
      ],
      [
        0.5194133720758515,
        0.3323310776099474,
        0.22849772011184052,
        -0.1440381260943839,
        -0.1120294388976159,
        0.012710510944500791,
        0.36876826829894477,
        -0.48415541086897895,
        -0.17769925500890213,
        0.21635122291864076,
        1.170960758341393,
        -0.09546122343809033,
        0.45209030920617077,
        0.16692446829802096,
        1.0471301360734595,
        0.37593006619302305,
        -0.5034962374999664,
        -0.45692364985761497
      ],
      [
        1.3585244928288767,
        -0.14846581417491267,
        1.0686629948652855,
        -0.2505400166924063,
        0.35639999366744957,
        -0.01716550328991446,
        0.25535687480459457,
        0.009724161969227325,
        0.19045810324976722,
        -0.15059474726606067,
        -0.7491575411055947,
        -0.10343427024677289,
        0.05109218323740083,
        0.013127665619485817,
        0.5962699883443808,
        -1.0837468000765362,
        -0.20831421792293028,
        -0.21605699780618545
      ],
      [
        0.08263706617684524,
        -0.890723736366947,
        -0.022710349493598177,
        0.29146019885212304,
        0.23913935804641576,
        -0.02348935359084341,
        0.19325143141893442,
        -0.03332216598770889,
        -0.5640876640860623,
        1.0276334670985015,
        -0.10046976681089102,
        -0.41700517920232344,
        0.16751893861605122,
        0.380018536252688,
        0.6877304727260575,
        1.6452248825996434,
        -0.947299893303696,
        0.9893265773793394
      ],
      [
        -0.07624256740641129,
        0.015400222083910437,
        -0.46597119353126176,
        -0.31781670491051356,
        -0.6654347984428036,
        -0.8183885019717922,
        -0.4654149664839646,
        0.2603209453454466,
        0.24169846132986153,
        -0.8393040631783931,
        -1.0063984664754697,
        0.13049357664510097,
        -0.32701341482225893,
        -0.11904756456741078,
        -0.12136821488534344,
        -0.5511538012086268,
        1.01772446284711,
        0.6873783904602141
      ],
      [
        -0.6195651477719315,
        -1.0894184715314006,
        0.5253852536037302,
        -0.11372651204297415,
        -0.19643694828567004,
        0.8045240147214967,
        -0.03390695521662658,
        0.13238845532498458,
        0.4557959539958148,
        -0.3411201242030108,
        -1.0070095164699393,
        0.34227769657586427,
        -0.21936237929399588,
        -0.4332876953412718,
        -0.15439731463781803,
        1.1368006316801487,
        -0.5145186401226662,
        0.6940873039146562
      ],
      [
        -0.05273104090425494,
        -1.025587099864591,
        0.7152633933281222,
        0.21289445760620546,
        -0.40656183022251663,
        0.5221445362194641,
        -0.17896425885694628,
        -0.057335341194631004,
        -0.010214656670146014,
        -0.09840433000770685,
        -1.4405007124459808,
        0.4263644079022869,
        -0.22402346663954953,
        -0.2530589612816153,
        -0.7452894191709911,
        0.5782140492305224,
        -0.06047480074935864,
        1.12917736345203
      ],
      [
        -0.38306578310396056,
        -1.3217277749593204,
        1.16854780915068,
        0.14513134466206448,
        -0.4261096070935801,
        -0.11037979651717367,
        -0.6740702253097839,
        0.02005568153060197,
        0.35466464881031345,
        -0.5930049261026256,
        -1.371284879034237,
        0.19915851635928006,
        -0.5539910445040344,
        0.03594725375666266,
        -0.3991326053918282,
        1.3082539133852833,
        -0.3894782732935835,
        0.7255827188329232
      ],
      [
        -0.6386283119838662,
        0.08515361736032558,
        0.8948894094384456,
        -0.31332904072925155,
        0.18070891837406736,
        0.0820812781943035,
        0.12322720207630644,
        0.18209141674755544,
        0.1832043760605907,
        0.20833011702379037,
        0.5394409025292699,
        0.28104943549774136,
        0.03624819536150895,
        -0.6265049873910378,
        -1.1677182771449501,
        -0.14766925110278356,
        -0.39620646781341085,
        -0.07676789772572512
      ],
      [
        -0.2541875635311976,
        -1.3714671470823216,
        1.157909394633295,
        -0.07347812741814522,
        0.2703691563600423,
        0.624935680831461,
        -0.28011311699494745,
        0.011146574496221818,
        0.30652511530437054,
        -0.38874707254998714,
        -2.3104505932225066,
        0.2566909611289905,
        -0.33567989830407474,
        -0.43999683320987165,
        -1.0794463958593343,
        0.5670580841894719,
        -0.7072711878487544,
        1.3591617532646076
      ],
      [
        -0.5950632730982944,
        -1.5207785844658919,
        0.3738920207973375,
        -0.2734076341014607,
        -0.4700240920817259,
        0.4132243421759543,
        -0.5034935514462002,
        -0.2701280887941548,
        0.22314992584755516,
        -0.40041105734439214,
        -1.0444060758224283,
        0.5709392540950068,
        -0.580789153465696,
        -0.045137500026226615,
        0.2556591253513138,
        0.8410132725924414,
        -0.10737209654394826,
        1.2160763370339407
      ],
      [
        -0.519716182787849,
        -1.8986615557657376,
        1.191206204776094,
        -0.20994779974333513,
        -0.1112175478759918,
        0.5963829385670275,
        -0.17934536661682465,
        0.16678799714209921,
        0.8944062031027966,
        -0.7378754338358176,
        -1.8281099846744613,
        0.5370084082523783,
        -0.5519742950998878,
        -0.37961384751480365,
        0.14767818669872582,
        0.7823585310721727,
        -0.6483922223505465,
        1.6423679610876762
      ],
      [
        -0.7726218877375702,
        -1.51813996557795,
        1.4460114727862257,
        0.25914049915451787,
        -0.4292587968665654,
        0.9801704213321238,
        -0.696150947027548,
        -0.2362520425694469,
        0.04910038555779343,
        -0.7315743816752024,
        -1.8177726361951523,
        0.17721901423411615,
        -0.6700910632572405,
        0.11666080176827953,
        -0.19319017723328102,
        1.6233708968499994,
        0.036361629807023774,
        0.7503769748584338
      ],
      [
        -1.1503856479157997,
        2.463049519932526,
        1.1304472664595153,
        -0.3339089882758457,
        0.6453338001875184,
        -0.20060514954492317,
        -0.5919032892868502,
        -0.36129387973957316,
        0.4468023225609265,
        -0.45100262121089907,
        1.433463524450246,
        1.8645760984357704,
        -0.7678801757821221,
        1.0823066571773432,
        -0.717738300421086,
        0.41908595842843444,
        -0.5686088631645307,
        1.0105491339107189
      ],
      [
        -0.4215771373259545,
        -1.0282761210892108,
        -1.233662386893039,
        0.9058744609010378,
        -1.408637732003453,
        0.5169014028798421,
        1.346898054295499,
        0.7861484071436804,
        0.7252053448494815,
        -0.5841300083136199,
        0.48545092999401046,
        0.3154597714751037,
        -0.9179578317787703,
        -1.1258547016669629,
        -0.9330118019242141,
        0.2883966747312704,
        1.5989554980560001,
        0.8636153595093986
      ],
      [
        -0.6484405424859253,
        -0.6648416351351448,
        0.5565084213821044,
        -0.10733730964983638,
        0.5327833782360012,
        -0.08027683143902865,
        0.6829685418040929,
        0.5753399346977668,
        -1.946489237892414,
        -0.8807241380989688,
        0.30680308923895033,
        -0.20471329305066333,
        1.56840609302519,
        -0.8179551069621881,
        -0.9767659675311491,
        -0.9020110973449295,
        -0.9442050298550264,
        -2.3127737032029896
      ],
      [
        -1.1080084573848792,
        0.8021146919073131,
        0.3579313748012793,
        1.242399954551462,
        1.2596191874784464,
        -0.13263082723825062,
        2.0777278180029692,
        0.052893619928232286,
        0.18392348696446473,
        -1.3674970429786475,
        1.1980376830509532,
        0.8326043868032277,
        0.5852146994900214,
        -0.22952319618099137,
        -0.42943255674155895,
        0.049551216240900815,
        -0.29499315443597135,
        0.8776755048748891
      ],
      [
        0.2501250562708164,
        0.3953188453245541,
        -0.402432313522307,
        -0.17425050881370419,
        -0.4534012254225648,
        -1.3224568485320207,
        -1.0252358037755016,
        -0.4530743648624903,
        -1.4560048705298207,
        0.19341411797818364,
        -0.7157576386384372,
        1.8749714031701636,
        0.39459749315930936,
        -1.101838141211648,
        -1.0820476271600574,
        1.057513119426069,
        0.08104945367234682,
        0.33948820660246976
      ],
      [
        -1.1614271000417788,
        0.7642262136287892,
        0.6904518354490633,
        -0.843985874755,
        -1.6969069575635591,
        0.6589195826936182,
        0.15005325560910474,
        1.4917730593375,
        0.4211669861605869,
        0.28895579664869037,
        0.713545170842682,
        0.721220631625026,
        0.2745660517156257,
        1.2263826722312228,
        -1.0408215318978922,
        0.11069061002257796,
        -0.7724522368511775,
        -1.2975580320155338
      ],
      [
        -1.1300407670279642,
        1.674433507325733,
        -0.14413828440156018,
        -0.12837596419959046,
        -0.28759017283878374,
        0.15007844698613004,
        0.17201540547098318,
        -0.49472893264041823,
        0.8559297392425531,
        -0.23418512409169753,
        -0.3880033190107508,
        0.0501676737308346,
        1.6169299252364933,
        -0.5976121342505626,
        -1.0354381794761076,
        -1.0380245003352968,
        1.4940444001707038,
        -0.831769053076753
      ],
      [
        -0.38372089219577615,
        1.2418431511703352,
        -0.2359447606941348,
        1.0900612173646125,
        0.17896892552033006,
        -0.13516805813884994,
        -0.3627029701646849,
        1.397666323529213,
        0.2820629000020077,
        -0.08237368944193119,
        1.482505287841745,
        0.5895124423106967,
        0.71314486092483,
        -0.4116418346516699,
        -0.6027317875123233,
        -1.064079320607719,
        0.14093244569585414,
        1.4085924439279445
      ],
      [
        0.40933489122632644,
        -0.46279987192673144,
        0.8873824193601086,
        0.14791325624812046,
        0.8093447221021933,
        0.20307191532904897,
        -0.5628469384907192,
        -0.3542270633178826,
        0.8275210927656148,
        0.8301483115113866,
        1.0398469156386958,
        0.34865367459608215,
        0.13112020500661262,
        0.8658380504359231,
        -0.25105705752206653,
        1.112225384875004,
        -0.9507577688065719,
        0.841479782907428
      ],
      [
        0.27048441085035635,
        -1.582439895334088,
        -2.1492514340899076,
        0.7374398236164318,
        -0.4584413597941395,
        0.8597879485847871,
        0.27067454061025503,
        -0.3059806008349449,
        0.3269729603060307,
        0.9552038073094359,
        -0.500366534366283,
        -1.3041323677278271,
        -1.6610215339132262,
        -0.23211425769680347,
        -0.6857941669118817,
        0.04820792879932081,
        0.5782403986876228,
        0.744479425708407
      ],
      [
        -0.12844984080815738,
        -0.5956170482367322,
        0.4945314831113993,
        0.29623780353272683,
        -0.06871586536636484,
        0.3756424709795628,
        -0.12311737859241215,
        -0.15867918159752722,
        -0.6884570248355693,
        0.23250540169964276,
        -0.3232365368986711,
        -0.7603901596009228,
        0.7416917617797498,
        0.3738079147096578,
        -0.16663206356784882,
        -0.35998578447106827,
        0.16083353447034232,
        -1.5002870396488197
      ],
      [
        0.9992987927367547,
        -0.6818305733979532,
        1.1956952581579374,
        0.7696863867861575,
        0.14817890196169758,
        0.46040952978717803,
        0.5560698244437743,
        -0.647399786876864,
        0.08259583590298608,
        -0.6446560911311914,
        1.2466783264638106,
        -0.2857494581990644,
        0.5195923130129197,
        0.4423606614527167,
        -0.13859461861104314,
        -0.5407682419518322,
        0.174740202571871,
        1.7290750880104264
      ],
      [
        0.3771963613136561,
        -0.912756574367316,
        -1.0875718438805146,
        -0.4596873174922789,
        0.86881312567867,
        -1.1064912501149753,
        -1.1530988804827438,
        -0.46577765232826945,
        -0.2456851843474929,
        0.5985496282010548,
        -1.9689053232193847,
        -0.12016868793837909,
        -0.22023292741513173,
        -0.40102023049741736,
        -0.05004974756373855,
        0.7322742879311928,
        0.29465307658706597,
        1.1886868357421616
      ],
      [
        -0.4719389643411467,
        0.15981381072993994,
        0.8107156462687831,
        -0.9211593374928613,
        0.25754320105370176,
        0.35789105146238565,
        0.15342031608816803,
        0.6362227281636621,
        1.1022998980816083,
        1.2267843957082762,
        -0.2687775157023451,
        -0.60494473661527,
        0.7176219041100113,
        0.11250816767730325,
        0.3528953469476515,
        0.7948185503714892,
        0.135746333913473,
        -1.1400694203015707
      ],
      [
        -0.4431675090761287,
        0.021979330867647428,
        0.812862689769133,
        -0.4576018498223924,
        0.7852900908572122,
        -0.1355693362981631,
        -0.524562380770518,
        -0.6865628496035165,
        1.303726818608669,
        0.5254477691924906,
        -1.2407699881161962,
        -0.5141755477683081,
        0.9319340025521139,
        0.036392861756629535,
        0.3557383209347336,
        -0.6125712474867062,
        0.7115702513863479,
        0.695783923073276
      ],
      [
        -0.20959565599741975,
        0.14648375681652712,
        -0.9196367109001602,
        0.6213118975346142,
        0.4560817269061536,
        0.27252468857738193,
        -0.6889635275177614,
        0.5063309622962833,
        0.11433717314907003,
        1.3058889006054357,
        -0.6344389945344888,
        -0.39090035046787575,
        0.11627453380032825,
        -0.2908843252467097,
        0.24940638270318613,
        -0.05682292668968919,
        0.17652358116218553,
        1.4407936035999434
      ]
    ],
    "hidden_biases": [
      0.9185463405205493,
      0.0063496812822785974,
      0.3274986997486333,
      -0.9342659595707498,
      1.0305303638880294,
      1.4190885701044693,
      -0.4065868826088395,
      0.4632882093435853,
      0.9235654678579948,
      -0.8914508516677997,
      -0.4415884352457813,
      -0.7555398076725731,
      -0.14698556659969061,
      -0.2739897079703553,
      1.078645457746017,
      -0.17338101724180743,
      -0.7130261084211181,
      0.5566970879780356
    ],
    "hidden_output_weights": [
      [
        -1.3112670069481795,
        -0.28768824231748863,
        -1.1277694256578799,
        -0.50576832191038,
        -1.3126825808866285,
        -0.8295579306590186,
        -1.1287612594877288,
        0.4558373589409842,
        -1.7387115741799095
      ],
      [
        1.5361171167903513,
        0.07691069529043865,
        0.401653488681532,
        -2.4660126446261263,
        -0.31355094010371454,
        -3.1829234391060943,
        -0.8875135407310505,
        -1.6241641621315117,
        -0.9790238003157522
      ],
      [
        1.2477799657531894,
        0.7409033764977956,
        2.134810212879729,
        -0.08435402789847177,
        -1.761138778465647,
        -0.6944043649327849,
        0.35064753766214846,
        0.11849206507551713,
        1.9402408060670269
      ],
      [
        0.52722193638488,
        -0.7644329978734998,
        -0.21515067240243158,
        0.49896217439609813,
        0.9573856557332407,
        -1.048822594735814,
        1.545241813100773,
        -0.9016879768079754,
        -1.1410280010117186
      ],
      [
        1.1921679518150583,
        0.29707854967889724,
        -0.2778111239769566,
        -0.3631832027616131,
        -0.7336263046665479,
        -1.676219286737569,
        0.6968338757715113,
        -0.5812107308288449,
        -1.4477461405512795
      ],
      [
        0.1949442312449852,
        -1.1835093206344107,
        0.34757078394030294,
        0.10104601832256958,
        -0.9403511282324125,
        -0.09429624583831216,
        0.5648406316921577,
        -2.3331536223905673,
        1.5055679696980462
      ],
      [
        0.665860055991549,
        -0.8753834392655607,
        -0.7715417822045602,
        1.6737837896031444,
        -1.562174723391899,
        1.5824995308384975,
        0.4313187605072481,
        -0.5277762597243884,
        -0.46144769069989583
      ],
      [
        -0.8789606903142094,
        -0.2640195721118933,
        1.8478550893596009,
        0.127965333809785,
        -0.07200682755189831,
        1.0333954514354757,
        1.4513421679231255,
        0.42037996488548446,
        -0.06084912881308616
      ],
      [
        1.3091610704090346,
        -0.6587898258982186,
        0.6137688637419385,
        0.10118630314740702,
        1.199104298354249,
        0.6666231285134505,
        -1.7608718459691208,
        -1.9312841708982802,
        0.9771943220707181
      ],
      [
        -1.4585184108490172,
        -0.7112344090467582,
        0.11907028355341051,
        -1.1762772988120054,
        -0.5993525486315533,
        -0.3857885599809076,
        -1.9087237171801539,
        -1.2727203363708872,
        -1.2635450201731426
      ],
      [
        1.8262736840393428,
        -0.6998793275203538,
        2.8750728795550557,
        0.8283955778013876,
        -1.739527387754414,
        1.7850345632392575,
        3.139627425467273,
        -0.1777374162409478,
        -0.12801508504429934
      ],
      [
        1.4291887239644052,
        1.896283905237809,
        1.7913514567663735,
        0.3923886117749115,
        0.8698288250485419,
        0.5911776303397762,
        -0.027315838833325085,
        0.9700640066368291,
        -0.01597663067309708
      ],
      [
        0.5138885267477096,
        -0.7373106847161301,
        0.13698363787729978,
        -0.5101348807781207,
        0.23335786593109714,
        -0.9255766161202544,
        1.4707492965359292,
        0.34075649135895286,
        1.4042920852998984
      ],
      [
        0.549654783248976,
        0.2393742850740818,
        1.1112792845714015,
        -0.42518410639976734,
        -2.00212808276709,
        0.2271969369552191,
        -0.28997170129273,
        -1.0965494032541578,
        -0.30938096225245587
      ],
      [
        -1.3286765292121545,
        -1.5008091325179704,
        -0.9694710607163521,
        -0.5304384545577093,
        -1.2100483198187686,
        -0.6283613877910558,
        -0.4516797997349824,
        -1.4877095457273948,
        -1.2823074715024514
      ],
      [
        0.6113019756994205,
        1.3053970952948222,
        0.16331789919772,
        0.9880068241092839,
        0.4135444051283017,
        1.2951317129458357,
        -0.23395644431118828,
        2.273235369555747,
        -0.38270204941661284
      ],
      [
        -0.3118795196631415,
        0.5087378790178156,
        -0.4543768460286135,
        1.061492736655862,
        1.5233946527200848,
        0.9155912931843635,
        -1.2186841876543477,
        -0.12293121473663812,
        -0.6947294924512891
      ],
      [
        1.0055526149802845,
        0.3504738447063531,
        1.395371508503879,
        0.9241302914179518,
        0.9991300931341525,
        0.10334920978378534,
        2.0500987791764747,
        -0.6333204908696011,
        -4.538986081447702
      ]
    ],
    "output_biases": [
      0.26840103902320445,
      -1.5826199661712226,
      -0.23162481613668306,
      -2.034212019140999,
      0.220247110542446,
      -1.0010355017385888,
      0.31399792175629965,
      -0.7746061312745671,
      -0.28943216520601084
    ]
  },
  "training_summary": {
    "game": "morpion",
    "training_games_count": 1000,
    "simulations_per_move": 30,
    "max_examples": 1000,
    "available_states_count": 1777,
    "tactical_repeat_count": 50,
    "base_examples_count": 1000,
    "extra_examples_count": 1200,
    "tactical_examples_count": 900,
    "reference_examples_count": 300,
    "reference_training_games_count": 500,
    "reference_training_names": [
      "tactical"
    ],
    "examples_count": 2200,
    "training_examples_count": 2000,
    "validation_examples_count": 200,
    "validation_ratio": 0.2,
    "scored_moves_count": null,
    "average_legal_moves": null,
    "average_best_score": null,
    "input_size": 34,
    "hidden_size": 18,
    "output_size": 9,
    "epochs": 40,
    "learning_rate": 0.04,
    "started_from_existing_model": false,
    "initial_error": 0.18774770004557798,
    "final_error": 0.01827479740281265,
    "error_improvement": 0.16947290264276532,
    "initial_validation_error": 0.1254963383409782,
    "final_validation_error": 0.039002404382122,
    "validation_error_improvement": 0.08649393395885621,
    "benchmark_checkpoints_count": 50,
    "benchmark_epochs_per_checkpoint": 20,
    "benchmark_evaluation_games_count": 500,
    "initial_evaluation_efficiency": 87.5,
    "final_evaluation_efficiency": 91.8,
    "evaluation_efficiency_improvement": 4.299999999999997,
    "final_reference_worst_efficiency": 56.00000000000001,
    "final_reference_worst_name": "tactical",
    "initial_tactical_success_rate": 100.0,
    "final_tactical_success_rate": 100.0,
    "tactical_success_rate_improvement": 0.0,
    "best_checkpoint_index": 2,
    "best_total_epochs": 40,
    "final_checkpoint_is_best": false,
    "stopped_early": true
  },
  "benchmark_summary": {
    "available_states_count": 1777,
    "checkpoints": [
      {
        "checkpoint_index": 0,
        "total_epochs": 0,
        "elapsed_seconds": 0.0,
        "training_error": 0.18774770004557798,
        "validation_error": 0.1254963383409782,
        "evaluation_results": {
          "X": 2,
          "O": 377,
          "draw": 121
        },
        "evaluation_seed": 0,
        "evaluation_efficiency": 87.5,
        "reference_evaluations": [
          {
            "reference_name": "random",
            "total_games": 200,
            "trained_player": "O",
            "opponent_player": "X",
            "trained_player_wins": 151,
            "opponent_player_wins": 0,
            "draws": 49,
            "efficiency": 87.75
          },
          {
            "reference_name": "tactical",
            "total_games": 200,
            "trained_player": "O",
            "opponent_player": "X",
            "trained_player_wins": 29,
            "opponent_player_wins": 19,
            "draws": 152,
            "efficiency": 52.5
          },
          {
            "reference_name": "greedy",
            "total_games": 200,
            "trained_player": "O",
            "opponent_player": "X",
            "trained_player_wins": 160,
            "opponent_player_wins": 3,
            "draws": 37,
            "efficiency": 89.25
          }
        ],
        "reference_worst_efficiency": 52.5,
        "reference_worst_name": "tactical",
        "tactical_passed_count": 18,
        "tactical_total_count": 18,
        "tactical_success_rate": 100.0,
        "tactical_failed_results": []
      },
      {
        "checkpoint_index": 1,
        "total_epochs": 20,
        "elapsed_seconds": 12.267138099996373,
        "training_error": 0.02298980700937233,
        "validation_error": 0.04528947000369051,
        "evaluation_results": {
          "X": 0,
          "O": 416,
          "draw": 84
        },
        "evaluation_seed": 0,
        "evaluation_efficiency": 91.60000000000001,
        "reference_evaluations": [
          {
            "reference_name": "random",
            "total_games": 200,
            "trained_player": "O",
            "opponent_player": "X",
            "trained_player_wins": 164,
            "opponent_player_wins": 0,
            "draws": 36,
            "efficiency": 91.0
          },
          {
            "reference_name": "tactical",
            "total_games": 200,
            "trained_player": "O",
            "opponent_player": "X",
            "trained_player_wins": 24,
            "opponent_player_wins": 0,
            "draws": 176,
            "efficiency": 56.00000000000001
          },
          {
            "reference_name": "greedy",
            "total_games": 200,
            "trained_player": "O",
            "opponent_player": "X",
            "trained_player_wins": 155,
            "opponent_player_wins": 0,
            "draws": 45,
            "efficiency": 88.75
          }
        ],
        "reference_worst_efficiency": 56.00000000000001,
        "reference_worst_name": "tactical",
        "tactical_passed_count": 18,
        "tactical_total_count": 18,
        "tactical_success_rate": 100.0,
        "tactical_failed_results": []
      },
      {
        "checkpoint_index": 2,
        "total_epochs": 40,
        "elapsed_seconds": 24.728837500093505,
        "training_error": 0.01827479740281265,
        "validation_error": 0.039002404382122,
        "evaluation_results": {
          "X": 0,
          "O": 418,
          "draw": 82
        },
        "evaluation_seed": 0,
        "evaluation_efficiency": 91.8,
        "reference_evaluations": [
          {
            "reference_name": "random",
            "total_games": 200,
            "trained_player": "O",
            "opponent_player": "X",
            "trained_player_wins": 171,
            "opponent_player_wins": 0,
            "draws": 29,
            "efficiency": 92.75
          },
          {
            "reference_name": "tactical",
            "total_games": 200,
            "trained_player": "O",
            "opponent_player": "X",
            "trained_player_wins": 24,
            "opponent_player_wins": 0,
            "draws": 176,
            "efficiency": 56.00000000000001
          },
          {
            "reference_name": "greedy",
            "total_games": 200,
            "trained_player": "O",
            "opponent_player": "X",
            "trained_player_wins": 167,
            "opponent_player_wins": 0,
            "draws": 33,
            "efficiency": 91.75
          }
        ],
        "reference_worst_efficiency": 56.00000000000001,
        "reference_worst_name": "tactical",
        "tactical_passed_count": 18,
        "tactical_total_count": 18,
        "tactical_success_rate": 100.0,
        "tactical_failed_results": []
      },
      {
        "checkpoint_index": 3,
        "total_epochs": 60,
        "elapsed_seconds": 37.69129400001839,
        "training_error": 0.016183014525158117,
        "validation_error": 0.03689087480214363,
        "evaluation_results": {
          "X": 0,
          "O": 409,
          "draw": 91
        },
        "evaluation_seed": 0,
        "evaluation_efficiency": 90.9,
        "reference_evaluations": [
          {
            "reference_name": "random",
            "total_games": 200,
            "trained_player": "O",
            "opponent_player": "X",
            "trained_player_wins": 169,
            "opponent_player_wins": 0,
            "draws": 31,
            "efficiency": 92.25
          },
          {
            "reference_name": "tactical",
            "total_games": 200,
            "trained_player": "O",
            "opponent_player": "X",
            "trained_player_wins": 24,
            "opponent_player_wins": 0,
            "draws": 176,
            "efficiency": 56.00000000000001
          },
          {
            "reference_name": "greedy",
            "total_games": 200,
            "trained_player": "O",
            "opponent_player": "X",
            "trained_player_wins": 169,
            "opponent_player_wins": 0,
            "draws": 31,
            "efficiency": 92.25
          }
        ],
        "reference_worst_efficiency": 56.00000000000001,
        "reference_worst_name": "tactical",
        "tactical_passed_count": 18,
        "tactical_total_count": 18,
        "tactical_success_rate": 100.0,
        "tactical_failed_results": []
      },
      {
        "checkpoint_index": 4,
        "total_epochs": 80,
        "elapsed_seconds": 50.153469500131905,
        "training_error": 0.01488427900133578,
        "validation_error": 0.03573260660626667,
        "evaluation_results": {
          "X": 0,
          "O": 402,
          "draw": 98
        },
        "evaluation_seed": 0,
        "evaluation_efficiency": 90.2,
        "reference_evaluations": [
          {
            "reference_name": "random",
            "total_games": 200,
            "trained_player": "O",
            "opponent_player": "X",
            "trained_player_wins": 165,
            "opponent_player_wins": 0,
            "draws": 35,
            "efficiency": 91.25
          },
          {
            "reference_name": "tactical",
            "total_games": 200,
            "trained_player": "O",
            "opponent_player": "X",
            "trained_player_wins": 24,
            "opponent_player_wins": 1,
            "draws": 175,
            "efficiency": 55.75
          },
          {
            "reference_name": "greedy",
            "total_games": 200,
            "trained_player": "O",
            "opponent_player": "X",
            "trained_player_wins": 165,
            "opponent_player_wins": 0,
            "draws": 35,
            "efficiency": 91.25
          }
        ],
        "reference_worst_efficiency": 55.75,
        "reference_worst_name": "tactical",
        "tactical_passed_count": 18,
        "tactical_total_count": 18,
        "tactical_success_rate": 100.0,
        "tactical_failed_results": []
      },
      {
        "checkpoint_index": 5,
        "total_epochs": 100,
        "elapsed_seconds": 62.98355020000599,
        "training_error": 0.013914731730542296,
        "validation_error": 0.035044504249596015,
        "evaluation_results": {
          "X": 0,
          "O": 426,
          "draw": 74
        },
        "evaluation_seed": 0,
        "evaluation_efficiency": 92.60000000000001,
        "reference_evaluations": [
          {
            "reference_name": "random",
            "total_games": 200,
            "trained_player": "O",
            "opponent_player": "X",
            "trained_player_wins": 171,
            "opponent_player_wins": 0,
            "draws": 29,
            "efficiency": 92.75
          },
          {
            "reference_name": "tactical",
            "total_games": 200,
            "trained_player": "O",
            "opponent_player": "X",
            "trained_player_wins": 15,
            "opponent_player_wins": 1,
            "draws": 184,
            "efficiency": 53.5
          },
          {
            "reference_name": "greedy",
            "total_games": 200,
            "trained_player": "O",
            "opponent_player": "X",
            "trained_player_wins": 166,
            "opponent_player_wins": 0,
            "draws": 34,
            "efficiency": 91.5
          }
        ],
        "reference_worst_efficiency": 53.5,
        "reference_worst_name": "tactical",
        "tactical_passed_count": 18,
        "tactical_total_count": 18,
        "tactical_success_rate": 100.0,
        "tactical_failed_results": []
      },
      {
        "checkpoint_index": 6,
        "total_epochs": 120,
        "elapsed_seconds": 75.343504199991,
        "training_error": 0.013446849454628146,
        "validation_error": 0.03493362678244517,
        "evaluation_results": {
          "X": 0,
          "O": 429,
          "draw": 71
        },
        "evaluation_seed": 0,
        "evaluation_efficiency": 92.9,
        "reference_evaluations": [
          {
            "reference_name": "random",
            "total_games": 200,
            "trained_player": "O",
            "opponent_player": "X",
            "trained_player_wins": 174,
            "opponent_player_wins": 0,
            "draws": 26,
            "efficiency": 93.5
          },
          {
            "reference_name": "tactical",
            "total_games": 200,
            "trained_player": "O",
            "opponent_player": "X",
            "trained_player_wins": 20,
            "opponent_player_wins": 1,
            "draws": 179,
            "efficiency": 54.75
          },
          {
            "reference_name": "greedy",
            "total_games": 200,
            "trained_player": "O",
            "opponent_player": "X",
            "trained_player_wins": 169,
            "opponent_player_wins": 0,
            "draws": 31,
            "efficiency": 92.25
          }
        ],
        "reference_worst_efficiency": 54.75,
        "reference_worst_name": "tactical",
        "tactical_passed_count": 18,
        "tactical_total_count": 18,
        "tactical_success_rate": 100.0,
        "tactical_failed_results": []
      },
      {
        "checkpoint_index": 7,
        "total_epochs": 140,
        "elapsed_seconds": 88.0493707000278,
        "training_error": 0.012783468932737485,
        "validation_error": 0.0340453777520504,
        "evaluation_results": {
          "X": 0,
          "O": 437,
          "draw": 63
        },
        "evaluation_seed": 0,
        "evaluation_efficiency": 93.7,
        "reference_evaluations": [
          {
            "reference_name": "random",
            "total_games": 200,
            "trained_player": "O",
            "opponent_player": "X",
            "trained_player_wins": 177,
            "opponent_player_wins": 0,
            "draws": 23,
            "efficiency": 94.25
          },
          {
            "reference_name": "tactical",
            "total_games": 200,
            "trained_player": "O",
            "opponent_player": "X",
            "trained_player_wins": 20,
            "opponent_player_wins": 0,
            "draws": 180,
            "efficiency": 55.00000000000001
          },
          {
            "reference_name": "greedy",
            "total_games": 200,
            "trained_player": "O",
            "opponent_player": "X",
            "trained_player_wins": 171,
            "opponent_player_wins": 0,
            "draws": 29,
            "efficiency": 92.75
          }
        ],
        "reference_worst_efficiency": 55.00000000000001,
        "reference_worst_name": "tactical",
        "tactical_passed_count": 18,
        "tactical_total_count": 18,
        "tactical_success_rate": 100.0,
        "tactical_failed_results": []
      },
      {
        "checkpoint_index": 8,
        "total_epochs": 160,
        "elapsed_seconds": 101.04413160006516,
        "training_error": 0.012358100515628682,
        "validation_error": 0.03301524771127813,
        "evaluation_results": {
          "X": 0,
          "O": 446,
          "draw": 54
        },
        "evaluation_seed": 0,
        "evaluation_efficiency": 94.6,
        "reference_evaluations": [
          {
            "reference_name": "random",
            "total_games": 200,
            "trained_player": "O",
            "opponent_player": "X",
            "trained_player_wins": 183,
            "opponent_player_wins": 0,
            "draws": 17,
            "efficiency": 95.75
          },
          {
            "reference_name": "tactical",
            "total_games": 200,
            "trained_player": "O",
            "opponent_player": "X",
            "trained_player_wins": 15,
            "opponent_player_wins": 0,
            "draws": 185,
            "efficiency": 53.75
          },
          {
            "reference_name": "greedy",
            "total_games": 200,
            "trained_player": "O",
            "opponent_player": "X",
            "trained_player_wins": 167,
            "opponent_player_wins": 0,
            "draws": 33,
            "efficiency": 91.75
          }
        ],
        "reference_worst_efficiency": 53.75,
        "reference_worst_name": "tactical",
        "tactical_passed_count": 18,
        "tactical_total_count": 18,
        "tactical_success_rate": 100.0,
        "tactical_failed_results": []
      },
      {
        "checkpoint_index": 9,
        "total_epochs": 180,
        "elapsed_seconds": 113.61445540003479,
        "training_error": 0.012220561002435577,
        "validation_error": 0.03290473780889351,
        "evaluation_results": {
          "X": 0,
          "O": 441,
          "draw": 59
        },
        "evaluation_seed": 0,
        "evaluation_efficiency": 94.1,
        "reference_evaluations": [
          {
            "reference_name": "random",
            "total_games": 200,
            "trained_player": "O",
            "opponent_player": "X",
            "trained_player_wins": 181,
            "opponent_player_wins": 0,
            "draws": 19,
            "efficiency": 95.25
          },
          {
            "reference_name": "tactical",
            "total_games": 200,
            "trained_player": "O",
            "opponent_player": "X",
            "trained_player_wins": 22,
            "opponent_player_wins": 0,
            "draws": 178,
            "efficiency": 55.50000000000001
          },
          {
            "reference_name": "greedy",
            "total_games": 200,
            "trained_player": "O",
            "opponent_player": "X",
            "trained_player_wins": 170,
            "opponent_player_wins": 0,
            "draws": 30,
            "efficiency": 92.5
          }
        ],
        "reference_worst_efficiency": 55.50000000000001,
        "reference_worst_name": "tactical",
        "tactical_passed_count": 18,
        "tactical_total_count": 18,
        "tactical_success_rate": 100.0,
        "tactical_failed_results": []
      },
      {
        "checkpoint_index": 10,
        "total_epochs": 200,
        "elapsed_seconds": 126.11833750014193,
        "training_error": 0.011866849105686804,
        "validation_error": 0.031501275477633844,
        "evaluation_results": {
          "X": 0,
          "O": 431,
          "draw": 69
        },
        "evaluation_seed": 0,
        "evaluation_efficiency": 93.10000000000001,
        "reference_evaluations": [
          {
            "reference_name": "random",
            "total_games": 200,
            "trained_player": "O",
            "opponent_player": "X",
            "trained_player_wins": 180,
            "opponent_player_wins": 0,
            "draws": 20,
            "efficiency": 95.0
          },
          {
            "reference_name": "tactical",
            "total_games": 200,
            "trained_player": "O",
            "opponent_player": "X",
            "trained_player_wins": 16,
            "opponent_player_wins": 0,
            "draws": 184,
            "efficiency": 54.0
          },
          {
            "reference_name": "greedy",
            "total_games": 200,
            "trained_player": "O",
            "opponent_player": "X",
            "trained_player_wins": 165,
            "opponent_player_wins": 0,
            "draws": 35,
            "efficiency": 91.25
          }
        ],
        "reference_worst_efficiency": 54.0,
        "reference_worst_name": "tactical",
        "tactical_passed_count": 18,
        "tactical_total_count": 18,
        "tactical_success_rate": 100.0,
        "tactical_failed_results": []
      },
      {
        "checkpoint_index": 11,
        "total_epochs": 220,
        "elapsed_seconds": 138.8994684999343,
        "training_error": 0.011865320148885678,
        "validation_error": 0.03169097322235845,
        "evaluation_results": {
          "X": 0,
          "O": 446,
          "draw": 54
        },
        "evaluation_seed": 0,
        "evaluation_efficiency": 94.6,
        "reference_evaluations": [
          {
            "reference_name": "random",
            "total_games": 200,
            "trained_player": "O",
            "opponent_player": "X",
            "trained_player_wins": 183,
            "opponent_player_wins": 0,
            "draws": 17,
            "efficiency": 95.75
          },
          {
            "reference_name": "tactical",
            "total_games": 200,
            "trained_player": "O",
            "opponent_player": "X",
            "trained_player_wins": 15,
            "opponent_player_wins": 0,
            "draws": 185,
            "efficiency": 53.75
          },
          {
            "reference_name": "greedy",
            "total_games": 200,
            "trained_player": "O",
            "opponent_player": "X",
            "trained_player_wins": 167,
            "opponent_player_wins": 0,
            "draws": 33,
            "efficiency": 91.75
          }
        ],
        "reference_worst_efficiency": 53.75,
        "reference_worst_name": "tactical",
        "tactical_passed_count": 18,
        "tactical_total_count": 18,
        "tactical_success_rate": 100.0,
        "tactical_failed_results": []
      },
      {
        "checkpoint_index": 12,
        "total_epochs": 240,
        "elapsed_seconds": 151.5843166001141,
        "training_error": 0.011699226886232109,
        "validation_error": 0.030758473737494015,
        "evaluation_results": {
          "X": 0,
          "O": 431,
          "draw": 69
        },
        "evaluation_seed": 0,
        "evaluation_efficiency": 93.10000000000001,
        "reference_evaluations": [
          {
            "reference_name": "random",
            "total_games": 200,
            "trained_player": "O",
            "opponent_player": "X",
            "trained_player_wins": 178,
            "opponent_player_wins": 0,
            "draws": 22,
            "efficiency": 94.5
          },
          {
            "reference_name": "tactical",
            "total_games": 200,
            "trained_player": "O",
            "opponent_player": "X",
            "trained_player_wins": 15,
            "opponent_player_wins": 0,
            "draws": 185,
            "efficiency": 53.75
          },
          {
            "reference_name": "greedy",
            "total_games": 200,
            "trained_player": "O",
            "opponent_player": "X",
            "trained_player_wins": 161,
            "opponent_player_wins": 0,
            "draws": 39,
            "efficiency": 90.25
          }
        ],
        "reference_worst_efficiency": 53.75,
        "reference_worst_name": "tactical",
        "tactical_passed_count": 18,
        "tactical_total_count": 18,
        "tactical_success_rate": 100.0,
        "tactical_failed_results": []
      }
    ],
    "initial_training_error": 0.18774770004557798,
    "final_training_error": 0.011699226886232109,
    "training_error_improvement": 0.17604847315934585,
    "initial_validation_error": 0.1254963383409782,
    "final_validation_error": 0.030758473737494015,
    "validation_error_improvement": 0.09473786460348418,
    "initial_evaluation_efficiency": 87.5,
    "final_evaluation_efficiency": 93.10000000000001,
    "evaluation_efficiency_improvement": 5.6000000000000085,
    "initial_tactical_success_rate": 100.0,
    "final_tactical_success_rate": 100.0,
    "tactical_success_rate_improvement": 0.0,
    "best_checkpoint": {
      "checkpoint_index": 2,
      "total_epochs": 40,
      "elapsed_seconds": 24.728837500093505,
      "training_error": 0.01827479740281265,
      "validation_error": 0.039002404382122,
      "evaluation_results": {
        "X": 0,
        "O": 418,
        "draw": 82
      },
      "evaluation_seed": 0,
      "evaluation_efficiency": 91.8,
      "reference_evaluations": [
        {
          "reference_name": "random",
          "total_games": 200,
          "trained_player": "O",
          "opponent_player": "X",
          "trained_player_wins": 171,
          "opponent_player_wins": 0,
          "draws": 29,
          "efficiency": 92.75
        },
        {
          "reference_name": "tactical",
          "total_games": 200,
          "trained_player": "O",
          "opponent_player": "X",
          "trained_player_wins": 24,
          "opponent_player_wins": 0,
          "draws": 176,
          "efficiency": 56.00000000000001
        },
        {
          "reference_name": "greedy",
          "total_games": 200,
          "trained_player": "O",
          "opponent_player": "X",
          "trained_player_wins": 167,
          "opponent_player_wins": 0,
          "draws": 33,
          "efficiency": 91.75
        }
      ],
      "reference_worst_efficiency": 56.00000000000001,
      "reference_worst_name": "tactical",
      "tactical_passed_count": 18,
      "tactical_total_count": 18,
      "tactical_success_rate": 100.0,
      "tactical_failed_results": []
    },
    "best_checkpoint_index": 2,
    "best_total_epochs": 40,
    "best_training_error": 0.01827479740281265,
    "best_validation_error": 0.039002404382122,
    "best_evaluation_efficiency": 91.8,
    "best_tactical_success_rate": 100.0,
    "final_checkpoint_is_best": false,
    "stopped_early": true
  }
}