{
  "type": "neural_model_package",
  "game": "morpion",
  "trained_player": "O",
  "opponent_player": "X",
  "model_data": {
    "type": "simple_neural_network",
    "input_size": 34,
    "hidden_size": 18,
    "output_size": 9,
    "learning_rate": 0.04,
    "input_hidden_weights": [
      [
        1.0643929862279444,
        0.34670645952106016,
        -0.0635293742392777,
        -0.4324709449225926,
        0.9958823353036333,
        -0.5869922894657401,
        0.5873481162729683,
        -0.07990545143745474,
        -1.0172318081874148,
        0.410829470456561,
        -0.571834096119773,
        -1.3896620963586193,
        -0.5762118166887957,
        0.7451347295930988,
        -0.5647029720254352,
        -0.5963739935298993,
        -0.23829417395912192,
        -1.3658439618202742
      ],
      [
        0.8130778507018759,
        0.4608162539357804,
        -0.024552769076518377,
        -0.07355905888735233,
        0.5085334723402704,
        -0.27320731895058425,
        -0.08799979164037743,
        -0.38153470162866454,
        -0.7906028782946228,
        0.8304246947386266,
        0.34922957532437987,
        -0.5774171265748973,
        0.3929401049339297,
        0.5957417038935788,
        0.5002006515148085,
        -0.5389672265015065,
        -0.16541688693371726,
        -1.2460826489301635
      ],
      [
        -0.34491281915623084,
        -0.11100433455206817,
        -0.8813001664784763,
        -0.38208559873662323,
        -0.7130806365479874,
        -0.22680380692177668,
        0.2669172042764508,
        -1.852717137191676,
        -1.2294742122202686,
        0.23167640795999572,
        -0.03880666912703214,
        -1.395205148093874,
        0.2318840824144272,
        0.4339416539621957,
        1.0114177854742654,
        0.38028047310247737,
        -0.1821222061078594,
        -1.214968512319768
      ],
      [
        0.2626970184539719,
        0.3992461654121863,
        0.10578209067881095,
        1.230448030334213,
        -0.4806532302326162,
        0.29498441657741103,
        0.08589626433349178,
        -0.6619883123915794,
        -0.8926290102619108,
        0.5368066392469956,
        -0.5790380275303465,
        -0.11276077229204079,
        -0.18635525263470984,
        0.8044778986964368,
        1.1079928509691108,
        -0.6888784259764216,
        0.3137169784158394,
        -0.8196657499845118
      ],
      [
        0.5286092081299687,
        -0.0022043255652320535,
        0.18052000303355456,
        -0.7334571346328331,
        -0.00854188277741497,
        -0.11875137861470955,
        0.40182796205919324,
        -0.8812611564079138,
        -1.1462764021987888,
        0.25475919940608416,
        0.6766597788268865,
        -0.5483863155083704,
        0.2777383962772798,
        0.7201184675762439,
        0.7973658795270971,
        0.13765879150839272,
        0.12993075717403688,
        -1.2508641948536479
      ],
      [
        1.2043461462377383,
        -0.08723909484647327,
        -0.13823469598481217,
        0.4091674070583543,
        -0.6347869380891256,
        0.04091428741352073,
        -0.01274619976376362,
        -0.6692113780873015,
        -0.17152030518551672,
        0.7180730286170764,
        0.4086084080381655,
        -0.47300380458003416,
        0.4280570502554067,
        0.541461823879551,
        0.5638485202692848,
        -0.3777235730568167,
        0.6624802789866473,
        -0.8294495386846986
      ],
      [
        0.9595598273531113,
        -0.2215094757840244,
        0.07874015171505336,
        0.5769246475258495,
        -0.9967176862943373,
        -0.18904376821860255,
        0.6102562387020939,
        -0.5669013856426042,
        -0.561861705828057,
        0.7675996381129815,
        -0.7161299988265473,
        -0.9709104715324807,
        0.2800264276724616,
        0.4962150849794064,
        0.06885073548654269,
        -0.22710807878356482,
        -0.47710633766565563,
        -0.803492929466386
      ],
      [
        1.1624926209739803,
        -0.7121120305129601,
        0.26789627747505596,
        0.5939974182937725,
        -0.006376904540234406,
        -0.5008876602131096,
        -0.7728842914166945,
        -0.869636832061171,
        -0.050208431242183285,
        0.33897840294891163,
        -0.20438363003327095,
        -0.5510514092479181,
        -0.24732555426184266,
        1.086903693544769,
        0.8544911056671632,
        -0.20909780513552761,
        -0.9124605396444478,
        -0.532560341332159
      ],
      [
        0.5472811771174705,
        -1.2755017724788744,
        -0.3221951744570693,
        0.08329037487372111,
        -0.25196635140883783,
        -0.5959959930632664,
        -0.049027813883712364,
        -0.29509794366659614,
        -0.3808177192316192,
        0.3282243906499715,
        0.29013161754996847,
        -1.3364245785033944,
        -0.5656500957164893,
        0.4495096011565953,
        0.8879292866155575,
        0.3700160545897705,
        -0.8330791030070597,
        0.33991096848411523
      ],
      [
        -0.4600941140774452,
        0.24412694227892526,
        -0.37638697949321087,
        1.1768471454755034,
        0.373551913300674,
        0.4612975308371254,
        -0.36955263088634027,
        -0.19509275017997404,
        0.1159500821232259,
        -0.9516412237226575,
        -0.7581180083039419,
        0.46836227967457855,
        -0.8433663119450745,
        0.1326970075490147,
        -1.6393532632790735,
        -0.08864194712693547,
        0.4242580102328763,
        0.65460116639575
      ],
      [
        -0.3419224578425906,
        -0.9007081554474307,
        0.09822278563216938,
        1.762632824072397,
        -0.824171381051029,
        0.24987092042016468,
        -0.6999289884372759,
        0.544385680453004,
        0.5215333126517115,
        -1.0667739194844426,
        0.5152078315318963,
        0.3585858326209692,
        0.03138525729857942,
        -0.49972426509810836,
        -0.4718780849989699,
        0.48468827190853775,
        0.5934961525938225,
        0.7841439489130392
      ],
      [
        0.1258526604665409,
        -0.5009664696905547,
        -0.7433109364984739,
        0.24833542470108178,
        -1.3403176137395103,
        0.022352155074533316,
        0.557748103245617,
        1.0274553948349474,
        0.40050178827843425,
        -0.2794723737668607,
        0.3394201319264996,
        0.0036346148388063555,
        0.7330288571569922,
        -1.2096077828999408,
        -0.17408081081951007,
        1.385463209725711,
        0.4384943412791398,
        0.8926241192901263
      ],
      [
        -0.35450580469915716,
        -0.7137608639194095,
        0.20735662140612018,
        0.7947585364775526,
        -1.3596453416530883,
        0.2898841609330886,
        -0.4188754595613302,
        0.1704537005388977,
        0.5782230710271183,
        -1.0151573496722415,
        -0.25861662932689067,
        0.7981672474900274,
        -0.335890211030197,
        -0.20385139201372646,
        -0.05055081183606033,
        1.0006187707943257,
        -0.22688354709260633,
        1.3743505152809274
      ],
      [
        -0.8773467992012509,
        0.45016266869486304,
        -0.48836724713623675,
        -0.8065689090761884,
        -0.7946905221129904,
        0.18185044863908909,
        0.557579867292744,
        1.4620000323063973,
        0.33223880976126763,
        0.011111810336215448,
        -0.5470735396780491,
        -0.5404790952106867,
        -0.7329825410343891,
        -1.787115616391371,
        -0.6397454894811491,
        0.4438260507838983,
        -0.966695013575957,
        0.6654888063228328
      ],
      [
        0.34111052638803013,
        -1.4605859039476508,
        0.17751212533272115,
        0.41612061393572974,
        -1.6920783740053706,
        -0.6021794342839561,
        -0.5401461588299356,
        0.06530198079517005,
        0.7784162735534467,
        -1.2072231912914553,
        0.7327648224861741,
        0.7637641746864208,
        -0.27432799763636506,
        -0.1511258226398712,
        -0.6040923007641057,
        -0.31955931865914655,
        0.11332552387887986,
        1.2004953789290704
      ],
      [
        -0.363234148897467,
        -2.4437347245281598,
        0.15826604276727937,
        0.6415131308840981,
        -0.8450862985941101,
        -0.036737952260808865,
        -0.1341593054683818,
        0.7556585669498707,
        0.5052688587046462,
        -0.40051876676946446,
        0.22055087294822284,
        0.7778185167217481,
        -0.6923249316498432,
        -0.6011549752879282,
        -0.5097609977429399,
        0.11956160539442433,
        0.8229647447689733,
        0.5892618997867091
      ],
      [
        -0.44305748541555107,
        -1.2178274895063557,
        0.33402186547755347,
        1.2346051904730455,
        -1.5033571674390815,
        0.09567876848903703,
        -0.5356125149038965,
        0.5943334442277712,
        0.5706125870567396,
        -0.9771689500842684,
        0.5278016795386976,
        0.9503078287519569,
        0.06633059284164423,
        -0.23079175603956462,
        -0.22429700677211695,
        0.1586555497699412,
        2.041680207946203,
        1.0842468821428064
      ],
      [
        -0.6570778442392675,
        -1.6767818620695636,
        -0.48999020982101116,
        -0.7530576937626334,
        -1.6127025844569542,
        -0.29992637524725496,
        -0.10108224728381601,
        0.43069196556605677,
        0.2449251866971161,
        -1.231486238321097,
        0.2820059639262126,
        0.9303860735583986,
        -0.6393890960963609,
        -0.1913593898310035,
        -0.21088631514143574,
        -0.7807567555882898,
        1.3747495043585036,
        0.18455055420767885
      ],
      [
        -1.959229403921883,
        1.173599255822052,
        1.4719999532949823,
        -0.775456424448013,
        -0.5443437683634406,
        -1.1527250489226344,
        0.4054302068884065,
        -0.5629097744354397,
        0.21145907535768782,
        0.6514316126024984,
        -0.06924389866277994,
        0.2651179436328048,
        -0.9506291468144012,
        0.03604573103758495,
        -0.8434549134416174,
        0.7949265888993443,
        1.2771685372983943,
        0.022893123121985368
      ],
      [
        -0.37797173587848243,
        0.9489669620689937,
        -1.1239362652858111,
        0.2649809254844028,
        0.6167391027421838,
        -0.18168020296303777,
        0.896082268720866,
        -0.01655650584461627,
        0.554770366516613,
        -0.9508242713658721,
        -0.0858668143343508,
        0.3318504144686354,
        -1.5045140584477616,
        -0.9241906566029099,
        -0.1720554800313294,
        0.6907035878108383,
        0.4610279014756979,
        0.7809544931188488
      ],
      [
        -1.2781801378115378,
        -0.8250158569438771,
        -0.056283462375084324,
        -0.3611013659510416,
        0.012448356132843957,
        -0.15374989491624846,
        -0.6387466420560128,
        0.16650506689963832,
        -1.469536405006587,
        -1.1627646091946007,
        0.22963915759922188,
        -0.23494802876608029,
        0.659680270542264,
        -0.06333551169982093,
        -0.6925537575702814,
        -0.5621934268669099,
        -1.310138303383396,
        -2.087098591179858
      ],
      [
        -1.0442983455355654,
        0.5289817297514017,
        0.6326849420832816,
        0.31771498927672903,
        1.0629787334405583,
        -1.001655486284969,
        1.6553139180322611,
        0.4795695241228113,
        -0.5626587426455789,
        -0.8230324159914616,
        1.0260448355147673,
        0.5570775419084394,
        0.8064786152386217,
        -0.5218809225357399,
        0.36529175529930386,
        -0.48344996457438055,
        -0.42268156205116425,
        0.3462172391746111
      ],
      [
        -0.6936640427092552,
        0.03497506230416998,
        -0.03577943339253745,
        -0.5323739370184754,
        0.2624473292228966,
        -1.3609580362841847,
        -0.9742967210884858,
        -0.24114619897773734,
        -0.7013898154695113,
        0.10926094805859554,
        -1.445661796525796,
        0.8189673616049417,
        0.3152467625816678,
        -1.0066218020531048,
        -0.7485436125403068,
        0.9217753731949118,
        -0.5738918154880379,
        0.4733830767134727
      ],
      [
        -1.1452898977851502,
        0.4309764371177032,
        0.6883790042871909,
        -1.8783359308724037,
        -1.0358169975294338,
        0.9050147758181561,
        -0.11385122337088173,
        0.7281046289719514,
        0.7174098498826917,
        0.655102856920827,
        0.5933492823176723,
        0.4080258196582682,
        -0.3635585535954442,
        0.3705349937059721,
        -1.0694751063562575,
        0.246277880125221,
        -0.6425267308764752,
        -1.5253397991658888
      ],
      [
        -2.0437561891042884,
        1.346670722088672,
        -0.2905188230826688,
        -1.4435628190623155,
        0.6640876897051746,
        0.1848029665943955,
        0.23146855054126178,
        -0.25336598249289916,
        0.8912270986269714,
        0.039220595710901064,
        -1.422460577221407,
        0.03546145552039255,
        0.8673426833210948,
        -0.8065986389114115,
        -0.40086157057923305,
        -1.3513429551909228,
        0.14023297940824922,
        -0.7875734622902906
      ],
      [
        -1.3396330531891976,
        0.8787684005667273,
        -0.3989579770180451,
        0.39489236244191295,
        1.0616796379813342,
        -0.4974548442402388,
        -0.09393242560433089,
        2.433432135581186,
        -0.05313229218552776,
        0.4073186868098192,
        0.01564859014527404,
        0.1223663493082378,
        0.7664063788639991,
        -0.11406279984785647,
        -0.16040703876000761,
        -0.6254971478184758,
        -0.6569853545446621,
        1.5744514624872743
      ],
      [
        -0.12686264099278807,
        -0.2138514904402539,
        0.8825394371567025,
        -0.45651394152704833,
        -0.8141856673513977,
        -0.08338812652542948,
        0.2801223255740209,
        0.19382220184653606,
        0.4200357025001403,
        1.3518632204166605,
        -0.006229620845330237,
        0.6881369759026433,
        -0.13535686228517174,
        0.32065323503004145,
        0.5991547463270098,
        0.15639431164432951,
        -0.7495113357076387,
        0.3979374164355547
      ],
      [
        0.12299484379497164,
        -0.6058709132134543,
        -0.9617994735612767,
        2.2939274079724905,
        -0.36303309325464994,
        0.8797588469217645,
        0.33290179992824226,
        -0.8393524129114812,
        0.5178483545086082,
        0.31721055707495194,
        0.1460947632847995,
        0.6092182106037377,
        0.08314557511254636,
        -0.4396846175890314,
        0.6778879779477697,
        -0.014601255666543312,
        0.8476160509953033,
        0.8962458325895848
      ],
      [
        0.22629475207903885,
        0.15692871379367856,
        -0.2563371563665867,
        -0.6302268353076268,
        0.3260013965668541,
        0.3776777869117692,
        0.07151374126642317,
        -0.24843779204256414,
        -0.12933252214924573,
        -0.13473953703476427,
        -0.541542953004535,
        -0.4148200796919522,
        1.0690440115247564,
        -0.015587015558246198,
        0.294213220741837,
        0.023360707568591717,
        -0.04245094664665532,
        -0.487273713921544
      ],
      [
        0.43127268109914496,
        -0.10381548452807475,
        0.013267094526984713,
        -0.2051764156090372,
        -0.50450344784099,
        -0.30761581750408806,
        0.7398769328531866,
        -0.40571724421325484,
        -0.18265795964778458,
        -0.3466964121649651,
        0.5177867441748557,
        -0.25710041101081604,
        -0.16987458286246299,
        -0.11970548437876824,
        0.524962904701447,
        -0.7033334137554806,
        -0.5024950469364174,
        0.94393636097944
      ],
      [
        0.17242280433783536,
        -1.1637059600877164,
        -0.6864665177282209,
        0.561671925479604,
        0.09467939912129325,
        -0.4660693006325729,
        -0.8358471969612555,
        -0.19033739989707768,
        -0.12290046700227089,
        0.270143782658721,
        -0.137505970013608,
        0.05693408860830337,
        0.0166997949667792,
        -0.4460727948955944,
        0.7209312915507228,
        0.6410143065205658,
        0.5852658213265352,
        0.797944931488673
      ],
      [
        -0.7291148208283126,
        0.6167012264952219,
        -0.09982468319585586,
        -0.15618327966997178,
        -1.2260073069431268,
        0.7392522350931978,
        -0.27364035178480145,
        0.13907528654792542,
        0.6988828047099108,
        0.3127974040271221,
        0.4503549313079393,
        -0.008506303627601084,
        -0.20455603116679133,
        0.24834472161806614,
        0.16549678162147222,
        0.35079221265154775,
        -0.060776200779516495,
        -0.7683378808257398
      ],
      [
        0.18629347399971255,
        -0.38107300639377056,
        0.0912595895964152,
        -0.5138955002533334,
        -0.6715963074355743,
        0.3329539672626647,
        0.07223508632662172,
        -0.7823011928197613,
        0.979946512162436,
        0.28546805700085554,
        -0.9098143789074338,
        -0.2671560030906113,
        1.1182249887155526,
        -0.10441258073614433,
        0.30310410850814873,
        -1.1907770344325264,
        0.3706071900746771,
        0.11912651888798924
      ],
      [
        0.6111553082014239,
        0.7310058788188468,
        -0.13022469262524886,
        0.788997571718376,
        -0.16595069132563445,
        0.5517950287672816,
        -0.7535622729273476,
        1.3970438807028944,
        -0.269223010612685,
        1.1637865454583856,
        -0.9017933967182012,
        -0.19467378236723043,
        0.10992789374420932,
        0.12058065765781542,
        0.3321191966610033,
        -0.17969030867592342,
        0.5957390581169681,
        1.8551543765916971
      ]
    ],
    "hidden_biases": [
      1.1465768397252492,
      -0.09045395591383304,
      1.0838321811559137,
      0.374925972017284,
      0.3087409960732043,
      0.4249233502515979,
      -0.6981141582914813,
      -1.0191106573889854,
      0.9557400529743548,
      1.1495963177403346,
      0.3887355422572131,
      -0.24721955112731722,
      1.563057731341243,
      0.030053914346506144,
      0.3528533318961008,
      -0.8174515046878325,
      0.5244184292334786,
      0.8695525856972385
    ],
    "hidden_output_weights": [
      [
        -1.7035860972491714,
        -0.4725451840664202,
        -1.4316687409764717,
        -0.6205120936910644,
        -1.6305454030071553,
        -1.0722776235487497,
        -1.6892545774128502,
        0.20959383255079075,
        -1.4991905359435795
      ],
      [
        0.8115637016697866,
        -1.141700678133612,
        0.5214022897893404,
        -1.7221772457214721,
        0.8095349072336758,
        -0.02103358620650155,
        -0.7004048640501781,
        -2.7738469039921396,
        -1.5687090365944936
      ],
      [
        1.8472685210339705,
        0.27480419437538045,
        0.4717729513089266,
        -0.03964793675677629,
        -1.1423548642879064,
        -0.4293165489806175,
        0.15497337837615063,
        -0.34081919174614494,
        0.8194080338636311
      ],
      [
        -0.1561893743467269,
        -0.7991799766173346,
        -1.4951032314760273,
        0.4274418621576979,
        0.10720385931417255,
        0.3751262097657642,
        -0.27592722682070464,
        -0.536706216853074,
        -2.8157796970633084
      ],
      [
        0.824207383988715,
        -1.36542623858275,
        -2.5494541201944863,
        -0.7319923407468684,
        0.44242293738560856,
        -2.2930440613199097,
        -0.5512083215086748,
        -0.4851829502951902,
        -2.3045086256211733
      ],
      [
        -1.1304822923600502,
        -1.5154403502894702,
        0.7484541358472793,
        0.4290199024058744,
        -0.6652778806712412,
        0.8634744986316549,
        0.30014490952439715,
        -0.9320419994329758,
        1.0687532966663933
      ],
      [
        1.5379247410327137,
        -0.3963226549016888,
        0.12234718153301892,
        1.62672241155642,
        -1.6109697296578844,
        0.2627068446817024,
        1.1120142737265901,
        -0.8639227593698228,
        -0.1778737828763505
      ],
      [
        0.08279630276536855,
        -0.49734600584811256,
        1.863802998882523,
        0.8359566128992016,
        0.894169133909202,
        0.24594015919272785,
        2.498309095221272,
        -0.2765373070943392,
        0.3946643621136438
      ],
      [
        1.4906881108064638,
        -0.9265388413995463,
        0.6202118445453162,
        0.010423309036166268,
        1.7183416330830537,
        0.6915076273203768,
        -2.252161299668778,
        -1.889554116002252,
        1.3661986428038462
      ],
      [
        -0.6093978581295275,
        0.08912122187607768,
        -0.3656809740422082,
        -2.04800024193431,
        -1.2454398798862145,
        -0.9833436754626068,
        -1.5639518921662985,
        -0.7398372190115297,
        -1.4632006271914277
      ],
      [
        0.17131722953973497,
        -0.45035137523838414,
        0.8458720358372828,
        0.13077819802651378,
        -1.1159430703406676,
        0.9204409116404616,
        1.1453098866608213,
        -0.4197046125976177,
        0.07477407760671441
      ],
      [
        -0.048589189070030354,
        1.3968181314035686,
        1.2302930090273705,
        1.4850037619045928,
        1.376302913603521,
        1.0728938718720964,
        0.30880630581934976,
        2.242133863328187,
        0.18676367121899287
      ],
      [
        1.033957838235149,
        -0.29954700076350244,
        -0.5413119286832162,
        -0.31910866168563196,
        0.1557335326592146,
        -1.0499675940251203,
        1.5671128561721777,
        0.8021327775414044,
        0.7554911602105185
      ],
      [
        -0.8802944496777858,
        -0.6897721202325464,
        0.33275838276891584,
        -1.18648691390824,
        -2.0401229242087418,
        -0.6134961840602501,
        0.6147971820721113,
        -1.6886779353912158,
        -0.818286477382711
      ],
      [
        0.47183902088796076,
        -0.9360452902382762,
        -1.5843960971022664,
        -0.5610512917271904,
        -1.0964095306713368,
        -1.3862093472742316,
        -0.546662143295616,
        -1.7085520432642345,
        -0.9665369313293218
      ],
      [
        -0.4822091248232627,
        1.2569982609923305,
        1.0468730316794554,
        0.3386679310965882,
        0.17492453568646812,
        0.8486758704786777,
        -0.8843972307353507,
        1.3054072278352944,
        0.1106866594823085
      ],
      [
        -0.2653182318360846,
        0.20621192505198244,
        -0.24449479637097069,
        -0.015147364218256706,
        -0.26413885113740637,
        0.1974959487521588,
        -2.3921307057081105,
        -1.6677879792639376,
        -0.9590662876892343
      ],
      [
        0.87354290294955,
        0.23584028141716445,
        1.4330608302152064,
        0.48263287613869377,
        1.2960364417775125,
        -0.16577629155866894,
        2.8768730780867675,
        -0.5491233447342315,
        -3.5930118839181366
      ]
    ],
    "output_biases": [
      -0.26164022547219673,
      -1.3806180960699146,
      -0.44373442079567943,
      -1.6298312963364758,
      0.4487337728966673,
      -2.2098367927665317,
      0.8152401306233659,
      -0.7722854090381446,
      1.5572563516807443
    ]
  },
  "training_summary": {
    "game": "morpion",
    "training_games_count": 1000,
    "simulations_per_move": 30,
    "max_examples": 1000,
    "available_states_count": 1263,
    "tactical_repeat_count": 50,
    "base_examples_count": 1000,
    "extra_examples_count": 900,
    "examples_count": 1900,
    "training_examples_count": 1700,
    "validation_examples_count": 200,
    "validation_ratio": 0.2,
    "scored_moves_count": null,
    "average_legal_moves": null,
    "average_best_score": null,
    "input_size": 34,
    "hidden_size": 18,
    "output_size": 9,
    "epochs": 120,
    "learning_rate": 0.04,
    "started_from_existing_model": false,
    "initial_error": 0.19094171844768182,
    "final_error": 0.021569565790212086,
    "error_improvement": 0.16937215265746974,
    "initial_validation_error": 0.1254963383409782,
    "final_validation_error": 0.03504131895937201,
    "validation_error_improvement": 0.09045501938160619,
    "benchmark_checkpoints_count": 50,
    "benchmark_epochs_per_checkpoint": 20,
    "benchmark_evaluation_games_count": 500,
    "initial_evaluation_efficiency": 37.4,
    "final_evaluation_efficiency": 93.89999999999999,
    "evaluation_efficiency_improvement": 56.49999999999999,
    "initial_tactical_success_rate": 22.22222222222222,
    "final_tactical_success_rate": 88.88888888888889,
    "tactical_success_rate_improvement": 66.66666666666666,
    "best_checkpoint_index": 6,
    "best_total_epochs": 120,
    "final_checkpoint_is_best": false,
    "stopped_early": true
  },
  "benchmark_summary": {
    "available_states_count": 1263,
    "checkpoints": [
      {
        "checkpoint_index": 0,
        "total_epochs": 0,
        "elapsed_seconds": 0.0,
        "training_error": 0.19094171844768182,
        "validation_error": 0.1254963383409782,
        "evaluation_results": {
          "X": 298,
          "O": 172,
          "draw": 30
        },
        "evaluation_seed": 0,
        "evaluation_efficiency": 37.4,
        "tactical_passed_count": 4,
        "tactical_total_count": 18,
        "tactical_success_rate": 22.22222222222222,
        "tactical_failed_results": [
          {
            "name": "win_line_1",
            "expected_moves": [
              5
            ],
            "chosen_move": 2,
            "description": "O doit gagner immédiatement sur la ligne [3, 4, 5]."
          },
          {
            "name": "win_line_2",
            "expected_moves": [
              8
            ],
            "chosen_move": 2,
            "description": "O doit gagner immédiatement sur la ligne [6, 7, 8]."
          },
          {
            "name": "win_line_3",
            "expected_moves": [
              6
            ],
            "chosen_move": 8,
            "description": "O doit gagner immédiatement sur la ligne [0, 3, 6]."
          },
          {
            "name": "win_line_6",
            "expected_moves": [
              8
            ],
            "chosen_move": 7,
            "description": "O doit gagner immédiatement sur la ligne [0, 4, 8]."
          },
          {
            "name": "win_line_7",
            "expected_moves": [
              6
            ],
            "chosen_move": 8,
            "description": "O doit gagner immédiatement sur la ligne [2, 4, 6]."
          },
          {
            "name": "block_line_1",
            "expected_moves": [
              5
            ],
            "chosen_move": 2,
            "description": "O doit bloquer la victoire immédiate de X sur la ligne [3, 4, 5]."
          },
          {
            "name": "block_line_2",
            "expected_moves": [
              8
            ],
            "chosen_move": 4,
            "description": "O doit bloquer la victoire immédiate de X sur la ligne [6, 7, 8]."
          },
          {
            "name": "block_line_3",
            "expected_moves": [
              6
            ],
            "chosen_move": 5,
            "description": "O doit bloquer la victoire immédiate de X sur la ligne [0, 3, 6]."
          },
          {
            "name": "block_line_4",
            "expected_moves": [
              7
            ],
            "chosen_move": 3,
            "description": "O doit bloquer la victoire immédiate de X sur la ligne [1, 4, 7]."
          },
          {
            "name": "block_line_5",
            "expected_moves": [
              8
            ],
            "chosen_move": 7,
            "description": "O doit bloquer la victoire immédiate de X sur la ligne [2, 5, 8]."
          },
          {
            "name": "block_line_6",
            "expected_moves": [
              8
            ],
            "chosen_move": 6,
            "description": "O doit bloquer la victoire immédiate de X sur la ligne [0, 4, 8]."
          },
          {
            "name": "block_line_7",
            "expected_moves": [
              6
            ],
            "chosen_move": 5,
            "description": "O doit bloquer la victoire immédiate de X sur la ligne [2, 4, 6]."
          },
          {
            "name": "answer_corner_with_center",
            "expected_moves": [
              4
            ],
            "chosen_move": 1,
            "description": "Si X commence dans un coin, O doit prendre le centre."
          },
          {
            "name": "answer_center_with_corner",
            "expected_moves": [
              0,
              2,
              6,
              8
            ],
            "chosen_move": 3,
            "description": "Si X prend le centre, un coin est une bonne réponse pour O."
          }
        ]
      },
      {
        "checkpoint_index": 1,
        "total_epochs": 20,
        "elapsed_seconds": 4.492334100184962,
        "training_error": 0.032702678757016365,
        "validation_error": 0.05211854222582671,
        "evaluation_results": {
          "X": 26,
          "O": 442,
          "draw": 32
        },
        "evaluation_seed": 0,
        "evaluation_efficiency": 91.60000000000001,
        "tactical_passed_count": 16,
        "tactical_total_count": 18,
        "tactical_success_rate": 88.88888888888889,
        "tactical_failed_results": [
          {
            "name": "win_line_1",
            "expected_moves": [
              5
            ],
            "chosen_move": 2,
            "description": "O doit gagner immédiatement sur la ligne [3, 4, 5]."
          },
          {
            "name": "block_line_1",
            "expected_moves": [
              5
            ],
            "chosen_move": 2,
            "description": "O doit bloquer la victoire immédiate de X sur la ligne [3, 4, 5]."
          }
        ]
      },
      {
        "checkpoint_index": 2,
        "total_epochs": 40,
        "elapsed_seconds": 8.951331000076607,
        "training_error": 0.027510388206887944,
        "validation_error": 0.04568994632306333,
        "evaluation_results": {
          "X": 18,
          "O": 447,
          "draw": 35
        },
        "evaluation_seed": 0,
        "evaluation_efficiency": 92.9,
        "tactical_passed_count": 16,
        "tactical_total_count": 18,
        "tactical_success_rate": 88.88888888888889,
        "tactical_failed_results": [
          {
            "name": "win_line_1",
            "expected_moves": [
              5
            ],
            "chosen_move": 2,
            "description": "O doit gagner immédiatement sur la ligne [3, 4, 5]."
          },
          {
            "name": "block_line_1",
            "expected_moves": [
              5
            ],
            "chosen_move": 2,
            "description": "O doit bloquer la victoire immédiate de X sur la ligne [3, 4, 5]."
          }
        ]
      },
      {
        "checkpoint_index": 3,
        "total_epochs": 60,
        "elapsed_seconds": 13.423165100160986,
        "training_error": 0.025280052936916174,
        "validation_error": 0.04279383362711808,
        "evaluation_results": {
          "X": 21,
          "O": 452,
          "draw": 27
        },
        "evaluation_seed": 0,
        "evaluation_efficiency": 93.10000000000001,
        "tactical_passed_count": 16,
        "tactical_total_count": 18,
        "tactical_success_rate": 88.88888888888889,
        "tactical_failed_results": [
          {
            "name": "win_line_0",
            "expected_moves": [
              2
            ],
            "chosen_move": 5,
            "description": "O doit gagner immédiatement sur la ligne [0, 1, 2]."
          },
          {
            "name": "block_line_0",
            "expected_moves": [
              2
            ],
            "chosen_move": 5,
            "description": "O doit bloquer la victoire immédiate de X sur la ligne [0, 1, 2]."
          }
        ]
      },
      {
        "checkpoint_index": 4,
        "total_epochs": 80,
        "elapsed_seconds": 17.90368660003878,
        "training_error": 0.023481213321464817,
        "validation_error": 0.03959823498986383,
        "evaluation_results": {
          "X": 21,
          "O": 452,
          "draw": 27
        },
        "evaluation_seed": 0,
        "evaluation_efficiency": 93.10000000000001,
        "tactical_passed_count": 16,
        "tactical_total_count": 18,
        "tactical_success_rate": 88.88888888888889,
        "tactical_failed_results": [
          {
            "name": "block_line_0",
            "expected_moves": [
              2
            ],
            "chosen_move": 5,
            "description": "O doit bloquer la victoire immédiate de X sur la ligne [0, 1, 2]."
          },
          {
            "name": "block_line_1",
            "expected_moves": [
              5
            ],
            "chosen_move": 2,
            "description": "O doit bloquer la victoire immédiate de X sur la ligne [3, 4, 5]."
          }
        ]
      },
      {
        "checkpoint_index": 5,
        "total_epochs": 100,
        "elapsed_seconds": 22.398074300028384,
        "training_error": 0.02235180570790831,
        "validation_error": 0.03637416236678967,
        "evaluation_results": {
          "X": 21,
          "O": 443,
          "draw": 36
        },
        "evaluation_seed": 0,
        "evaluation_efficiency": 92.2,
        "tactical_passed_count": 16,
        "tactical_total_count": 18,
        "tactical_success_rate": 88.88888888888889,
        "tactical_failed_results": [
          {
            "name": "win_line_1",
            "expected_moves": [
              5
            ],
            "chosen_move": 2,
            "description": "O doit gagner immédiatement sur la ligne [3, 4, 5]."
          },
          {
            "name": "block_line_1",
            "expected_moves": [
              5
            ],
            "chosen_move": 2,
            "description": "O doit bloquer la victoire immédiate de X sur la ligne [3, 4, 5]."
          }
        ]
      },
      {
        "checkpoint_index": 6,
        "total_epochs": 120,
        "elapsed_seconds": 26.886864100117236,
        "training_error": 0.021569565790212086,
        "validation_error": 0.03504131895937201,
        "evaluation_results": {
          "X": 13,
          "O": 452,
          "draw": 35
        },
        "evaluation_seed": 0,
        "evaluation_efficiency": 93.89999999999999,
        "tactical_passed_count": 16,
        "tactical_total_count": 18,
        "tactical_success_rate": 88.88888888888889,
        "tactical_failed_results": [
          {
            "name": "win_line_1",
            "expected_moves": [
              5
            ],
            "chosen_move": 2,
            "description": "O doit gagner immédiatement sur la ligne [3, 4, 5]."
          },
          {
            "name": "block_line_1",
            "expected_moves": [
              5
            ],
            "chosen_move": 2,
            "description": "O doit bloquer la victoire immédiate de X sur la ligne [3, 4, 5]."
          }
        ]
      },
      {
        "checkpoint_index": 7,
        "total_epochs": 140,
        "elapsed_seconds": 31.416619800031185,
        "training_error": 0.02171350045123926,
        "validation_error": 0.03688192980934579,
        "evaluation_results": {
          "X": 19,
          "O": 448,
          "draw": 33
        },
        "evaluation_seed": 0,
        "evaluation_efficiency": 92.9,
        "tactical_passed_count": 16,
        "tactical_total_count": 18,
        "tactical_success_rate": 88.88888888888889,
        "tactical_failed_results": [
          {
            "name": "win_line_0",
            "expected_moves": [
              2
            ],
            "chosen_move": 5,
            "description": "O doit gagner immédiatement sur la ligne [0, 1, 2]."
          },
          {
            "name": "block_line_0",
            "expected_moves": [
              2
            ],
            "chosen_move": 5,
            "description": "O doit bloquer la victoire immédiate de X sur la ligne [0, 1, 2]."
          }
        ]
      },
      {
        "checkpoint_index": 8,
        "total_epochs": 160,
        "elapsed_seconds": 35.90728590008803,
        "training_error": 0.020710933488363684,
        "validation_error": 0.03464214007349637,
        "evaluation_results": {
          "X": 12,
          "O": 450,
          "draw": 38
        },
        "evaluation_seed": 0,
        "evaluation_efficiency": 93.8,
        "tactical_passed_count": 16,
        "tactical_total_count": 18,
        "tactical_success_rate": 88.88888888888889,
        "tactical_failed_results": [
          {
            "name": "win_line_1",
            "expected_moves": [
              5
            ],
            "chosen_move": 2,
            "description": "O doit gagner immédiatement sur la ligne [3, 4, 5]."
          },
          {
            "name": "block_line_1",
            "expected_moves": [
              5
            ],
            "chosen_move": 2,
            "description": "O doit bloquer la victoire immédiate de X sur la ligne [3, 4, 5]."
          }
        ]
      },
      {
        "checkpoint_index": 9,
        "total_epochs": 180,
        "elapsed_seconds": 40.390671300003305,
        "training_error": 0.02030356811106583,
        "validation_error": 0.03381577288122112,
        "evaluation_results": {
          "X": 15,
          "O": 448,
          "draw": 37
        },
        "evaluation_seed": 0,
        "evaluation_efficiency": 93.30000000000001,
        "tactical_passed_count": 16,
        "tactical_total_count": 18,
        "tactical_success_rate": 88.88888888888889,
        "tactical_failed_results": [
          {
            "name": "win_line_1",
            "expected_moves": [
              5
            ],
            "chosen_move": 2,
            "description": "O doit gagner immédiatement sur la ligne [3, 4, 5]."
          },
          {
            "name": "block_line_1",
            "expected_moves": [
              5
            ],
            "chosen_move": 2,
            "description": "O doit bloquer la victoire immédiate de X sur la ligne [3, 4, 5]."
          }
        ]
      },
      {
        "checkpoint_index": 10,
        "total_epochs": 200,
        "elapsed_seconds": 44.87859440012835,
        "training_error": 0.020199065554445075,
        "validation_error": 0.03469690315947496,
        "evaluation_results": {
          "X": 21,
          "O": 443,
          "draw": 36
        },
        "evaluation_seed": 0,
        "evaluation_efficiency": 92.2,
        "tactical_passed_count": 16,
        "tactical_total_count": 18,
        "tactical_success_rate": 88.88888888888889,
        "tactical_failed_results": [
          {
            "name": "win_line_0",
            "expected_moves": [
              2
            ],
            "chosen_move": 5,
            "description": "O doit gagner immédiatement sur la ligne [0, 1, 2]."
          },
          {
            "name": "block_line_0",
            "expected_moves": [
              2
            ],
            "chosen_move": 5,
            "description": "O doit bloquer la victoire immédiate de X sur la ligne [0, 1, 2]."
          }
        ]
      },
      {
        "checkpoint_index": 11,
        "total_epochs": 220,
        "elapsed_seconds": 49.35904700006358,
        "training_error": 0.019737650428787668,
        "validation_error": 0.03462198870006499,
        "evaluation_results": {
          "X": 19,
          "O": 443,
          "draw": 38
        },
        "evaluation_seed": 0,
        "evaluation_efficiency": 92.4,
        "tactical_passed_count": 16,
        "tactical_total_count": 18,
        "tactical_success_rate": 88.88888888888889,
        "tactical_failed_results": [
          {
            "name": "win_line_0",
            "expected_moves": [
              2
            ],
            "chosen_move": 5,
            "description": "O doit gagner immédiatement sur la ligne [0, 1, 2]."
          },
          {
            "name": "win_line_1",
            "expected_moves": [
              5
            ],
            "chosen_move": 2,
            "description": "O doit gagner immédiatement sur la ligne [3, 4, 5]."
          }
        ]
      },
      {
        "checkpoint_index": 12,
        "total_epochs": 240,
        "elapsed_seconds": 53.86373920016922,
        "training_error": 0.019771972982210624,
        "validation_error": 0.03383085556227491,
        "evaluation_results": {
          "X": 22,
          "O": 442,
          "draw": 36
        },
        "evaluation_seed": 0,
        "evaluation_efficiency": 92.0,
        "tactical_passed_count": 16,
        "tactical_total_count": 18,
        "tactical_success_rate": 88.88888888888889,
        "tactical_failed_results": [
          {
            "name": "win_line_0",
            "expected_moves": [
              2
            ],
            "chosen_move": 5,
            "description": "O doit gagner immédiatement sur la ligne [0, 1, 2]."
          },
          {
            "name": "block_line_0",
            "expected_moves": [
              2
            ],
            "chosen_move": 5,
            "description": "O doit bloquer la victoire immédiate de X sur la ligne [0, 1, 2]."
          }
        ]
      },
      {
        "checkpoint_index": 13,
        "total_epochs": 260,
        "elapsed_seconds": 58.32734750001691,
        "training_error": 0.019413943700884638,
        "validation_error": 0.03464918050420436,
        "evaluation_results": {
          "X": 16,
          "O": 442,
          "draw": 42
        },
        "evaluation_seed": 0,
        "evaluation_efficiency": 92.60000000000001,
        "tactical_passed_count": 16,
        "tactical_total_count": 18,
        "tactical_success_rate": 88.88888888888889,
        "tactical_failed_results": [
          {
            "name": "win_line_1",
            "expected_moves": [
              5
            ],
            "chosen_move": 2,
            "description": "O doit gagner immédiatement sur la ligne [3, 4, 5]."
          },
          {
            "name": "block_line_1",
            "expected_moves": [
              5
            ],
            "chosen_move": 2,
            "description": "O doit bloquer la victoire immédiate de X sur la ligne [3, 4, 5]."
          }
        ]
      },
      {
        "checkpoint_index": 14,
        "total_epochs": 280,
        "elapsed_seconds": 62.85685560014099,
        "training_error": 0.019283864439764653,
        "validation_error": 0.034608751345959574,
        "evaluation_results": {
          "X": 16,
          "O": 444,
          "draw": 40
        },
        "evaluation_seed": 0,
        "evaluation_efficiency": 92.80000000000001,
        "tactical_passed_count": 16,
        "tactical_total_count": 18,
        "tactical_success_rate": 88.88888888888889,
        "tactical_failed_results": [
          {
            "name": "win_line_0",
            "expected_moves": [
              2
            ],
            "chosen_move": 5,
            "description": "O doit gagner immédiatement sur la ligne [0, 1, 2]."
          },
          {
            "name": "block_line_0",
            "expected_moves": [
              2
            ],
            "chosen_move": 5,
            "description": "O doit bloquer la victoire immédiate de X sur la ligne [0, 1, 2]."
          }
        ]
      },
      {
        "checkpoint_index": 15,
        "total_epochs": 300,
        "elapsed_seconds": 67.33091270015575,
        "training_error": 0.01920446816834744,
        "validation_error": 0.033555792552733166,
        "evaluation_results": {
          "X": 15,
          "O": 439,
          "draw": 46
        },
        "evaluation_seed": 0,
        "evaluation_efficiency": 92.4,
        "tactical_passed_count": 16,
        "tactical_total_count": 18,
        "tactical_success_rate": 88.88888888888889,
        "tactical_failed_results": [
          {
            "name": "win_line_1",
            "expected_moves": [
              5
            ],
            "chosen_move": 2,
            "description": "O doit gagner immédiatement sur la ligne [3, 4, 5]."
          },
          {
            "name": "block_line_1",
            "expected_moves": [
              5
            ],
            "chosen_move": 2,
            "description": "O doit bloquer la victoire immédiate de X sur la ligne [3, 4, 5]."
          }
        ]
      },
      {
        "checkpoint_index": 16,
        "total_epochs": 320,
        "elapsed_seconds": 71.816395400092,
        "training_error": 0.019149409286447348,
        "validation_error": 0.03400680243429606,
        "evaluation_results": {
          "X": 15,
          "O": 440,
          "draw": 45
        },
        "evaluation_seed": 0,
        "evaluation_efficiency": 92.5,
        "tactical_passed_count": 16,
        "tactical_total_count": 18,
        "tactical_success_rate": 88.88888888888889,
        "tactical_failed_results": [
          {
            "name": "win_line_1",
            "expected_moves": [
              5
            ],
            "chosen_move": 2,
            "description": "O doit gagner immédiatement sur la ligne [3, 4, 5]."
          },
          {
            "name": "block_line_1",
            "expected_moves": [
              5
            ],
            "chosen_move": 2,
            "description": "O doit bloquer la victoire immédiate de X sur la ligne [3, 4, 5]."
          }
        ]
      }
    ],
    "initial_training_error": 0.19094171844768182,
    "final_training_error": 0.019149409286447348,
    "training_error_improvement": 0.17179230916123447,
    "initial_validation_error": 0.1254963383409782,
    "final_validation_error": 0.03400680243429606,
    "validation_error_improvement": 0.09148953590668214,
    "initial_evaluation_efficiency": 37.4,
    "final_evaluation_efficiency": 92.5,
    "evaluation_efficiency_improvement": 55.1,
    "initial_tactical_success_rate": 22.22222222222222,
    "final_tactical_success_rate": 88.88888888888889,
    "tactical_success_rate_improvement": 66.66666666666666,
    "best_checkpoint": {
      "checkpoint_index": 6,
      "total_epochs": 120,
      "elapsed_seconds": 26.886864100117236,
      "training_error": 0.021569565790212086,
      "validation_error": 0.03504131895937201,
      "evaluation_results": {
        "X": 13,
        "O": 452,
        "draw": 35
      },
      "evaluation_seed": 0,
      "evaluation_efficiency": 93.89999999999999,
      "tactical_passed_count": 16,
      "tactical_total_count": 18,
      "tactical_success_rate": 88.88888888888889,
      "tactical_failed_results": [
        {
          "name": "win_line_1",
          "expected_moves": [
            5
          ],
          "chosen_move": 2,
          "description": "O doit gagner immédiatement sur la ligne [3, 4, 5]."
        },
        {
          "name": "block_line_1",
          "expected_moves": [
            5
          ],
          "chosen_move": 2,
          "description": "O doit bloquer la victoire immédiate de X sur la ligne [3, 4, 5]."
        }
      ]
    },
    "best_checkpoint_index": 6,
    "best_total_epochs": 120,
    "best_training_error": 0.021569565790212086,
    "best_validation_error": 0.03504131895937201,
    "best_evaluation_efficiency": 93.89999999999999,
    "best_tactical_success_rate": 88.88888888888889,
    "final_checkpoint_is_best": false,
    "stopped_early": true
  }
}