{
  "type": "neural_model_package",
  "game": "morpion",
  "trained_player": "O",
  "opponent_player": "X",
  "model_data": {
    "type": "simple_neural_network",
    "input_size": 18,
    "hidden_size": 18,
    "output_size": 9,
    "learning_rate": 0.04,
    "input_hidden_weights": [
      [
        4.200920728122562,
        0.23639010319341938,
        -0.8143150583510262,
        -0.05916104353708775,
        -0.6752843261703709,
        0.18633041240718093,
        -0.07023235911338181,
        -3.3512262001617334,
        -1.3769469007476676,
        0.027557287907676573,
        1.9875514472701215,
        1.2857190770020757,
        2.656226331427057,
        -0.39780608435973214,
        -3.1455564442312665,
        1.8682822996375954,
        0.35271901349594525,
        0.8267495997022817
      ],
      [
        0.09826413462793238,
        -0.010231030041216022,
        -1.0725339782565995,
        0.7898460193187102,
        -0.3731662029254695,
        0.7097780107901267,
        -1.4077486755450268,
        -1.0195346129103582,
        0.6087517294143646,
        -1.431061607863167,
        1.9246600713137816,
        1.0150589102259455,
        -0.4084543910905992,
        0.2552571600677245,
        0.1433230575229469,
        1.5442807678623356,
        -3.584730713999646,
        0.33051644734814145
      ],
      [
        -0.6982591165342742,
        2.7247214479329562,
        1.8720292456685963,
        -1.3347844402344147,
        -0.5678942680643856,
        1.1328986189703312,
        -1.0849249310987732,
        -1.4856128961555934,
        -0.4365871983894486,
        0.10849695669986247,
        0.5991814019885828,
        -1.1871398944540459,
        -0.4249936257608879,
        0.011752616754861396,
        -0.11115584834528772,
        -1.2280412255671698,
        2.5381242022210926,
        -2.1983453646208577
      ],
      [
        -0.6060810884084892,
        1.3019119888410344,
        -1.409671860276318,
        1.5639779472864161,
        -1.1979936284124761,
        0.4453350891373263,
        -0.3837076408625851,
        -1.7491639047105207,
        0.2801653351515661,
        1.06739543004491,
        -1.3627416451478855,
        1.1982318700543857,
        2.6698739256895765,
        -3.176568332909112,
        -0.6205644812676446,
        1.9034208668114285,
        0.7290642275898667,
        0.39245178072236697
      ],
      [
        1.0126178430658965,
        3.610116117867602,
        1.5181994333355655,
        -0.9107145405139851,
        -0.592721266028104,
        1.3165130388276884,
        2.170609388028442,
        0.5868286781456422,
        2.526976313437573,
        -1.4853318996911167,
        -1.0087452601138798,
        -2.374423083516157,
        -0.3536786907579554,
        0.01944374992399854,
        0.07424828287568282,
        1.1413081120241717,
        0.21101087389190584,
        0.5937998588514756
      ],
      [
        0.2272536650172069,
        0.18097859469968317,
        -0.6323028388651013,
        1.0543812048028613,
        -1.121718212334791,
        2.400443769763301,
        0.17773567057482476,
        -1.281116392128656,
        0.3826550945743315,
        1.1922161733346928,
        -0.7428649468103692,
        1.3990874258274462,
        0.03511029205114211,
        0.6336431173903899,
        0.35804608325008586,
        0.17322843031145574,
        0.4341749295206221,
        -1.5822062115139677
      ],
      [
        0.3259256960260117,
        -2.425806647625896,
        -0.29065981239795086,
        -2.0732285290698744,
        -2.7886810493933067,
        0.822209930872492,
        0.21513439938521461,
        2.083457331969291,
        0.29561346711688563,
        0.6523995692741127,
        -0.6561179301974939,
        -1.4691449607818723,
        2.4293643925114146,
        1.4625574003371054,
        -0.5010324347465281,
        1.4997502088449735,
        -0.8724854827710795,
        0.08485181899622686
      ],
      [
        0.44521665964664564,
        0.4380331069356855,
        -0.28891896642596393,
        -2.9644513344674785,
        1.5543490930752575,
        0.319964766561485,
        0.14547800010619558,
        -0.7738705079555147,
        0.5480080871126043,
        -1.42141706486887,
        -0.19604510106850653,
        1.429707847298477,
        -0.20605475471866994,
        -1.7252985359981583,
        0.7546983800765149,
        -2.837394215570703,
        -0.7586545072555975,
        0.5122538841450478
      ],
      [
        0.3298658560525351,
        0.4268560505873755,
        -0.6922802864797223,
        -3.359888369974589,
        3.1928817641361134,
        -3.802017568521222,
        -0.13434148241101337,
        0.6270968553141868,
        -0.8534797647223862,
        0.46613437544730374,
        -1.1695615252198404,
        1.277520798182517,
        -0.47282685069314656,
        -0.30050619357994757,
        0.02913359352709479,
        2.363013980514451,
        -0.704517361382085,
        -1.6374217198715189
      ],
      [
        -0.30860803533118214,
        -0.29083450477730216,
        0.7097713259013552,
        -0.9393681419455714,
        -0.6061916205435135,
        -0.31256465767512354,
        0.3837335504954243,
        0.4591515989379729,
        0.6218535455095753,
        -0.26779448469561834,
        -0.05557079152047458,
        -0.9121110180339654,
        -0.22153291260766741,
        -0.7757832216362389,
        0.4450698149242071,
        0.12454070391617511,
        0.43547861731077564,
        -0.13432292718166786
      ],
      [
        0.06414225290750075,
        -0.0846507004427539,
        1.1613378325446044,
        -0.8447418641020906,
        -0.05236931104373483,
        -0.7969721657431321,
        0.40048253557685737,
        0.4204239291247367,
        -0.008390383167258493,
        0.29096115755041635,
        0.19697018377630246,
        -0.7636662051052697,
        0.12820070653820914,
        -0.26049257066558723,
        -0.049718690208554475,
        -0.44294978445230865,
        0.6759338084614329,
        -0.13221180362947754
      ],
      [
        0.19043823936815651,
        -2.1846942962939737,
        1.1480193133875256,
        -1.9964672346220587,
        -0.3722356119491773,
        3.2742549617555605,
        1.3581758744183403,
        1.824255084822431,
        -0.06746151942850569,
        -0.493097983514433,
        -0.18575060797475312,
        -0.2941062923580888,
        0.14148953458861332,
        -0.08752866128708939,
        -0.11507183155339101,
        -1.7043955982476646,
        0.3366205148418051,
        0.4031129268985544
      ],
      [
        -0.08995017936329461,
        -0.3070208535870358,
        0.7848664543902654,
        -0.3188525290613895,
        1.6283574653127397,
        -1.1299784160039907,
        0.15913076562960513,
        0.2737819601718933,
        0.07093006331329327,
        -0.24267799304924687,
        0.6501426254230355,
        -0.910044016144819,
        -0.06178237052961251,
        -0.8375403593598898,
        1.8040780393658176,
        -0.8917758947841004,
        -0.7325379585305126,
        -0.20803423758483833
      ],
      [
        -0.7446683831062672,
        -0.5079649121783522,
        -0.0036194743734147944,
        -1.6686575620866728,
        -3.6563214075305446,
        -0.25677236135108444,
        0.3928192873411039,
        -0.24868110704539037,
        -1.4072094752923783,
        1.1924994240157902,
        1.3203345601100949,
        -0.31817400421182074,
        0.43129309497780777,
        -0.2621321208871542,
        -0.07121103299769523,
        -0.657364405357321,
        -1.6507743022038723,
        -0.5215878024559654
      ],
      [
        -0.058117586109826515,
        -0.40361627299566205,
        0.9256352158754648,
        0.2751971285666765,
        0.5600779640066821,
        -1.4592073578161346,
        -0.016286170505423542,
        0.8550399185367112,
        0.023830618529840898,
        -0.3164521423538294,
        0.8897396702836041,
        -0.9869002578772116,
        0.16041963986565738,
        -0.3145093984752518,
        -0.10296867790237184,
        -1.3744826891449164,
        -0.8793824474401747,
        0.13150069177870327
      ],
      [
        -0.18238584606130862,
        0.5360463301374606,
        1.1612083445230004,
        0.5844733300398963,
        0.5154174093489892,
        -0.7506526598456627,
        -0.43377285354902984,
        0.43608335976483437,
        0.5474519786225374,
        -0.12666155922528763,
        0.820602448799541,
        -0.3738420158877584,
        -0.21841532326718924,
        -0.5429906149123693,
        1.7412671239801116,
        -2.9287455727173572,
        0.9428404535653929,
        -0.3150055818525754
      ],
      [
        -0.27204716940517637,
        0.14142191647812322,
        0.7233808275621213,
        2.147769787362162,
        0.2375483968173203,
        -0.9782089481645243,
        -0.3336698472871199,
        0.5775031956695931,
        0.23662100737387196,
        0.18451344567774386,
        0.5489616307733218,
        -0.9136411109836771,
        0.29267887125845937,
        -0.29430859604122755,
        -0.053689838702553505,
        -1.1172952193310581,
        0.842832741032144,
        -0.1810518607938212
      ],
      [
        -0.17932342016549596,
        -0.05747376567299404,
        0.7475915428522452,
        1.0677831010735632,
        0.35203215872670723,
        -0.8131829920367144,
        -0.3257204485829173,
        -0.22599936480308314,
        0.5222519995247393,
        -0.16614668654554737,
        0.8960793491924478,
        -1.1469802104132518,
        0.31703974673356694,
        -0.012213625196211246,
        -0.07226836349556488,
        -1.2104308365570546,
        0.5820091220979456,
        0.1736989271941943
      ]
    ],
    "hidden_biases": [
      0.24498531985393057,
      -2.262684169940487,
      0.1342761975930514,
      1.2075873666996502,
      1.4406091285645182,
      0.9919110764778486,
      -0.4142993729027107,
      1.4018167304653861,
      0.7593675418703459,
      2.426555593555567,
      0.8269540826928021,
      -0.9382739235098204,
      0.10805380287913476,
      3.4755080311069144,
      0.9507705632673105,
      -2.705805932428399,
      -1.875815421256713,
      -1.0326872861053806
    ],
    "hidden_output_weights": [
      [
        -1.90304778615666,
        1.0655893461037091,
        1.6857525594948277,
        1.5941905271513916,
        -1.5518135196430574,
        0.22393863463628097,
        0.4511924734147545,
        0.20784882549408765,
        -1.098836989493642
      ],
      [
        -0.06519959540651733,
        0.3705063510768715,
        -0.7942565442496875,
        -0.3955946065372249,
        -2.3262902546877866,
        0.10535555095943265,
        -0.47631118311012643,
        -0.7830054181725153,
        -0.49985082028576816
      ],
      [
        0.7763368346989278,
        0.07590052392866241,
        -2.7786533496284784,
        0.2075773047140385,
        1.533434516448286,
        0.9495500131571075,
        -0.6526530599766242,
        1.1174511600265364,
        0.8685848880853547
      ],
      [
        0.10605917709915715,
        0.4056349926566149,
        0.9581073086340688,
        0.4073730136233993,
        0.10725272157445402,
        0.3936708852165962,
        0.8204088756566754,
        0.6633619927248091,
        0.31803230335348215
      ],
      [
        -1.0475486798283171,
        -0.17651417103897107,
        -0.11297778642328082,
        -0.8712107526008012,
        -0.84448160647721,
        -0.7125051339796484,
        0.10228936358557256,
        -0.06624740572235573,
        -0.06335251199649407
      ],
      [
        -1.101669919154013,
        -0.1523163965830017,
        -1.1115972271164631,
        -0.29094705899780865,
        -0.6304740444715377,
        -1.1417273546818192,
        -0.789700713840298,
        -0.5661823420728628,
        -0.5567518897685204
      ],
      [
        0.8421418539604175,
        -0.9959125842812087,
        0.8720627682162085,
        0.26760122046263857,
        0.1857012250045894,
        -0.04996579755294795,
        1.600314062092176,
        0.746537033943945,
        1.7268288697786165
      ],
      [
        -0.02686235297702535,
        0.33164730890932265,
        0.7180477187262286,
        1.268584612515455,
        -0.051899843980764165,
        0.8190705348200447,
        0.49604583177991257,
        0.3774375285914485,
        -1.3906945891577038
      ],
      [
        1.9116765601684371,
        -0.8861481905039642,
        0.3193833206640602,
        -0.4995533313256679,
        -2.644372598446279,
        -1.0391658480277153,
        -0.20332361560227413,
        -1.0598587651072282,
        0.6915677395897567
      ],
      [
        -0.3339248154149119,
        -3.2618059652207085,
        -0.24372784176837367,
        1.0348606054879133,
        -3.118510979521636,
        1.1277306402026575,
        0.8492480614756185,
        -2.8916568202767894,
        0.655744639903494
      ],
      [
        -1.6747258803818537,
        -1.1530772683417563,
        -3.110506092555232,
        0.8184339388274876,
        0.7177577587877115,
        -0.08826955285200007,
        1.8057074932039827,
        0.27241192315399926,
        1.9963028709344535
      ],
      [
        -1.6441685186003145,
        -0.9123136887613549,
        2.9859823080136496,
        -2.2479027492134076,
        0.35624680219427524,
        -1.3415879486703444,
        0.5566248702753686,
        -1.7731747365405024,
        -2.1008677780580953
      ],
      [
        -1.8289514855554467,
        0.4805453777728584,
        0.6803446188017546,
        -1.6657911609142602,
        0.6709226555259217,
        -0.6139142089569258,
        -2.839091001126971,
        0.31808731836755305,
        0.2422969274376781
      ],
      [
        0.33855483540916054,
        0.28198234004594047,
        1.8745876114121298,
        -0.973748496767911,
        0.18384101124786423,
        -0.2608430468848803,
        -1.6863899416269905,
        -0.1395587695176991,
        0.8801650388609686
      ],
      [
        -1.0876197754503936,
        0.39114480533476265,
        1.3683506004188453,
        -0.7171216133009913,
        0.8341765916725683,
        1.2269090837524166,
        -1.236215881844012,
        0.4160723377240652,
        1.0460006337755015
      ],
      [
        0.7642178337716492,
        1.229973849819546,
        -3.9067743830179023,
        -0.29322340998283314,
        -1.8983106201600028,
        0.19586660542096757,
        -2.1573616734886656,
        1.7805323663990082,
        4.439217729803022
      ],
      [
        -0.6266842207577266,
        0.06402746839918176,
        0.09459314308448474,
        0.8906766437589473,
        1.2976149577639282,
        0.926515571594365,
        1.4414039688199198,
        0.661590560997742,
        0.8420331310537342
      ],
      [
        -0.771619373690477,
        -0.7469196683600494,
        2.4917599717497256,
        -0.04430892956732052,
        -1.004908719924745,
        2.9596210491185704,
        -0.08464743286362213,
        -0.9913988560807905,
        2.247988973920511
      ]
    ],
    "output_biases": [
      -0.27789874816005916,
      2.2009047490450455,
      0.4876064815041342,
      -3.330613106378173,
      -0.7629561325505366,
      -0.8059982105274182,
      -0.67216553736943,
      0.11684802311357388,
      0.6950866484965494
    ]
  },
  "training_summary": {
    "game": "morpion",
    "training_games_count": 1000,
    "simulations_per_move": 30,
    "max_examples": 1000,
    "available_states_count": 1263,
    "tactical_repeat_count": 25,
    "base_examples_count": 1000,
    "extra_examples_count": 100,
    "examples_count": 1100,
    "training_examples_count": 880,
    "validation_examples_count": 220,
    "validation_ratio": 0.2,
    "scored_moves_count": null,
    "average_legal_moves": null,
    "average_best_score": null,
    "input_size": 18,
    "hidden_size": 18,
    "output_size": 9,
    "epochs": 240,
    "learning_rate": 0.04,
    "started_from_existing_model": true,
    "initial_error": 0.13982762677288257,
    "final_error": 0.020871595521829885,
    "error_improvement": 0.1189560312510527,
    "initial_validation_error": 0.15987558756072548,
    "final_validation_error": 0.035969792979812384,
    "validation_error_improvement": 0.1239057945809131,
    "benchmark_checkpoints_count": 50,
    "benchmark_epochs_per_checkpoint": 20,
    "benchmark_evaluation_games_count": 500,
    "initial_evaluation_efficiency": 61.6,
    "final_evaluation_efficiency": 88.1,
    "evaluation_efficiency_improvement": 26.499999999999993,
    "initial_tactical_success_rate": 100.0,
    "final_tactical_success_rate": 100.0,
    "tactical_success_rate_improvement": 0.0,
    "best_checkpoint_index": 12,
    "best_total_epochs": 240,
    "final_checkpoint_is_best": false,
    "stopped_early": true
  },
  "benchmark_summary": {
    "available_states_count": 1263,
    "checkpoints": [
      {
        "checkpoint_index": 0,
        "total_epochs": 0,
        "elapsed_seconds": 0.0,
        "training_error": 0.13982762677288257,
        "validation_error": 0.15987558756072548,
        "evaluation_results": {
          "X": 153,
          "O": 269,
          "draw": 78
        },
        "evaluation_seed": 0,
        "evaluation_efficiency": 61.6,
        "tactical_passed_count": 4,
        "tactical_total_count": 4,
        "tactical_success_rate": 100.0
      },
      {
        "checkpoint_index": 1,
        "total_epochs": 20,
        "elapsed_seconds": 1.7760591998230666,
        "training_error": 0.0538907137233726,
        "validation_error": 0.07306793483205423,
        "evaluation_results": {
          "X": 88,
          "O": 376,
          "draw": 36
        },
        "evaluation_seed": 0,
        "evaluation_efficiency": 78.8,
        "tactical_passed_count": 4,
        "tactical_total_count": 4,
        "tactical_success_rate": 100.0
      },
      {
        "checkpoint_index": 2,
        "total_epochs": 40,
        "elapsed_seconds": 3.590473599964753,
        "training_error": 0.039108161282336004,
        "validation_error": 0.05747121238253158,
        "evaluation_results": {
          "X": 83,
          "O": 381,
          "draw": 36
        },
        "evaluation_seed": 0,
        "evaluation_efficiency": 79.80000000000001,
        "tactical_passed_count": 4,
        "tactical_total_count": 4,
        "tactical_success_rate": 100.0
      },
      {
        "checkpoint_index": 3,
        "total_epochs": 60,
        "elapsed_seconds": 5.347219199873507,
        "training_error": 0.03377463338740112,
        "validation_error": 0.053839422758932616,
        "evaluation_results": {
          "X": 63,
          "O": 383,
          "draw": 54
        },
        "evaluation_seed": 0,
        "evaluation_efficiency": 82.0,
        "tactical_passed_count": 4,
        "tactical_total_count": 4,
        "tactical_success_rate": 100.0
      },
      {
        "checkpoint_index": 4,
        "total_epochs": 80,
        "elapsed_seconds": 7.1080140999984,
        "training_error": 0.030404495574529435,
        "validation_error": 0.05041764804970864,
        "evaluation_results": {
          "X": 86,
          "O": 369,
          "draw": 45
        },
        "evaluation_seed": 0,
        "evaluation_efficiency": 78.3,
        "tactical_passed_count": 4,
        "tactical_total_count": 4,
        "tactical_success_rate": 100.0
      },
      {
        "checkpoint_index": 5,
        "total_epochs": 100,
        "elapsed_seconds": 8.868141899816692,
        "training_error": 0.02818682561528462,
        "validation_error": 0.04704860495502986,
        "evaluation_results": {
          "X": 86,
          "O": 367,
          "draw": 47
        },
        "evaluation_seed": 0,
        "evaluation_efficiency": 78.10000000000001,
        "tactical_passed_count": 4,
        "tactical_total_count": 4,
        "tactical_success_rate": 100.0
      },
      {
        "checkpoint_index": 6,
        "total_epochs": 120,
        "elapsed_seconds": 10.619454799918458,
        "training_error": 0.025993475549611456,
        "validation_error": 0.04400083280780597,
        "evaluation_results": {
          "X": 82,
          "O": 365,
          "draw": 53
        },
        "evaluation_seed": 0,
        "evaluation_efficiency": 78.3,
        "tactical_passed_count": 4,
        "tactical_total_count": 4,
        "tactical_success_rate": 100.0
      },
      {
        "checkpoint_index": 7,
        "total_epochs": 140,
        "elapsed_seconds": 12.381809199927375,
        "training_error": 0.02455946842988779,
        "validation_error": 0.041456851071995295,
        "evaluation_results": {
          "X": 84,
          "O": 366,
          "draw": 50
        },
        "evaluation_seed": 0,
        "evaluation_efficiency": 78.2,
        "tactical_passed_count": 4,
        "tactical_total_count": 4,
        "tactical_success_rate": 100.0
      },
      {
        "checkpoint_index": 8,
        "total_epochs": 160,
        "elapsed_seconds": 14.149399999994785,
        "training_error": 0.023416018128300832,
        "validation_error": 0.03909432099242202,
        "evaluation_results": {
          "X": 72,
          "O": 378,
          "draw": 50
        },
        "evaluation_seed": 0,
        "evaluation_efficiency": 80.60000000000001,
        "tactical_passed_count": 4,
        "tactical_total_count": 4,
        "tactical_success_rate": 100.0
      },
      {
        "checkpoint_index": 9,
        "total_epochs": 180,
        "elapsed_seconds": 15.931369099998847,
        "training_error": 0.022529796832646973,
        "validation_error": 0.03762107903533795,
        "evaluation_results": {
          "X": 50,
          "O": 414,
          "draw": 36
        },
        "evaluation_seed": 0,
        "evaluation_efficiency": 86.4,
        "tactical_passed_count": 4,
        "tactical_total_count": 4,
        "tactical_success_rate": 100.0
      },
      {
        "checkpoint_index": 10,
        "total_epochs": 200,
        "elapsed_seconds": 17.723961299983785,
        "training_error": 0.02199843993700261,
        "validation_error": 0.036779774042747265,
        "evaluation_results": {
          "X": 50,
          "O": 390,
          "draw": 60
        },
        "evaluation_seed": 0,
        "evaluation_efficiency": 84.0,
        "tactical_passed_count": 4,
        "tactical_total_count": 4,
        "tactical_success_rate": 100.0
      },
      {
        "checkpoint_index": 11,
        "total_epochs": 220,
        "elapsed_seconds": 19.487718999851495,
        "training_error": 0.021292149514743553,
        "validation_error": 0.036123546503098264,
        "evaluation_results": {
          "X": 58,
          "O": 392,
          "draw": 50
        },
        "evaluation_seed": 0,
        "evaluation_efficiency": 83.39999999999999,
        "tactical_passed_count": 4,
        "tactical_total_count": 4,
        "tactical_success_rate": 100.0
      },
      {
        "checkpoint_index": 12,
        "total_epochs": 240,
        "elapsed_seconds": 21.24920169985853,
        "training_error": 0.020871595521829885,
        "validation_error": 0.035969792979812384,
        "evaluation_results": {
          "X": 39,
          "O": 420,
          "draw": 41
        },
        "evaluation_seed": 0,
        "evaluation_efficiency": 88.1,
        "tactical_passed_count": 4,
        "tactical_total_count": 4,
        "tactical_success_rate": 100.0
      },
      {
        "checkpoint_index": 13,
        "total_epochs": 260,
        "elapsed_seconds": 23.024622399825603,
        "training_error": 0.02040075372008122,
        "validation_error": 0.03581215364089584,
        "evaluation_results": {
          "X": 57,
          "O": 394,
          "draw": 49
        },
        "evaluation_seed": 0,
        "evaluation_efficiency": 83.7,
        "tactical_passed_count": 4,
        "tactical_total_count": 4,
        "tactical_success_rate": 100.0
      },
      {
        "checkpoint_index": 14,
        "total_epochs": 280,
        "elapsed_seconds": 24.7978032999672,
        "training_error": 0.020202778335724047,
        "validation_error": 0.036295399566750354,
        "evaluation_results": {
          "X": 66,
          "O": 387,
          "draw": 47
        },
        "evaluation_seed": 0,
        "evaluation_efficiency": 82.1,
        "tactical_passed_count": 4,
        "tactical_total_count": 4,
        "tactical_success_rate": 100.0
      },
      {
        "checkpoint_index": 15,
        "total_epochs": 300,
        "elapsed_seconds": 26.56191709986888,
        "training_error": 0.019803584465432043,
        "validation_error": 0.03616918502310182,
        "evaluation_results": {
          "X": 41,
          "O": 414,
          "draw": 45
        },
        "evaluation_seed": 0,
        "evaluation_efficiency": 87.3,
        "tactical_passed_count": 4,
        "tactical_total_count": 4,
        "tactical_success_rate": 100.0
      },
      {
        "checkpoint_index": 16,
        "total_epochs": 320,
        "elapsed_seconds": 28.319716400001198,
        "training_error": 0.01947715061558288,
        "validation_error": 0.03631756082851066,
        "evaluation_results": {
          "X": 58,
          "O": 399,
          "draw": 43
        },
        "evaluation_seed": 0,
        "evaluation_efficiency": 84.1,
        "tactical_passed_count": 4,
        "tactical_total_count": 4,
        "tactical_success_rate": 100.0
      },
      {
        "checkpoint_index": 17,
        "total_epochs": 340,
        "elapsed_seconds": 30.14117049984634,
        "training_error": 0.019207277263243422,
        "validation_error": 0.0361566902895978,
        "evaluation_results": {
          "X": 50,
          "O": 409,
          "draw": 41
        },
        "evaluation_seed": 0,
        "evaluation_efficiency": 85.9,
        "tactical_passed_count": 4,
        "tactical_total_count": 4,
        "tactical_success_rate": 100.0
      },
      {
        "checkpoint_index": 18,
        "total_epochs": 360,
        "elapsed_seconds": 31.899376099929214,
        "training_error": 0.019022377262796774,
        "validation_error": 0.03626084352001365,
        "evaluation_results": {
          "X": 56,
          "O": 406,
          "draw": 38
        },
        "evaluation_seed": 0,
        "evaluation_efficiency": 85.0,
        "tactical_passed_count": 4,
        "tactical_total_count": 4,
        "tactical_success_rate": 100.0
      },
      {
        "checkpoint_index": 19,
        "total_epochs": 380,
        "elapsed_seconds": 33.66007849993184,
        "training_error": 0.01891992845598023,
        "validation_error": 0.03637192384949419,
        "evaluation_results": {
          "X": 41,
          "O": 414,
          "draw": 45
        },
        "evaluation_seed": 0,
        "evaluation_efficiency": 87.3,
        "tactical_passed_count": 4,
        "tactical_total_count": 4,
        "tactical_success_rate": 100.0
      },
      {
        "checkpoint_index": 20,
        "total_epochs": 400,
        "elapsed_seconds": 35.438196799950674,
        "training_error": 0.018713960304834396,
        "validation_error": 0.0363483989548939,
        "evaluation_results": {
          "X": 55,
          "O": 412,
          "draw": 33
        },
        "evaluation_seed": 0,
        "evaluation_efficiency": 85.7,
        "tactical_passed_count": 4,
        "tactical_total_count": 4,
        "tactical_success_rate": 100.0
      },
      {
        "checkpoint_index": 21,
        "total_epochs": 420,
        "elapsed_seconds": 37.19358059996739,
        "training_error": 0.018608235681575012,
        "validation_error": 0.03697060480234594,
        "evaluation_results": {
          "X": 55,
          "O": 401,
          "draw": 44
        },
        "evaluation_seed": 0,
        "evaluation_efficiency": 84.6,
        "tactical_passed_count": 4,
        "tactical_total_count": 4,
        "tactical_success_rate": 100.0
      },
      {
        "checkpoint_index": 22,
        "total_epochs": 440,
        "elapsed_seconds": 38.95626079989597,
        "training_error": 0.018340598191714748,
        "validation_error": 0.03639971941251009,
        "evaluation_results": {
          "X": 51,
          "O": 405,
          "draw": 44
        },
        "evaluation_seed": 0,
        "evaluation_efficiency": 85.39999999999999,
        "tactical_passed_count": 4,
        "tactical_total_count": 4,
        "tactical_success_rate": 100.0
      }
    ],
    "initial_training_error": 0.13982762677288257,
    "final_training_error": 0.018340598191714748,
    "training_error_improvement": 0.12148702858116783,
    "initial_validation_error": 0.15987558756072548,
    "final_validation_error": 0.03639971941251009,
    "validation_error_improvement": 0.12347586814821539,
    "initial_evaluation_efficiency": 61.6,
    "final_evaluation_efficiency": 85.39999999999999,
    "evaluation_efficiency_improvement": 23.79999999999999,
    "initial_tactical_success_rate": 100.0,
    "final_tactical_success_rate": 100.0,
    "tactical_success_rate_improvement": 0.0,
    "best_checkpoint": {
      "checkpoint_index": 12,
      "total_epochs": 240,
      "elapsed_seconds": 21.24920169985853,
      "training_error": 0.020871595521829885,
      "validation_error": 0.035969792979812384,
      "evaluation_results": {
        "X": 39,
        "O": 420,
        "draw": 41
      },
      "evaluation_seed": 0,
      "evaluation_efficiency": 88.1,
      "tactical_passed_count": 4,
      "tactical_total_count": 4,
      "tactical_success_rate": 100.0
    },
    "best_checkpoint_index": 12,
    "best_total_epochs": 240,
    "best_training_error": 0.020871595521829885,
    "best_validation_error": 0.035969792979812384,
    "best_evaluation_efficiency": 88.1,
    "best_tactical_success_rate": 100.0,
    "final_checkpoint_is_best": false,
    "stopped_early": true
  }
}