{
  "type": "neural_model_package",
  "game": "morpion",
  "trained_player": "O",
  "opponent_player": "X",
  "model_data": {
    "type": "simple_neural_network",
    "input_size": 18,
    "hidden_size": 18,
    "output_size": 9,
    "learning_rate": 0.12,
    "input_hidden_weights": [
      [
        1.9410839275935041,
        1.2376230339824286,
        -0.4039870291790127,
        -1.3116310803946705,
        -0.49935299478438827,
        0.8128441901048592,
        -0.043729028333117544,
        -2.093881227230599,
        -0.45725140749624155,
        0.3694180920139582,
        1.3197882854981842,
        1.76962954601588,
        -0.10637945458257614,
        0.6803351321493992,
        -1.4275723308225685,
        0.7746153870107186,
        0.9256132213525897,
        0.27387064839304287
      ],
      [
        -0.10969189228927405,
        -2.0207532001747466,
        -1.160138521878772,
        0.5300278265372598,
        -0.42315758696736094,
        0.9164183497930956,
        -1.2837204528473274,
        -0.43702207585794817,
        1.2010353352588896,
        -0.9378056204047321,
        1.811702034283154,
        -0.2509568511931811,
        -0.20447435244400142,
        0.310536140125318,
        -0.10080785304870463,
        0.1639659805270826,
        -0.5414857596714857,
        0.019031730160532404
      ],
      [
        -0.4336545058442599,
        1.467751022507064,
        1.589576552591522,
        -0.5192762803950759,
        -0.5195061707615596,
        0.5284639943898931,
        -0.1823464282333408,
        -0.09346035241442442,
        -0.04927676921572078,
        -1.3283146985980292,
        -0.23905960535678117,
        0.14248052643561618,
        -0.7669813108405195,
        0.8003676745640826,
        0.8912072546112036,
        -0.08448402432915865,
        0.34283694126795927,
        -0.8430347700490157
      ],
      [
        -0.5479854536186418,
        0.9039488996629185,
        -0.6525106359612965,
        -0.13456987121295497,
        -0.20778094528657237,
        -0.6210535289648321,
        0.5819719053922106,
        0.25365141992269175,
        0.28065631068614144,
        0.762699171184469,
        -0.9087128628226504,
        0.007668093407991756,
        1.21037129632679,
        -1.049682046031157,
        -1.123791476544133,
        0.6079700156623301,
        0.6976178054582033,
        1.0130683289555276
      ],
      [
        0.554503527433416,
        1.3351934698964583,
        1.1374528532412296,
        0.5338047022689554,
        0.4615408109282917,
        0.11176060217879519,
        1.4552921875800484,
        1.0237425758220278,
        1.7262675684402984,
        -0.46358598864885614,
        -0.3388444423819256,
        -2.1117817257854288,
        -0.1993231605023001,
        0.6761375737204022,
        0.38510329294866424,
        0.26437069726114354,
        0.3640836690194156,
        0.6184961833500877
      ],
      [
        0.26464401632641815,
        0.0648469789824736,
        -0.6985809421867625,
        -0.02349871226780792,
        -0.06301292995773031,
        0.8530275660146933,
        0.7277951704028982,
        -0.7261428963545112,
        -0.3731531392695387,
        1.603040115357189,
        -0.3063645646537391,
        0.7671007173518393,
        0.14694810822535723,
        -0.10232533953475755,
        0.37525974831127834,
        -0.13628518321276784,
        0.9309372359227333,
        -1.0957574613534038
      ],
      [
        -0.03045159339183128,
        -1.5441879671284278,
        -0.5849540228735742,
        -0.6371864394389879,
        -1.001708114142293,
        0.12408160127887288,
        -0.11611557482387248,
        0.2490729425287025,
        -0.20544984130999566,
        0.4822451569606609,
        -0.02148577070462224,
        -0.6670097481858752,
        1.6371208655249778,
        0.15132647184519754,
        -0.049999922520825066,
        1.2921233917161599,
        -0.08754630983296008,
        -0.22953093526620696
      ],
      [
        0.7586320879150831,
        -0.28743709765410647,
        0.20311193331242264,
        -0.8113336583500355,
        0.39193814530195226,
        1.3200506536770955,
        -0.006344685778478081,
        -0.3939208261681637,
        0.003550683321519264,
        -0.684063485540904,
        0.3642755995216888,
        0.5051344154647229,
        -0.11178093813989425,
        -0.6014397985494785,
        0.3341046746571779,
        -2.1927941225684173,
        -1.085758324032272,
        0.7648272589393673
      ],
      [
        0.38975137871171417,
        0.254890331324567,
        -0.9284698726276517,
        -0.895094336855062,
        0.9495115640502074,
        -1.3884000684753588,
        -0.032194268586868746,
        0.26149877387374987,
        -1.0511788898873045,
        0.5033175520407568,
        -0.018045456046616636,
        -0.09269476441673383,
        -1.0041724555288696,
        0.3067289448944581,
        -0.06180345629411979,
        0.46458744869187035,
        -0.028120552881954156,
        -0.5621371079292263
      ],
      [
        0.558398437705324,
        1.0751248868110235,
        -1.750082087450338,
        -0.6887456783177743,
        -0.6424350121320077,
        0.40567598193641236,
        0.12369106462123998,
        -0.9732745714845338,
        0.352425907173492,
        0.3354900439738622,
        0.16320938575074018,
        0.5698481326360242,
        0.1160722143709014,
        0.95586213392026,
        -0.7236349299818676,
        1.5812052793524065,
        0.6035032155644385,
        0.7358653121524262
      ],
      [
        0.4187126073175515,
        -0.153855632155492,
        0.33720361372180774,
        -0.33901105962213424,
        0.15380205070995911,
        -0.3238532319570068,
        0.3603533967973259,
        0.2665709047558051,
        0.0019456277418188014,
        0.6045476295034823,
        -0.4688056181862524,
        -0.39684830011017325,
        -0.11210349264753265,
        -0.38159772598979635,
        0.2709755722428335,
        -0.23765834062196264,
        0.3483407044835094,
        -0.0019679778201050387
      ],
      [
        -0.34378276979390243,
        -1.4074761827150954,
        0.255421196163359,
        -1.287172814121113,
        0.34292634164916336,
        1.669630365383521,
        0.5315758794047754,
        0.7974657049218625,
        0.8818565420343036,
        0.01031035261483638,
        -0.6347748109034953,
        -0.6204361533232274,
        0.5292289172568497,
        0.1641357247525283,
        0.6648377656198512,
        0.2829044432165071,
        -0.6104282533465454,
        0.3121298261458301
      ],
      [
        1.1974024048971508,
        -0.3090884374581861,
        0.7963737677365449,
        -0.35218962602905424,
        0.5430310194589844,
        -0.007569007131620283,
        0.11165153281720434,
        -0.43576202125279573,
        0.18829686620289318,
        -0.43435387707521467,
        0.573784632373848,
        0.035653395935243325,
        -0.2477233986082062,
        -0.6492640200350921,
        1.201852703101465,
        -0.6432993321542828,
        -0.9550170446300551,
        0.07904699357204667
      ],
      [
        -1.771968160515783,
        -0.2500019637596083,
        -0.5341036703002736,
        -1.2012029887524007,
        -1.0593856845952472,
        0.1749873331671941,
        0.43305831775069403,
        -0.1384142843907312,
        -0.9228706316474823,
        0.011963610764160113,
        -0.2693742780039721,
        -0.03419913302040999,
        0.761105349841426,
        -0.4588301804417547,
        -0.5532457843149913,
        0.17866470794319747,
        0.14293219533111096,
        -1.0717927999299377
      ],
      [
        0.09497116643744437,
        -0.3094094409278625,
        1.1666436859613787,
        0.20758600614732137,
        0.2686827198040891,
        -0.7031186015740248,
        -0.1077147382195628,
        0.9385865590275289,
        0.24444630128611883,
        0.0006962163412730249,
        0.27041034128262104,
        -0.7678632084158982,
        0.1104300430200357,
        -0.38930292780930537,
        -0.8128673120441601,
        -0.8725373453539564,
        -0.76730132470246,
        0.9057621991979169
      ],
      [
        -0.4714560455869272,
        -0.09820501422160627,
        0.010137130377885384,
        0.45394888374017417,
        0.2735109726582914,
        0.4919138110432327,
        -0.7079943102269973,
        0.09212828905733096,
        0.39413477325410534,
        -0.17512879865887243,
        -0.03601958760908931,
        -0.4066662392511606,
        -0.46078883394833164,
        0.17647528750698396,
        0.667212345620623,
        -1.3488037291047799,
        0.505466981400944,
        -0.5670648895543765
      ],
      [
        0.012211809909912266,
        -0.48778284533734767,
        0.7153734430739922,
        0.2929275531737809,
        -0.033227996242472774,
        -0.41302467326376263,
        -0.9490956215960735,
        0.45708542264441115,
        -0.008699713303638395,
        0.24578146630392567,
        -0.20325971085985609,
        -0.6371634372183185,
        -0.0010813663143747474,
        0.6702144742253112,
        -0.07312802635793114,
        -0.6537137670129339,
        0.25622128933329136,
        -0.5201972408892008
      ],
      [
        -0.04223697736137191,
        -0.24076199534417736,
        0.7916342594147369,
        0.5434332651682603,
        0.3452376304240563,
        0.0422481488402096,
        0.2705000569972024,
        -0.2244096116642785,
        0.8810609116137436,
        -0.09160317385035883,
        0.5010598691764769,
        -1.583768027568913,
        0.20535260605498637,
        0.3645951041066029,
        0.2577666019463096,
        -1.1661682905039967,
        -0.3066629886611227,
        0.06538045591346392
      ]
    ],
    "hidden_biases": [
      -0.0032447281188140993,
      -0.7650412502350731,
      0.17201488957506755,
      0.09686110308366862,
      0.6814896148827351,
      0.0651835838505892,
      0.02052910913406573,
      0.09320350680827064,
      0.338132640159945,
      1.50244601191769,
      0.23351814001692603,
      -0.6976550655254109,
      0.37191096208652635,
      0.43528210625417463,
      -0.07170986869113004,
      -1.3133174228744477,
      -1.069244126182263,
      -0.5624020635208141
    ],
    "hidden_output_weights": [
      [
        -0.3188846808747435,
        0.3154405501651698,
        1.7153023982734454,
        0.15036177838904816,
        -0.22337933474304064,
        -0.8479226924280712,
        -0.3021374942806126,
        0.038379868045365084,
        -1.2965645715335405
      ],
      [
        -2.203807880312748,
        0.22744979728202588,
        -1.0623217773143014,
        -0.5482166940226314,
        -2.0632988688026357,
        -0.7071188678209643,
        -0.40932533399340265,
        -1.2087719457268333,
        -0.5280002073148043
      ],
      [
        0.6370375676522342,
        -0.1647219689370359,
        -2.4688140900931668,
        0.7487803475343122,
        0.141523509706678,
        0.7593677574297848,
        -0.10766849919529092,
        0.20166176421066065,
        1.1193561018089366
      ],
      [
        0.07881290587755074,
        -0.054425323972142454,
        0.7433314416921599,
        -0.24668763093788748,
        0.11521307203786842,
        0.7827094132825049,
        1.383794455480142,
        1.261770975703731,
        -0.5186075860871534
      ],
      [
        -2.3599932043609204,
        -0.2104526922159134,
        -0.5059609455943919,
        -0.15015476857065368,
        0.5143329016804776,
        0.16462555846307544,
        -0.08292237759601599,
        -0.11102942766815724,
        0.3332433706154763
      ],
      [
        -1.5712693316973039,
        -0.23582651510723418,
        -0.6174047534994985,
        -0.42904402402302283,
        -1.0751156837541742,
        -1.1019669418414229,
        0.2766393483674439,
        0.03308027298834442,
        -1.0033727065255795
      ],
      [
        0.6967060169963276,
        -0.3429136972125196,
        0.22145016699285153,
        0.6589405191105886,
        0.4823665236194524,
        0.10129492592734866,
        0.11066810014738702,
        0.5309526174904716,
        0.9076402688667755
      ],
      [
        -0.6589487124784804,
        0.5236306634318679,
        0.8003419943676487,
        1.2652798989361915,
        0.8861863193916851,
        0.4214271838182308,
        1.438424851183408,
        1.2526531621674317,
        -1.103059502918477
      ],
      [
        1.8877547358370683,
        -0.5995078111282514,
        -0.138938331218113,
        0.5801824125706194,
        0.07896732517677071,
        -0.9242230971550531,
        -0.11022514125266535,
        -1.0130931370519793,
        0.30344937530519495
      ],
      [
        -0.7076244786933313,
        -1.1300343015383667,
        -0.6919260791595842,
        0.23483227106521654,
        -2.4563460048382453,
        -0.1487740239634316,
        0.6347717223862983,
        -1.2836720189308455,
        0.7295377286119277
      ],
      [
        -1.3869039140962764,
        -0.362684427278444,
        -0.9817466902552926,
        0.4935536733237848,
        -0.19784146136972428,
        -0.6627382042343154,
        -0.37923764116562075,
        -0.02625359527723993,
        1.3881143126309818
      ],
      [
        0.08297905156687585,
        -0.3482504132816848,
        2.6099166304934545,
        -0.22385279970797445,
        -0.36149144512698733,
        0.5991687850824886,
        -0.06838396771265288,
        -1.0204288742851093,
        -1.6185536971494632
      ],
      [
        -2.112761847970153,
        0.20710740997401955,
        0.6252073268609466,
        -0.12327221936379795,
        0.2514116254047411,
        0.3362839800684153,
        -0.670399418472252,
        -0.10099709526443049,
        -0.4928829539141734
      ],
      [
        0.43476697835649236,
        0.5118452993820705,
        0.9652796850115257,
        -0.1857392531395069,
        -0.32674475073995274,
        -0.10318522682521858,
        -1.3417735455684796,
        -0.5992164996544818,
        0.8246356163949329
      ],
      [
        0.5654128591899773,
        0.6777178430880892,
        0.5328381489136128,
        0.3830698665831548,
        0.5495092440322273,
        1.9448553059425502,
        0.8250843564616304,
        1.1678565243154007,
        0.7708545500078534
      ],
      [
        0.11238606435024878,
        -0.13392563634392043,
        -2.588361475726452,
        0.9185110814974892,
        -0.16085651655126174,
        0.024949994890601936,
        -0.18547711151695487,
        0.9290296168053642,
        2.1355727906704094
      ],
      [
        -0.36910051254210063,
        0.01625324382916157,
        -0.8947252317650382,
        0.9882097820325173,
        0.9458850885136025,
        -0.15433855367307417,
        -0.31585822318737244,
        0.12773580113866795,
        1.6493083369620467
      ],
      [
        0.5241061228570554,
        0.9118340124410685,
        1.1976280766873793,
        -0.961180836349927,
        -0.7670968395525201,
        0.790791164619709,
        -0.4757547552509879,
        0.09378701730794815,
        1.1453644278561719
      ]
    ],
    "output_biases": [
      -0.14953733973715208,
      -0.11987648766637904,
      -0.08320407768833456,
      -1.550375528081248,
      -0.4499541743306198,
      -0.9180270528383183,
      -1.5211841692818295,
      -0.5293525633378834,
      0.2490213810746224
    ]
  },
  "training_summary": {
    "game": "morpion",
    "training_games_count": 300,
    "simulations_per_move": 30,
    "max_examples": 200,
    "tactical_repeat_count": 25,
    "base_examples_count": 200,
    "extra_examples_count": 100,
    "examples_count": 300,
    "scored_moves_count": 1500,
    "average_legal_moves": 5.0,
    "average_best_score": 0.7,
    "input_size": 18,
    "hidden_size": 18,
    "output_size": 9,
    "epochs": 160,
    "learning_rate": 0.12,
    "started_from_existing_model": true,
    "initial_error": 0.007080793586586104,
    "final_error": 0.00499983951689408,
    "error_improvement": 0.0020809540696920233
  }
}