{
  "type": "neural_model_package",
  "game": "morpion",
  "trained_player": "O",
  "opponent_player": "X",
  "model_data": {
    "type": "simple_neural_network",
    "input_size": 18,
    "hidden_size": 18,
    "output_size": 9,
    "learning_rate": 0.12,
    "input_hidden_weights": [
      [
        1.8781281851598668,
        1.1408103136840517,
        -0.3876590581999676,
        -1.2009482052710545,
        -0.5217709402196193,
        0.7731743653135937,
        -0.05023248073736724,
        -1.826051110120216,
        -0.478388049413525,
        0.37807070376662527,
        1.1625209171670958,
        1.7691085953512833,
        0.026251503513299822,
        0.5409898146864068,
        -1.220675160522939,
        0.5441363797266161,
        0.5624357012627614,
        0.2777007283332141
      ],
      [
        -0.08094996371780301,
        -1.6738797778205188,
        -1.0179153577880735,
        0.4901485671720388,
        -0.27988040329816527,
        0.8361516880349152,
        -0.5754937966529616,
        -0.35937505917983587,
        0.8969068182113646,
        -0.6507031089930487,
        1.466027616170793,
        -0.027922777877949723,
        -0.3061559993311399,
        0.2528282549474067,
        -0.49919250594025333,
        0.27284049355419077,
        -0.17806238305312164,
        -0.3536347750386835
      ],
      [
        0.02135625697049325,
        1.4208376012139508,
        1.4257083054076491,
        -0.16512615022751312,
        -0.6420158781886969,
        0.5317914780727688,
        -0.1654430522622844,
        0.11558879723923232,
        0.1035773847362758,
        -0.8944129932259725,
        -0.4821460612726922,
        -0.16080217003067668,
        -0.7616167748977816,
        0.8731315213783319,
        0.7412025818705587,
        0.07314620408387862,
        0.23357712579384965,
        -0.6289241291556558
      ],
      [
        -0.4353562725065932,
        0.7140554098605255,
        -0.6279152041499023,
        -0.21792322773491282,
        -0.052546480713220295,
        -0.40918928954866185,
        0.39215987651730716,
        0.024402054734603842,
        0.18045591287933155,
        0.9286776264053608,
        -0.8311055194200246,
        0.020645426918853373,
        1.2565672214063528,
        -0.7733384543778162,
        -0.813712262589783,
        0.2705021084472829,
        0.43313098695717955,
        0.5221978921031187
      ],
      [
        0.35466769672416826,
        1.0610199380950356,
        0.920111281544374,
        0.4237016624029733,
        0.3824642525315914,
        0.11213478230420551,
        0.8829259243964138,
        1.2037844902146395,
        1.5822177319566717,
        -0.18799888371596463,
        -0.3995013020264461,
        -1.9021741270060954,
        -0.31647143217316165,
        0.7165459815227282,
        0.41949142104411763,
        0.4778961438656406,
        0.13360711284709345,
        0.564710833534465
      ],
      [
        0.026118834448670376,
        0.066755204215497,
        -0.6924700225410326,
        0.007434615725054489,
        0.13565674179998055,
        0.6289585697111685,
        0.6993512884153792,
        -0.5450745393259152,
        -0.12298889708156135,
        1.370465862709887,
        -0.1668782284434174,
        0.6985206050687601,
        0.19000428517533344,
        -0.08623755041327913,
        0.3538186729180128,
        -0.07812242463997861,
        0.8010414633641761,
        -0.9245778215501869
      ],
      [
        0.05724200894827265,
        -1.3194151665211329,
        -0.5769960855889272,
        -0.5466197543853933,
        -0.5619485714676133,
        0.13119850546740508,
        0.12974509988596344,
        0.3121745819380069,
        -0.20066978384464196,
        0.4154279242918117,
        -0.023852647175222064,
        -0.5848928272807693,
        1.3793835957569804,
        0.20477218843308687,
        0.1256800898135099,
        1.04325023128241,
        -0.12912796860727715,
        -0.1472402984833556
      ],
      [
        0.6465238636339902,
        -0.39122185943096066,
        0.47771375973632785,
        -0.39958292293650877,
        0.3420322320455918,
        1.1619291880073321,
        -0.5038882406009695,
        -0.3865854098956042,
        -0.17186694790397944,
        -0.5121450746163547,
        0.1613199461999569,
        0.6727620119962195,
        -0.1442473707324794,
        -0.4437410927846471,
        -0.012834876573001997,
        -2.1168744078242194,
        -1.0519928896603472,
        0.7545013056827773
      ],
      [
        0.307362574671347,
        0.19660443228955526,
        -0.7855693295361347,
        -0.8337059487011834,
        0.6482541727850334,
        -1.3311901916250444,
        0.036106754351539275,
        0.06929861894945057,
        -0.9718710715851858,
        0.3125188116284816,
        0.12234040419823025,
        -0.2750738035972479,
        -0.644544175125789,
        0.1094552881553608,
        0.050903538773634495,
        -0.007452492530863897,
        0.3710936482629921,
        -0.27006835996530587
      ],
      [
        0.460610164103574,
        0.8343719291574588,
        -1.6736092837964782,
        -0.5583751247356188,
        -0.5380169427750303,
        0.32549420914872795,
        0.2128712875202361,
        -0.7748340741187384,
        0.33891905843272613,
        0.2705537548681601,
        0.0992819657903802,
        0.5230909597756392,
        0.06755497292676946,
        0.8159011537350568,
        -0.6311888830769008,
        1.4018893658992728,
        0.5472809940392136,
        0.8557793200983016
      ],
      [
        0.48743401576199724,
        -0.12197655240823314,
        0.36393893230317254,
        -0.3048206425351633,
        0.038779637186887435,
        -0.18655830077896002,
        0.11280962554604855,
        0.3240305620154561,
        0.006834234570430958,
        0.47447224694818196,
        -0.49758769721555857,
        -0.3265898249294417,
        -0.07549902184610283,
        -0.4359451446793137,
        0.2271108880323499,
        -0.06617582962041606,
        0.6107740981045845,
        0.21297966808166782
      ],
      [
        -0.16584675503975757,
        -1.2541641850703564,
        0.18220787119835974,
        -0.9595294230025162,
        0.5261929443692973,
        1.2165346536723762,
        0.3372617594380226,
        0.7385136940551755,
        0.9463527319702869,
        -0.011087572766569869,
        -0.5518764605414712,
        -0.5167018563834024,
        0.49529482762145244,
        0.008527248768320816,
        0.5423540064734265,
        -0.06137134950755496,
        -0.346796929111056,
        0.46554145111250755
      ],
      [
        0.860392875444956,
        -0.3309144554377177,
        0.6089613738602234,
        -0.2737698846239362,
        0.23506676790156014,
        0.011776088234662979,
        -0.18871021851348577,
        -0.4689604200931996,
        -0.06161997930489586,
        -0.35634260840439147,
        0.5283577649685886,
        -0.10777137553566445,
        -0.32916776747670773,
        -0.45707658155841946,
        1.162662995100597,
        -0.40947839171538103,
        -1.0532535556124707,
        -0.029441903857207845
      ],
      [
        -1.503799910307424,
        -0.21428060862566886,
        -0.5207902612039779,
        -1.0762403196969978,
        -0.8584181256561169,
        0.6237506899480034,
        0.29151226887851295,
        0.09552799440131454,
        -0.5777443818585766,
        -0.08206372524655682,
        -0.2837694538701537,
        -0.09905919902486915,
        0.998969580872184,
        -0.2766332713554084,
        -0.609382941974328,
        0.3764720775819473,
        0.23500570591030168,
        -0.8090913540309113
      ],
      [
        0.2986233589343352,
        -0.26383522622748107,
        1.269124371658183,
        0.24457674552732103,
        0.4511804060080742,
        -0.8856682522282193,
        0.23249721253215477,
        0.8742343850624132,
        0.1188824311941398,
        0.017529116946557323,
        0.20407588697045093,
        -0.9944894093274922,
        0.14346525358741205,
        -0.16074117545395636,
        -0.8816492908627053,
        -1.17274169082664,
        -0.7383919722502741,
        0.7505874951334126
      ],
      [
        -0.4531121266979943,
        -0.00019144524828224865,
        0.06467284450671638,
        0.3322936501938933,
        0.33490942125884354,
        0.48833550702117634,
        -0.7026997377589314,
        -0.05516209370164785,
        0.40921610268564784,
        0.03089991032396275,
        0.019201413759589555,
        -0.3964153168762327,
        -0.5513040377691647,
        0.15531171710733657,
        0.6246417950956222,
        -1.205599921023846,
        0.20433936603821679,
        -0.7516575752951958
      ],
      [
        -0.1591808848424509,
        -0.4469976365931274,
        0.6395808183738857,
        0.25282423991544517,
        -0.16721521123153885,
        -0.25957454984288286,
        -0.5385058201321659,
        0.352466944695033,
        -0.12549721758137156,
        0.2920369098388816,
        -0.262633574655078,
        -0.5970686805797432,
        0.14192623889299305,
        0.5929704985948383,
        -0.2995379115086514,
        -0.7896035390176366,
        0.3353998292762353,
        -0.480787860194116
      ],
      [
        0.09861168068408985,
        -0.15630180939788466,
        0.8965407976107179,
        0.4134411039161397,
        0.21977269506715824,
        -0.05018827268465286,
        0.14726520348030647,
        -0.3384229595007452,
        0.8835280397298979,
        0.0020368283190778064,
        0.3251767009272739,
        -1.2187895130621818,
        0.13848958819590917,
        0.44152873333076825,
        0.33876164531839975,
        -1.100819031155258,
        -0.37802439617667555,
        -0.3696106234416477
      ]
    ],
    "hidden_biases": [
      0.11922950938147585,
      -0.6791309171173323,
      0.07333381557348947,
      -0.047395150790913596,
      0.45182594230447276,
      0.11457789657714249,
      0.19685933373285378,
      -0.03773232794794148,
      0.4875903375581383,
      0.7235431515885747,
      0.3508477667768994,
      -0.7778851591044981,
      0.5074200191646395,
      0.16510991849535106,
      -0.12134485221673615,
      -1.1963869239633962,
      -0.9468903729174337,
      -0.3673527370757009
    ],
    "hidden_output_weights": [
      [
        -0.46399465010837604,
        0.11897147421773194,
        1.4854143818287908,
        0.268130800057378,
        -0.31011535558511255,
        -0.7648883331930346,
        -0.4778990559862467,
        -0.12037799095690463,
        -1.0966284746677954
      ],
      [
        -2.158874617836379,
        0.18404649742723278,
        -0.821077620458532,
        -0.6264665769109453,
        -1.5692248306096817,
        -0.5050478206528541,
        -0.3692482372193414,
        -1.09368683494741,
        -0.13173097409949774
      ],
      [
        0.6887017967993084,
        -0.14082414479897454,
        -2.3386474559739603,
        0.6804596745239578,
        0.33102236459668205,
        0.829888255216983,
        -0.07921610978251449,
        0.058876192837363235,
        1.2245617703946392
      ],
      [
        -0.13842711554714987,
        0.037242094172760115,
        0.6527187570365206,
        -0.18583949893578958,
        0.2103324631455993,
        0.7541840978244211,
        1.2892624731125053,
        1.3463866392614392,
        -0.4205083772823813
      ],
      [
        -2.0469357863880777,
        -0.21142723739873368,
        -0.1863568099384748,
        -0.010361332108193195,
        0.27036432067469873,
        0.23194237214910993,
        0.49034498667722143,
        -0.239948132247391,
        0.13549298549554042
      ],
      [
        -1.4237225409347793,
        -0.27193978127083934,
        -0.563412581735666,
        -0.21737544305977574,
        -0.951490397580086,
        -1.0028150625625194,
        -0.06595368840574589,
        0.012206858284367813,
        -0.6084867136343027
      ],
      [
        0.4936787613480601,
        -0.487694159202633,
        -0.051231879838655396,
        0.32914242322779197,
        0.2224152642806311,
        0.18374837932166307,
        -0.13379471665791978,
        0.2499587571344595,
        0.48081178014051407
      ],
      [
        -0.20838570013122426,
        0.7690224260091048,
        0.7421314627596995,
        1.0194983948758747,
        0.5857719630906292,
        0.6419116846324499,
        1.0810123390102144,
        1.2577511165746524,
        -0.9716978208991706
      ],
      [
        1.575349694861042,
        -0.29409214591022387,
        -0.06289679227071501,
        0.2937701505505374,
        -0.06136400552061047,
        -0.8172724750455771,
        -0.15849018977768664,
        -0.9197120922929185,
        0.646342175366397
      ],
      [
        -0.30870082296865764,
        -0.7182079061890231,
        -0.4868068683966881,
        0.030835760509545472,
        -1.8679998241548785,
        -0.44618074576084893,
        0.2380745493877518,
        -0.7541457813155461,
        0.44335495028332816
      ],
      [
        -1.2008611854176146,
        -0.2495108358896113,
        -0.9066097193421524,
        0.04050430224982076,
        -0.6548740635861826,
        -0.795946596940348,
        -0.510564022460152,
        -0.1972264538789375,
        1.0886394106953077
      ],
      [
        0.1952772186634528,
        -0.2659853845669993,
        2.388199480929157,
        0.01468981427682534,
        -0.21103815254918948,
        0.28082983513170456,
        -0.21846318188281003,
        -0.722114706493806,
        -1.6734369737716448
      ],
      [
        -2.1252226472278535,
        0.19316124269123155,
        0.3652697797618171,
        -0.057842693603195404,
        0.2180584113071417,
        0.3978927680405084,
        -0.4720322340796011,
        -0.09252037850524296,
        -0.36814321702509195
      ],
      [
        0.1982926827290132,
        0.3068689735398729,
        0.8626552025825317,
        0.12924183444722542,
        -0.4469245107232667,
        -0.34892033106034986,
        -1.1996324563619378,
        -0.42723435855992414,
        0.516083314479351
      ],
      [
        0.4336145249723499,
        0.6490720411723697,
        0.4723594690171436,
        0.544131749359265,
        0.7016757742105474,
        1.442347277209257,
        0.7037678862651557,
        1.295206969830174,
        0.5797871875875535
      ],
      [
        0.08022530077361958,
        -0.12607316286032713,
        -2.28813289112964,
        0.9707692158520929,
        -0.0034149645672722556,
        -0.001337305845248378,
        -0.2508273384035929,
        0.44309432110540253,
        2.0306296917554993
      ],
      [
        -0.2218642705821851,
        0.26652206818242846,
        -0.5796330134836836,
        0.44190055475221873,
        0.7878853599065817,
        -0.2330935416354678,
        -0.37655095818324347,
        0.1757448165231231,
        1.3079565118407563
      ],
      [
        0.2851229846919338,
        0.6317327312501262,
        0.6898158976251868,
        -0.6833540079902721,
        -0.9354064508625499,
        -0.0964157083109943,
        -0.508444523605179,
        0.10893335841420698,
        1.118740709629044
      ]
    ],
    "output_biases": [
      -0.4035506869796649,
      -0.38623424870320266,
      0.01650951082089437,
      -1.2609906219609035,
      -0.2270338372558192,
      -0.9524703214127492,
      -1.22902550860195,
      -0.6583786330338698,
      0.24303902312569275
    ]
  },
  "training_summary": {
    "game": "morpion",
    "training_games_count": 300,
    "simulations_per_move": 30,
    "max_examples": 200,
    "tactical_repeat_count": 25,
    "base_examples_count": 200,
    "extra_examples_count": 100,
    "examples_count": 300,
    "scored_moves_count": 1500,
    "average_legal_moves": 5.0,
    "average_best_score": 0.7,
    "input_size": 18,
    "hidden_size": 18,
    "output_size": 9,
    "epochs": 160,
    "learning_rate": 0.12,
    "started_from_existing_model": false,
    "initial_error": 0.13260776688834894,
    "final_error": 0.007080793586586104,
    "error_improvement": 0.12552697330176282
  }
}